tree
version=v4
num_class=5
num_tree_per_iteration=5
label_index=0
max_feature_idx=40
objective=multiclass num_class:5
feature_names=Column_0 Column_1 Column_2 Column_3 Column_4 Column_5 Column_6 Column_7 Column_8 Column_9 Column_10 Column_11 Column_12 Column_13 Column_14 Column_15 Column_16 Column_17 Column_18 Column_19 Column_20 Column_21 Column_22 Column_23 Column_24 Column_25 Column_26 Column_27 Column_28 Column_29 Column_30 Column_31 Column_32 Column_33 Column_34 Column_35 Column_36 Column_37 Column_38 Column_39 Column_40
feature_infos=[-1.2960311281175461:11.968286688836626] [-1.2155420227665938:12.239175464602962] [-1.6211007231189423:15.096111962715662] [-1.1697902432243144:12.856555246148178] [-3.3503438232084903:11.360794224543175] [-1.3317195460011719:12.301981484776745] [-7.8252644070515602:8.6856847036488034] [-1.1879775263897681:12.330338975965693] [-5.2586350059251137:15.949080713848101] [-1.3134719799476344:12.000912429778923] [-11.304015460103315:7.1214015259007173] [-4.1607817237791371:2.3389857445969415] [-5.1644434250727187:6.4781340796231106] [-9.9402497532645189:5.5004183304377268] [-3.1610940907657552:8.6614577832861546] [-1.2805907315437548:10.971804844436951] [-1.1773694285837222:13.267188394696536] [-1.2424838421565101:12.499558062495264] [-1.2119026352809776:13.222974411734469] [-1.2688537254302188:13.276459840281859] [-4.2079385465824073:7.7340867344232898] [-2.2965128494101883:10.171277277223071] [-0.93329979013153197:7.9461173260924225] [-0.2857282712544883:6.9863410192386546] [-0.92201518755185197:5.1195135066239237] [-1.2376995639314998:10.830144560545886] [-1.2812346342124539:13.436677480956464] [-1.6298386250007932:17.4010058876922] [-3.396321939649555:8.7363474577567111] [-2.9205407257782312:10.377857654988823] [-1.2493802680747741:11.400365701758517] [-1.1360418289750802:15.205828616637893] [-2.8255172714753969:8.5445986391958986] [-3.3153747709794898:2.9247200175794119] [-3.9184074531713016:4.3204891729444972] [-4.9931283143407263:0.32241840773229835] [-0.94780812877008702:1.0550658615870252] [-2.1363544070295992:5.1535420065593929] [-1.0550658615870252:0.94780812877008713] [-0.92468569773332321:1.0826391265276274] [-3.4776437043575577:0.62173068467299875]
tree_sizes=1670 1670 2181 2077 2170 1827 1806 2569 2116 2019 1921 1915 2450 1808 2023 1817 1818 2569 2011 2027 2026 1272 1924 1914 1925 1607 1701 2348 1916 1931 1816 1815 2040 2023 2227 1823 1277 1928 2018 1927 1389 1596 1931 1915 1913 2125 1071 2241 1913 1821 1621 1395 1808 1707 1604 1303 1073 1915 2018 2026 2123 1811 1821 1601 1722 1393 1814 2235 1494 1816 1807 2021 1924 1705 1609 1500 2017 2356 1602 1289 975 1606 1713 1487 1284 1724 1922 2238 1817 2038 1499 1816 1837 1718 1714 972 1917 2346 1603 1823 1620 1509 1723 1076 1913 2244 1810 2024 1813 1401 1501 1816 1821 1077 1718 1281 1621 2038 1283 1291 978 1080 2023 1714 1188 869 1598 1514 1177 1823 1502 1822 1513 1705 1186 1707 1704 1404 1504 1926 1829 1513 1720 2024 872 1725 1397 2244 1295 1395 1291 2034 1619 1596 1822 1189 1615 1506 1079 984 1510 1916 1829 1190 2345 1715 1828 1619 2138 1513 1612 1932 1613 1295 1296 1716 1608 1298 1614 2248 1824 1080 1614 1396 1407 1396 1609 2138 1183 1615 871 1616 2263 1085 1083 1729 1502 1732 1185 1926 2363 1711 1174 1081 2027 1504 1291 2240 1920 1710 1504 1292 2043 1190 1290 1507 1287 2033 1714 1725 980 1509 1843 871 1717 1206 1711 2465 1093 1612 1407 1927 1835 1719 1301 1611 2041 1720 1503 2139 1394 2357 1615 2130 1603 1830 1832 1631 1625 1187 1389 1288 1292 1404 985 1087 1929 1950 1292 1833 2453 1831 2271 2037 1402 1392 1293 1515 1288 1415 1199 2047 1944 1295 1616 1611 1508 1728 1189 1303 1607 1612 1298 1085 1724 2469 1304 1085 1716 1946 1836 1722 1628 1410 1401 1830 1727 2176 1192 1091 1726 1405 1303 1192 1188 1310 1514 1402 1085 1623 1524 1829 1951 1406 978 1416 1515 1519 2262 1828 2150 2573 1519 1725 1634 1842 1399 1411 1196 1288 1854 1626 1513 1203 1612 2365 877 2156 1089 1409 1944 1414 1965 1620 1940 1423 2050 1526 2045 1298 775 2049 1512 1410 2045 1726 1518 1956 980 1846 1520 1946 1515 1734 1748 1085 1841 2276 988 772 1406 1300 2080 2366 1519 1612 1299 1191 1626 2054 1849 1307 2153 1516 1294 1425 1624 2272 1302 1730 1087 1837 2184 1519 2263 1739 1627 1848 1732 2055 1430 1407 1646 1631 1411 973 1083 1202 1196 1307 1622 1087 1426 874 1085 2158 1841 2073 875 2281 1958 1729 1950 1833 1406 2053 1292 1871 1627 1416 773 1734 1636 1406 1855 2055 771 1301 873 1727 2171 1948 1846 1194 1843 1744 1201 1625 1414 1838 987 1510 2506 1302 1301 1305 2498 1951 1846 2168 1406 1838 2513 1517 2260 1522 1201 1632 1523 2278 1728 880 1963 1737 780 1517 2175 1867 1092 1846 1524 1843 1418 1838 1410 1627 1092 1647 1084 1411 776 1832 1216 1200 1852 2702 2057 2080 1304 1312 1412 986 1308 1406 1420 1627 1092 1212 1736 1417 1190 1095 2282 1517 985 1962 1199 2500 1521 1855 1196 1742 2290 1085 1301 1522 1095 1310 1417 1406 2070 2715 1744 1418 870 1416 1100 2396 1415 1297 1203 1859 2063 1721 2170 1950 1623 1655 1202 1635 984 1735 1533 1630 1201 1743 1101 1749 1419 1527 1736 1636 1983 887 1748 1418 1308 1090 1204 1310 2186 1317 2302 889 1202 1947 1523 1753 1103 1204 1741 1529 2080 1846 2166 1852 1965 1863 1422 1420 2057 1972 1204 1095 993 1741 2084 2199 1207 1204 778 1527 1985 880 984 782 1528 1645 1966 1417 1420 1100 1434 886 770 2508 2408 2090 883 1095 1543 1845 2410 1419 1001 1735 1857 1765 1531 1960 1972 1859 2523 883 1418 1525 892 1879 1097 2070 1952 2278 1211 1318 2075 1858 2295 1781 998 1102 1537 1740 1873 1850 1843 1423 2509 1992 1314 1531 1742 1640 1216 885 998 1320 1964 2079 1432 1427 2076 1098 1657 1643 997 1531 2311 1442 1637 890 889 2187 1655 1635 2186 2382 2173 1541 1861 1200 1851 1967 2087 1533 2187 1634 1000 2306 2082 2073 2084 886 1546 1848 1102 1536 1423 2000 1426 1099 1861 993 1978 1532 1107 1209 2535 1668 1319 2294 1099 1975 1774 2083 885 1747 1444 1425 1539 1535 1759 1324 2314 1436 1647 1870 1217 1545 1971 1424 886 1657 1443 1328 1093 1538 1971 1896 777 1109 1441 2094 1319 1423 1321 1654 2305 1992 2093 996 1100 1986 1546 1542 2096 1871 1875 1671 1981 992 1879 1760 1440 1870 1864 1765 1537 1667 1536 1101 1214 1544 1431 1428 1871 1665 1985 2216 2531 1438 1769 1106 1660 1979 1647 1980 996 1875 2073 2197 1874 1545 1653 1647 1110 1332 890 1547 1106 1431 1552 990 1658 1335 2198 1656 1428 2315 1969 2204 1439 1877 2116 1434 1982 1227 1218 1556 1658 1653 1555 1105 2115 1441 786 1543 1539 2006 1653 1877 1322 1212 2116 1877 1987 1992 1106 2104 1219 1221 890 997 2109 1213 1986 1764 1222 1561 1548 1200 2098 1104 1895 1438 1224 1661 1111 1999 886 1116 1648 1438 1877 995 1328 1774 1115 1790 1548 1444 1322 2548 2108 1761 893 1657 1768 2233 1329 893 1879 1545 2008 1335 1768 2096 1115 2221 890 1330 1664 1981 2217 1538 1113 1324 1882 1554 1543 1001 1888 778 2113 889 1222 1882 2106 1875 1547 1209 2100 2215 1897 1220 1000 999 1220 790 1658 1007 2221 1772 1121 1648 1224 1882 2659 1997 1761 880 1228 1110 1892 1440 2214 1764 1225 2235 1225 1111 1328 1673 1119 1869 899 990 890 1338 1001 2095 1448 1448 2234 1772 889 992 1221 2793 2101 1107 1990 2447 1786 782 891 1212 2014 2906 1871 1112 2110 1555 2222 1009 2333 2004 1223 2126 1885 2097 1326 1554 1686 1878 1550 1113 1115 2028 2224 1114

Tree=0
num_leaves=15
num_cat=0
split_feature=34 40 8 33 18 30 30 33 29 22 6 20 34 7
split_gain=18.8327 10.6847 12.321 23.412 10.2288 5.93126 5.56697 5.44171 5.39581 4.82966 7.77457 3.32575 2.98265 4.19451
threshold=-0.6055058022215567 0.58057907470640469 -0.33131072821479651 -0.48042848745137912 0.15636802093048574 -0.57998962574554314 0.11874909396264405 1.6081533657439844 -0.88319248510546289 -0.32598968494791286 -0.078370595881122232 0.48215379113908802 -0.85119021778151105 0.052991240391696351
decision_type=2 2 2 2 2 2 2 2 2 2 2 2 2 2
left_child=8 2 5 -4 -5 -2 -7 9 -1 10 -3 -11 -10 -14
right_child=1 7 3 4 -6 6 -8 -9 12 11 -12 -13 13 -15
leaf_value=-1.5689548764684977 -1.5212379580952735 -1.4615918101287433 -1.3519920132402441 -1.5957956430534364 -1.4540004822057302 -1.7121056315881702 -1.5868487208584567 -1.5265398379145205 -1.7121056315881702 -1.6636190854992488 -1.6429983704959146 -1.5986654105499392 -1.6969229757421442 -1.5689548764684977
leaf_weight=4.1913855671882621 4.1913855671882656 3.9917957782745361 6.3868732452392569 22.354056358337406 6.5864630341529837 7.9835915565490705 6.3868732452392578 5.3889243006706229 20.557748258113861 30.936417281627655 5.7881038784980756 10.578258812427519 6.5864630341529864 4.1913855671882629
leaf_count=21 21 20 32 112 33 40 32 27 103 155 29 53 33 21
internal_value=-1.61217 -1.59182 -1.55994 -1.52528 -1.56353 -1.62591 -1.65644 -1.62213 -1.67551 -1.63218 -1.56895 -1.64707 -1.68977 -1.64716
internal_weight=0 110.573 53.8892 35.3274 28.9405 18.5619 14.3705 56.6835 35.527 51.2946 9.7799 41.5147 31.3356 10.7778
internal_count=732 554 270 177 145 93 72 284 178 257 49 208 157 54
is_linear=0
shrinkage=1


Tree=1
num_leaves=15
num_cat=0
split_feature=28 40 10 24 20 22 29 36 15 2 23 12 13 32
split_gain=35.8666 15.4066 19.5183 12.1649 7.61148 8.64105 6.88825 9.65214 6.23195 5.94179 4.33511 3.03576 3.39877 0.719963
threshold=1.1340252776982986 0.46460606740610838 0.9745219057903648 -0.61517047931930768 -1.0401850598825682 -0.029920950465662979 -0.35799093577803492 1.0000000180025095e-35 -0.3202126711957401 -0.13781317056434597 -0.11143766526825369 -0.28683902397092315 -0.25680748564522343 -0.48735740576558328
decision_type=2 2 2 2 2 2 2 2 2 2 2 2 2 2
left_child=1 2 4 -2 8 -6 7 10 -1 -5 -3 12 -8 -13
right_child=3 6 -4 9 5 -7 11 -9 -10 -11 -12 13 -14 -15
leaf_value=-1.6057565085864436 -1.3411840195173368 -1.6747754187783845 -1.3986997780106207 -1.433557813461096 -1.6481938114747317 -1.5452280198863684 -1.681713827739479 -1.5029470902796982 -1.433557813461096 -1.5808330132393538 -1.5559095178922639 -1.655603499280623 -1.6057565085864436 -1.7013309039670192
leaf_weight=4.0122783184051514 5.2159618139266994 13.039904534816745 5.2159618139266959 4.4135061502456674 29.690859556198117 11.234379291534426 12.638676702976229 6.4196453094482413 4.4135061502456647 7.2221009731292698 4.0122783184051523 4.012278318405154 11.033765375614164 24.274283826351166
leaf_count=20 26 65 26 22 148 56 63 32 22 36 20 20 55 121
internal_value=-1.60535 -1.62314 -1.58267 -1.46808 -1.60211 -1.61993 -1.65242 -1.60746 -1.51556 -1.52497 -1.64681 -1.67273 -1.64631 -1.69484
internal_weight=0 129.998 54.567 16.8516 49.351 40.9252 75.4308 23.4718 8.42578 11.6356 17.0522 51.959 23.6724 28.2866
internal_count=732 648 272 84 246 204 376 117 42 58 85 259 118 141
is_linear=0
shrinkage=1


Tree=2
num_leaves=20
num_cat=0
split_feature=32 13 15 1 33 27 40 28 27 13 1 3 28 22 28 27 40 14 8
split_gain=36.2274 36.5489 24.3828 31.8552 15.9262 10.9896 10.6567 8.45175 9.48916 7.88793 7.6061 18.6946 5.25243 3.37634 4.99666 1.4494 1.32769 0.268484 0.18628
threshold=-0.031485351900871594 0.17062015519301413 -0.62806959839421872 0.12832073241410366 -0.044178386974017325 0.059788042333961386 0.61217004946162634 1.0173512084368317 -0.42061123465258737 -0.27118355227842261 0.0050031216814199466 -0.60261812533011594 0.81571950356248901 -0.25468555868558213 -0.027016979706676509 -0.020644640448757735 0.055583274338894408 0.15501601936509127 -0.25566328300020374
decision_type=2 2 2 2 2 2 2 2 2 2 2 2 2 2 2 2 2 2 2
left_child=1 4 -3 5 10 -4 9 13 -9 -6 11 -1 -5 14 15 -2 -15 -18 -12
right_child=7 2 3 12 6 -7 -8 8 -10 -11 18 -13 -14 16 -16 -17 17 -19 -20
leaf_value=-1.6889812788380691 -1.6369514851503422 -1.6903218210264808 -1.3096408036697467 -1.6685380104647916 -1.5689548764684977 -1.4973794989086615 -1.6620028672962848 -1.670353328011599 -1.4615918101287433 -1.3845106342950735 -1.6870542494422274 -1.4973794989086615 -1.5116945744206287 -1.659365879701975 -1.5754617289739372 -1.7121056315881702 -1.7121056315881702 -1.6924574887286072 -1.7121056315881702
leaf_weight=12.973336279392241 3.991795778274537 4.5905651450157192 12.174977123737341 4.5905651450157148 4.1913855671882621 4.1913855671882621 3.9917957782745352 4.7901549339294434 3.9917957782745344 5.1893345117568961 3.991795778274537 8.3827711343765277 3.9917957782745361 7.5844119787216178 6.5864630341529837 7.1852324008941659 21.954876780509949 10.179079234600065 11.576207756996151
leaf_count=65 20 23 61 23 21 21 20 24 20 26 20 42 20 38 33 36 110 51 58
internal_value=-1.61217 -1.56681 -1.47852 -1.43955 -1.61866 -1.35772 -1.52516 -1.66683 -1.57546 -1.46692 -1.65252 -1.61377 -1.59559 -1.68079 -1.64455 -1.68526 -1.697 -1.70588 -1.70568
internal_weight=0 79.8359 29.5393 24.9487 50.2966 16.3664 13.3725 66.2638 8.78195 9.38072 36.9241 21.3561 8.58236 57.4819 17.7635 11.177 39.7184 32.134 15.568
internal_count=732 400 148 125 252 82 67 332 44 47 185 107 43 288 89 56 199 161 78
is_linear=0
shrinkage=1


Tree=3
num_leaves=19
num_cat=0
split_feature=27 40 13 0 23 23 15 9 8 37 31 34 25 2 16 40 10 0
split_gain=28.413 22.2083 23.4969 14.0611 11.5826 10.9369 10.1893 8.57843 8.31172 5.4724 5.36531 5.26079 6.59795 5.17915 1.86659 4.48973 2.78074 0.178938
threshold=-0.16612481409110461 0.40017651319464903 -0.24255928527253826 0.80539586138216512 -0.23192695487915752 0.077985060686023552 1.4313342973932832 -0.84262909023028143 -0.037508500467638158 -0.74269773972582132 -0.75364274003788478 -0.57152639743460221 0.17807450447803211 -0.33061451936378328 0.34753969282467595 0.55439142707266675 -1.0926848646712923 -0.27779462107874114
decision_type=2 2 2 2 2 2 2 2 2 2 2 2 2 2 2 2 2 2
left_child=3 7 4 10 -3 -6 -5 -2 9 -4 13 12 -9 -1 16 -16 -12 -13
right_child=1 2 8 6 5 -7 -8 11 -10 -11 14 17 -14 -15 15 -17 -18 -19
leaf_value=-1.6720234201546618 -1.5343216292621253 -1.598235712742976 -1.5378351470946559 -1.4258041213488251 -1.3646187179509006 -1.5331671876885795 -1.6437836802810537 -1.6893316478191314 -1.4995484497438079 -1.6651342900645276 -1.6166717948417217 -1.6870542494422274 -1.5116945744206287 -1.5212379580952735 -1.7121056315881702 -1.5689548764684977 -1.702233165717848 -1.7121056315881702
leaf_weight=4.9897447228431702 6.1872834563255337 4.3909753561019924 4.590565145015721 4.1913855671882612 12.374566912651064 5.5885140895843497 4.3909753561019897 4.3909753561019933 6.5864630341529837 12.773746490478516 4.1913855671882549 3.9917957782745388 3.9917957782745361 4.1913855671882612 4.5905651450157148 4.1913855671882629 40.516727149486549 9.9794894456863332
leaf_count=25 31 22 23 21 62 28 22 22 33 64 21 20 20 21 23 21 203 50
internal_value=-1.61217 -1.56915 -1.52638 -1.65737 -1.45264 -1.41706 -1.53733 -1.63853 -1.5952 -1.63148 -1.67381 -1.66737 -1.60474 -1.60319 -1.68593 -1.64378 -1.69421 -1.70495
internal_weight=0 74.8462 46.3048 71.2536 22.3541 17.9631 8.58236 28.5413 23.9508 17.3643 62.6712 22.3541 8.38277 9.18113 53.4901 8.78195 44.7081 13.9713
internal_count=732 375 232 357 112 90 43 143 120 87 314 112 42 46 268 44 224 70
is_linear=0
shrinkage=1


Tree=4
num_leaves=20
num_cat=0
split_feature=40 2 14 2 34 14 28 33 13 14 32 21 32 33 6 7 12 40 23
split_gain=34.3621 23.2358 18.5512 13.4587 10.3371 9.58965 8.834 7.99062 6.5966 6.02841 12.4465 3.02497 2.70957 2.18682 1.61931 1.33598 1.0395 2.17514 0.868302
threshold=0.60718216772863565 -0.13989542650223116 0.41513123404381774 0.43312439938363939 0.70233914827140953 -0.10028786733823361 -0.10417831416924227 1.2916019807546337 -0.69891594916506861 -0.30633043639370611 -0.33999233194096506 -0.95086835745664244 0.1160096869011402 -0.85398868700230834 -0.10954951989069876 0.19201647693742455 0.4259119166847633 0.028564418794286135 -0.25713175255280174
decision_type=2 2 2 2 2 2 2 2 2 2 2 2 2 2 2 2 2 2 2
left_child=6 2 4 12 5 -2 9 -6 -8 10 13 -11 15 -1 -13 -3 18 -18 -10
right_child=1 3 -4 -5 7 -7 8 -9 16 11 -12 14 -14 -15 -16 -17 17 -19 -20
leaf_value=-1.5921618747607582 -1.4384130398274122 -1.7054504899748026 -1.6484825006100261 -1.4769851159598131 -1.2900589008566397 -1.5679415501287901 -1.5559095178922639 -1.4811390318509947 -1.6556034992806232 -1.575414862076943 -1.4753874560016662 -1.688261872494051 -1.5970874667265862 -1.686988641569551 -1.6250521178874162 -1.6404326760258727 -1.7054504899748026 -1.6057565085864436 -1.7054504899748026
leaf_weight=4.4135061502456674 11.234379291534426 10.030695796012884 7.021487057209014 4.8147339820861808 4.8147339820861799 11.635607123374941 4.0122783184051505 4.0122783184051514 4.0122783184051505 4.6141200661659267 7.8239427208900443 11.635607123374943 4.6141200661659232 5.4165757298469552 6.219031393527982 4.6141200661659232 4.8147339820861799 4.0122783184051514 27.082878649234775
leaf_count=22 56 50 35 24 24 58 20 20 20 23 39 58 23 27 31 23 24 20 135
internal_value=-1.60535 -1.54938 -1.50141 -1.62653 -1.46884 -1.50431 -1.64716 -1.37691 -1.67814 -1.61323 -1.5695 -1.64759 -1.66391 -1.64441 -1.66624 -1.68497 -1.69042 -1.66014 -1.69902
internal_weight=0 62.7922 38.7185 24.0737 31.697 22.87 84.0572 8.82701 43.9344 40.1228 17.654 22.4688 19.2589 9.83008 17.8546 14.6448 39.9222 8.82701 31.0952
internal_count=732 313 193 120 158 114 419 44 219 200 88 112 96 49 89 73 199 44 155
is_linear=0
shrinkage=1


Tree=5
num_leaves=16
num_cat=0
split_feature=34 10 17 7 37 14 29 20 34 7 6 4 28 31 37
split_gain=16.0578 9.32543 9.69638 9.16806 12.2528 10.7153 4.78503 3.48617 2.91248 3.74418 2.15258 0.175397 6.61702e-05 5.52672e-05 4.27199e-05
threshold=-0.6055058022215567 0.4293738583135237 -0.99335316540809082 0.031177795394067519 0.75816328660132426 0.49669448249673825 -0.88319248510546289 -0.53675689987559594 -0.85119021778151105 0.052991240391696351 0.088582411662388491 0.34643328524504036 0.060420888982160588 -0.37331750104909955 -0.5282890216790862
decision_type=2 2 2 2 2 2 2 2 2 2 2 2 2 2 2
left_child=6 2 -2 5 -5 -4 -1 -3 12 -10 -9 -12 13 -8 -14
right_child=1 7 3 4 -6 -7 8 10 9 -11 11 -13 14 -15 -16
leaf_value=0.038244839881012287 0.17902029452866702 0.037181945636929649 -0.018265121905158894 0.032375444892906974 0.17236252752160944 0.13471963357749389 -0.097799008548952279 -0.014055162247691141 -0.081833567831485321 0.039942928166684925 -0.073080011473380321 -0.099809127912022497 -0.098195954316528528 -0.097359101438303855 -0.097723621752716039
leaf_weight=4.3111429512500754 4.2864297628402701 4.3718771189451244 45.166215747594833 28.504099935293198 8.0095690190792066 5.0947909951210013 5.9515245556831378 5.7444412708282497 6.1794871687889117 4.2690781801939011 3.8625625818967801 6.7369109243154526 3.9599188268184662 5.4907093346118927 3.7077754288911811
leaf_count=21 21 22 226 140 38 25 32 28 33 21 20 34 21 30 20
internal_value=0 0.0184231 0.0321997 0.0249472 0.0630827 -0.00275757 -0.0601748 -0.0421353 -0.0745295 -0.0320781 -0.063352 -0.0900687 -0.0977402 -0.0975879 -0.0979676
internal_weight=0 111.777 91.0611 86.7747 36.5137 50.261 33.8696 20.7158 29.5585 10.4486 16.3439 10.5995 19.1099 11.4422 7.66769
internal_count=732 554 450 429 178 251 178 104 157 54 82 54 103 62 41
is_linear=0
shrinkage=0.1


Tree=6
num_leaves=16
num_cat=0
split_feature=28 40 29 32 20 2 15 15 32 29 36 21 22 22 28
split_gain=28.7247 10.4218 12.7744 8.6429 12.5235 8.25102 7.85257 7.6099 5.54753 3.70426 5.90452 3.43878 3.28849 2.44004 0.862071
threshold=0.85621571049684553 0.51905954101770235 1.118779659718856 0.57596353616754314 0.22925649398323963 0.33727021601835888 -0.58784673441045732 0.11878436094236751 0.86483519282920962 -0.32506413133669904 1.0000000180025095e-35 -0.14369803429813544 -0.34230752360249878 -0.11175936974395227 0.3350509695509693
decision_type=2 2 2 2 2 2 2 2 2 2 2 2 2 2 2
left_child=1 2 5 4 -2 8 -7 -6 -1 10 13 12 -11 -3 -13
right_child=3 9 -4 -5 7 6 -8 -9 -10 11 -12 14 -14 -15 -16
leaf_value=-0.033908119265431136 0.19400041784361075 -0.017750448797435977 0.1792601474512778 0.20609313780375016 -0.050205710712362399 -0.026189368395677239 0.15540814828008531 0.10537277692974104 0.086641951688704463 0.035031411945454137 0.06744600119936961 -0.098338905939734308 -0.056105725467780726 -0.09885969658615873 -0.046322553378780919
leaf_weight=36.133272543549538 5.4088636487722459 11.060049995779995 4.2563269585371009 5.7939701527357093 7.7390478402376157 4.0367349237203598 5.8060228824615461 5.2951107621192932 4.2683097422122946 5.2224078178405788 6.4994265437126151 19.111881807446483 16.367947101593018 5.5803943276405343 3.8235471844673148
leaf_count=180 26 57 20 26 37 20 27 25 21 27 31 101 85 29 20
internal_value=0 -0.0196241 0.0129205 0.0995518 0.0660812 -0.00117054 0.0809309 0.0129979 -0.0211724 -0.0458369 -0.0133811 -0.062704 -0.0340609 -0.0449505 -0.0896673
internal_weight=0 122.166 54.5007 24.237 18.443 50.2443 9.84276 13.0342 40.4016 67.6657 23.1399 44.5258 21.5904 16.6404 22.9354
internal_count=732 618 268 114 88 248 47 62 201 350 117 233 112 86 121
is_linear=0
shrinkage=0.1


Tree=7
num_leaves=23
num_cat=0
split_feature=32 13 26 1 8 28 22 18 25 20 15 40 12 15 27 22 2 24 8 19 32 25
split_gain=30.0698 27.8237 19.9627 39.4296 10.7876 10.263 12.8851 10.631 20.5972 8.11288 4.78404 5.0956 3.39492 2.26694 1.1902 2.06142 0.736613 0.231276 0.217965 0.142479 0.00136739 0.00086002
threshold=-0.18106571721060613 -0.70714944031357441 -0.69089516311734156 0.14629237555354627 0.56808695644565987 -0.027016979706676509 -0.2149648162909977 0.49518249524833097 -0.096518130824682358 0.11198705594916851 -0.017051199167308937 0.61466430746200584 -0.21978407939071756 -0.87318984934354604 -0.16612481409110461 -0.16795207821379279 -0.040747119073300232 -0.83155762635569175 0.70168658714926002 -0.38017860229348893 -0.024093810221850361 0.047589623969587318
decision_type=2 2 2 2 2 2 2 2 2 2 2 2 2 2 2 2 2 2 2 2 2 2
left_child=1 13 12 4 -4 14 7 8 -7 -5 11 -8 -3 -1 15 -2 -15 -16 -12 -17 -19 -18
right_child=5 2 3 9 -6 6 10 -9 -10 -11 18 -13 -14 16 17 19 21 20 -20 -21 -22 -23
leaf_value=0.0029446364166973629 0.0039534728876409108 -0.083544702374387825 0.21727928647248121 -0.085936053007398622 0.041887326863103723 -0.0060781034888836294 0.065097243505775879 -0.057002719421165242 0.28881127646852062 0.055495673807824088 -0.09900262840968925 -0.077680876086753461 0.028283229959198766 -0.046648908312813153 -0.071328330476277554 -0.071384429217023732 -0.09966165465658805 -0.099940428218139546 -0.070596704228658422 -0.098565406106750131 -0.09788157447362611 -0.097743590063622265
leaf_weight=3.9067642986774471 3.8759541064500809 6.5256870836019516 21.995766714215282 7.4138998091220882 4.1718577146530142 5.2204826772212973 5.4346570521593094 4.6228802353143683 4.3357807695865622 8.9544732868671399 10.024781033396719 4.6283811926841736 4.6486078053712827 3.8320791572332409 3.7445586174726477 3.7343000769615173 4.1354979872703499 3.9540800750255611 3.6976378858089456 3.9880594313144666 17.515123367309574 5.3772443234920502
leaf_count=20 20 34 97 38 20 25 27 23 20 44 52 24 23 20 20 20 21 20 20 21 94 29
internal_value=0 0.0464345 0.0819224 0.11317 0.189317 -0.0444431 -0.00796271 0.0674917 0.127716 -0.00856449 -0.0529431 -0.000571946 -0.0370233 -0.0640521 -0.0820656 -0.0555539 -0.0836657 -0.094261 -0.0913484 -0.0854215 -0.0982608 -0.0985774
internal_weight=0 70.9619 53.7103 42.536 26.1676 74.7767 37.9646 14.1791 9.55626 16.3684 23.7855 10.063 11.1743 17.2516 36.8121 11.5983 13.3448 25.2138 13.7224 7.72236 21.4692 9.51274
internal_count=732 346 256 199 117 386 191 68 45 82 123 51 57 90 195 61 70 134 72 41 114 50
is_linear=0
shrinkage=0.1


Tree=8
num_leaves=19
num_cat=0
split_feature=25 31 40 27 10 8 8 10 29 28 13 29 40 18 16 10 23 2
split_gain=22.8491 35.6398 12.2447 12.079 9.50975 9.37013 6.89487 6.61596 6.07913 5.56335 2.82638 5.48333 2.44672 4.23599 1.56364 3.6512 1.29376 0.57421
threshold=0.54291212200053007 -0.53928653682668337 -0.36175318350644442 -0.16612481409110461 -0.68780098535788758 0.074284884936280535 0.39301987356511953 0.41608530944505578 0.32093607420498665 0.46042437162300698 -0.58697534293200693 0.024395174469722187 0.10047579560523141 -0.64982853327915768 0.34753969282467595 0.16229303313587326 -0.26781408643412002 -0.040747119073300232
decision_type=2 2 2 2 2 2 2 2 2 2 2 2 2 2 2 2 2 2
left_child=1 3 -2 12 -4 7 9 -5 -7 -6 11 17 -1 -14 16 -16 -12 -3
right_child=2 10 4 5 6 8 -8 -9 -10 -11 14 -13 13 -15 15 -17 -18 -19
leaf_value=-0.067298124307030457 -0.0497037566672167 -0.045419737655739124 -0.028680185700508249 -0.0067474109578509666 0.14359370866319063 0.21450222705000865 0.22757742987257426 0.12323394728212229 0.063470209613942272 0.0086999486860095242 -0.029866070098307815 0.060167171794176272 0.057546455946544894 -0.072961720701397323 0.023778734027248571 -0.099800652611390386 -0.086955349443936847 -0.099042715218908492
leaf_weight=6.2420711219310787 6.0368666201829937 3.7814277410507193 4.12060514092446 10.55206479132176 9.3467822223901731 7.2292828857898694 6.0227554887533179 6.2265974134206763 4.221137136220932 4.5436731129884711 4.369147613644599 4.9454548656940451 7.0123594552278528 3.8538273721933338 4.8263842463493329 4.7376371622085571 43.406029373407364 4.2317106425762168
leaf_count=32 31 20 20 51 44 33 27 30 20 22 23 24 36 20 24 24 229 22
internal_value=0 -0.0202294 0.0776197 0.0489005 0.109601 0.0890834 0.138215 0.0414889 0.158825 0.0994689 -0.0648135 -0.022635 -0.0174024 0.0112601 -0.0743458 -0.0374376 -0.0817344 -0.0737378
internal_weight=0 115.635 30.0707 45.3373 24.0338 28.2291 19.9132 16.7787 11.4504 13.8905 70.2978 12.9586 17.1083 10.8662 57.3392 9.56402 47.7752 8.01314
internal_count=732 588 144 222 113 134 93 81 53 66 366 66 88 56 300 48 252 42
is_linear=0
shrinkage=0.1


Tree=9
num_leaves=18
num_cat=0
split_feature=40 32 30 28 34 13 28 4 11 1 2 24 10 13 5 37 3
split_gain=27.6069 17.2089 14.7611 12.0031 18.501 14.3015 7.18502 6.07728 5.5484 3.99779 3.9473 4.80903 3.93464 3.22112 3.18318 1.25802 0.769172
threshold=0.56727721106140494 -0.0061602870659042894 -0.82595330449287785 0.63764104047989534 0.70233914827140953 -0.70714944031357441 -0.25710306194555871 0.42136753287044904 -0.13833874773611254 -0.077517373522762723 0.33727021601835888 -0.66782071279014688 -0.029879932849760538 -0.69891594916506861 -0.65054064287176638 -0.95710645777255643 -0.69609309190951507
decision_type=2 2 2 2 2 2 2 2 2 2 2 2 2 2 2 2 2
left_child=6 2 -2 4 5 -3 7 8 14 -6 11 -4 -10 -8 -1 -15 -17
right_child=1 3 10 -5 9 -7 13 -9 12 -11 -12 -13 -14 15 -16 16 -18
leaf_value=0.047372627169266046 0.13342749005665031 0.16484011400483062 0.0063841089429379789 -0.039246830796375753 0.16199015810952103 0.007883466440583041 0.0037365725471949344 -0.099402667654683363 0.019107945198843634 0.29083904890407497 0.043812879366930416 -0.086893331214385028 0.14726169073187736 -0.036857596361518488 -0.058228597082858019 -0.052719320424700337 -0.098070503447496626
leaf_weight=4.0538783222436932 5.9643909931182852 8.9748295992612821 8.365863502025606 6.5696639418601981 4.8423680514097214 16.437977612018589 4.7623720914125434 5.8720442801713935 5.8962998688220978 4.7899603247642499 4.8073346912860861 16.2891458272934 4.0354053229093534 4.8925562649965277 9.6477008014917391 4.371840342879298 25.867358461022377
leaf_count=20 29 42 41 33 21 79 23 30 30 21 23 84 20 26 49 23 138
internal_value=0 0.041187 -0.0100368 0.084794 0.108047 0.0633145 -0.0457689 -0.0083544 0.0142679 0.226064 -0.0390799 -0.0552427 0.0711788 -0.0734403 -0.0269844 -0.0839022 -0.0915138
internal_weight=0 77.0415 35.4267 41.6148 35.0451 25.4128 69.3995 29.5053 23.6333 9.63233 29.4623 24.655 9.93171 39.8941 13.7016 35.1318 30.2392
internal_count=732 373 177 196 163 121 359 149 119 42 148 125 50 210 69 187 161
is_linear=0
shrinkage=0.1


Tree=10
num_leaves=17
num_cat=0
split_feature=34 7 3 29 11 26 34 40 34 1 4 7 40 36 27 14
split_gain=13.9024 7.94228 13.2977 11.9161 7.87021 8.58751 7.00202 6.94274 6.19084 5.445 5.08874 6.95819 1.88182 1.87046 0.00102548 8.038e-05
threshold=-0.91418016121781942 0.031177795394067519 -0.64415516066520728 0.18216625266049072 -0.85893850166356456 0.19063769899093555 1.0000000180025095e-35 0.23099731984989083 0.073738170749511014 -0.95058498916205092 -0.22413125648732471 -0.34093300810014615 0.48372702069496915 1.0000000180025095e-35 -0.10669536738015531 0.35733205578008437
decision_type=2 2 2 2 2 2 2 2 2 2 2 2 2 2 2 2
left_child=13 2 3 9 -3 7 -5 -6 -7 -2 11 -4 -12 -1 -15 -16
right_child=1 4 10 6 5 8 -8 -9 -10 -11 12 -13 -14 14 15 -17
leaf_value=-0.016534742366885884 0.063724779687489894 0.1512419561043539 -0.078943646856019636 0.22666137981947584 0.19751069988791281 -0.034324506435649625 0.059932877673927021 0.039954450855000136 0.051297725368793838 -0.040883380651902917 -0.037694706923601801 0.076692542101476954 -0.087691457842114878 -0.09754313555730669 -0.095407093803315482 -0.095949795140846506
leaf_weight=3.680774837732316 7.8578921705484417 5.8758926987648001 4.9857857525348663 4.2475502789020521 4.6308141350746137 19.308118268847466 6.1890511959791183 7.0617323219776154 15.008745327591894 13.566628366708757 13.03420862555504 6.7775235474109632 17.821612372994423 3.8225795030593881 6.2530913054943067 4.8427446484565735
leaf_count=20 38 27 26 20 21 94 30 34 72 69 68 34 93 21 37 28
internal_value=0 0.0122223 -0.00870242 0.0401673 0.0422593 0.0283411 0.127789 0.102354 0.00312304 -0.00251614 -0.0452364 0.0107274 -0.0665717 -0.0803786 -0.0961306 -0.095644
internal_weight=0 126.366 74.4803 31.8611 51.8853 46.0094 10.4366 11.6925 34.3169 21.4245 42.6191 11.7633 30.8558 18.5992 14.9184 11.0958
internal_count=732 626 378 157 248 221 50 55 166 107 221 60 161 106 86 65
is_linear=0
shrinkage=0.1


Tree=11
num_leaves=17
num_cat=0
split_feature=28 40 10 22 28 20 22 10 21 34 33 20 32 6 20 32
split_gain=22.7107 8.57985 11.8235 7.2011 6.5165 4.99539 5.7019 4.9351 4.08797 6.6554 6.2941 3.28136 3.15025 2.87278 0.230401 0.190674
threshold=0.85621571049684553 0.48372702069496915 0.9745219057903648 -0.053783813356022538 1.5902243807575511 -1.0401850598825682 0.016519887145967364 -0.39054475921633164 -0.043617945298868484 0.57955313766953043 -0.26288586818841608 0.64893763912370239 -0.63476329908629625 0.72012833044415958 -0.76946218855679682 0.7306719886004468
decision_type=2 2 2 2 2 2 2 2 2 2 2 2 2 2 2 2
left_child=1 2 5 4 13 7 -7 -1 9 10 -3 -5 -10 -2 -14 -11
right_child=3 8 -4 11 -6 6 -8 -9 12 15 -12 -13 14 -15 -16 -17
leaf_value=0.13538574723227728 0.056610565823490416 -0.033703462195435206 0.14483299033429745 0.20299885794738115 0.13508906861957723 -0.041895572695436763 0.047774477524229898 -0.012681791957238684 -0.0063367509520103451 -0.097614316067898166 0.061227574698587577 0.091143777765804623 -0.069195452879430228 -0.051042166929536462 -0.097258759809972728 -0.069647270098178379
leaf_weight=4.5567678064107895 4.3550472557544726 18.520568862557411 5.9279201477766028 5.4614284336566907 4.9801692217588416 29.590893507003784 9.3262764513492566 4.4485438168048841 5.4414825588464764 7.5252813696861249 11.212495490908625 5.0456799864768982 3.5659083276987102 5.7540074735879898 16.291064456105232 3.6059320420026779
leaf_count=20 20 98 25 23 22 152 44 21 29 41 58 22 20 27 90 20
internal_value=0 -0.018033 0.0116043 0.0857215 0.0414608 -0.00487586 -0.0204067 0.0622417 -0.0421549 -0.022597 0.00209553 0.149284 -0.0737466 -0.00466466 -0.0922192 -0.0885545
internal_weight=0 120.013 53.8504 25.5963 15.0892 47.9225 38.9172 9.00531 66.1627 40.8643 29.7331 10.5071 25.2985 10.1091 19.857 11.1312
internal_count=732 618 262 114 69 237 196 41 356 217 156 45 139 47 110 61
is_linear=0
shrinkage=0.1


Tree=12
num_leaves=22
num_cat=0
split_feature=32 27 16 18 24 29 28 1 31 32 8 22 33 12 32 3 40 34 22 33 13
split_gain=24.4721 21.4455 13.3741 17.5735 8.92642 7.50656 7.12893 6.85419 16.3711 5.90185 5.26669 3.06655 4.31171 6.20726 2.97702 1.22698 1.21681 0.74146 0.697049 0.275061 0.00234328
threshold=-0.031485351900871594 -0.16146360063147572 0.20445392925596914 -0.22722816934629922 -0.52416886204065782 -0.33549280871625453 1.0173512084368317 0.141266912168486 -0.47900730439145939 0.57596353616754314 -1.0000000180025095e-35 -0.25468555868558213 -0.29516581468816599 -0.071401430403904301 -0.57352758441483132 0.70037405893840143 0.055583274338894408 -0.093200717758237975 -0.4220475088781489 0.47693237313997988 -0.31603212867676173
decision_type=2 2 2 2 2 2 2 2 2 2 2 2 2 2 2 2 2 2 2 2 2
left_child=1 2 3 4 -1 15 11 8 18 -8 -10 12 -2 -14 -5 -4 -13 20 -3 -18 -9
right_child=6 7 5 14 -6 -7 9 17 10 -11 -12 16 13 -15 -16 -17 19 -19 -20 -21 -22
leaf_value=-0.014076281690157705 -0.096869558806354783 -0.04509706040849816 -0.099535734856872449 0.27021665461224242 0.11826481693974694 0.098937861217538378 0.11213270970940255 -0.095710704922126882 0.11539552826348448 -0.051685702182648834 -0.012928246336421166 -0.042983621420895464 0.087226877827828078 -0.063345662653456203 0.1669971420038926 -0.021727349314681163 -0.096005379221726181 -0.043605360490736392 -0.097517664784404004 -0.074882872880626603 -0.099023470635665412
leaf_weight=8.8633178621530515 5.8794641494751003 3.7450240254402161 4.2691870629787427 5.460311621427536 11.993071407079695 4.452833577990531 4.6325508654117566 4.7903531044721595 10.688749536871908 4.1867461800575256 4.5639828741550472 7.1958500295877448 5.2881358712911615 5.6770310401916477 5.7226532846689242 3.8582771122455597 18.82666797935963 3.6831408739089957 7.8615719527006132 9.1668980866670591 3.8523264527320853
leaf_count=41 33 20 22 21 53 21 22 28 45 22 23 38 26 30 23 20 109 20 43 52 20
internal_value=0 0.0345428 0.0819486 0.116255 0.062024 -0.00542221 -0.0487735 -0.0194376 0.00889441 0.0343639 0.076998 -0.0628646 -0.0277767 0.00927047 0.217396 -0.0625985 -0.0796606 -0.0811762 -0.0806035 -0.0890885 -0.0971873
internal_weight=0 83.8048 44.6197 32.0394 20.8564 12.5803 60.8533 39.1851 26.8593 8.8193 15.2527 52.034 16.8446 10.9652 11.183 8.12746 35.1894 12.3258 11.6066 27.9936 8.64268
internal_count=732 400 201 138 94 63 332 199 131 44 68 288 89 56 44 42 199 68 63 161 48
is_linear=0
shrinkage=0.1


Tree=13
num_leaves=16
num_cat=0
split_feature=27 40 34 2 9 40 32 15 31 25 24 4 10 21 22
split_gain=18.6725 13.9401 12.6634 12.7164 10.9825 8.73428 6.57783 6.17251 5.1095 5.18993 4.16176 3.10243 1.98446 1.69438 0.770451
threshold=-0.16612481409110461 0.40017651319464903 0.94888443854047544 -0.56198454186293556 0.73104971638568161 0.61798945623937163 0.8503790595599261 -0.78566133578633301 -0.75364274003788478 -1.0290864779061619 -0.48090441702414427 0.46482404854213577 -1.0926848646712923 -0.23350570491932482 -0.20509407872282073
decision_type=2 2 2 2 2 2 2 2 2 2 2 2 2 2 2
left_child=4 7 3 -3 8 -6 -5 11 9 -1 -9 -2 -10 -14 -12
right_child=1 2 -4 6 5 -7 -8 10 12 -11 14 -13 13 -15 -16
leaf_value=-0.074450084934719593 -0.01311053133351729 -0.063758041662715828 -0.068539384472047299 0.08236610683867808 -0.023187815923896016 0.1574175899862745 0.1865166205121378 0.022852157127493458 -0.0066826496331909811 0.078601307863344974 -0.098000761457093591 0.10592074605585265 -0.050964416394826455 -0.092827191867096287 -0.044990791664979705
leaf_weight=3.9449303150177002 4.4632447361946124 5.2333050519227973 6.3199851810932151 31.922133892774582 6.4381654709577543 4.5844668745994568 7.4860790818929663 4.9318678081035658 4.3610966056585303 5.054079130291937 10.320207983255388 4.2985505163669586 15.209999740123743 26.536815047264103 3.7336909025907454
leaf_count=20 21 25 32 143 32 21 32 26 23 26 56 20 85 150 20
internal_value=0 0.0328916 0.0639453 0.0827014 -0.0391913 0.0519285 0.102151 -0.0241418 -0.0574174 0.0115076 -0.0561824 0.0452864 -0.0708696 -0.0775749 -0.0839176
internal_weight=0 78.7091 50.9615 44.6415 66.1296 11.0226 39.4082 27.7476 55.1069 8.99901 18.9858 8.7618 46.1079 41.7468 14.0539
internal_count=732 375 232 200 357 53 175 143 304 46 102 41 258 235 76
is_linear=0
shrinkage=0.1


Tree=14
num_leaves=18
num_cat=0
split_feature=40 2 14 2 27 28 6 13 14 32 2 20 13 33 30 12 23
split_gain=23.118 14.0444 11.1799 9.80552 7.51919 7.14856 5.44323 5.41111 4.91333 8.44778 2.69219 2.46742 5.88346 1.95547 1.44215 1.14133 0.966791
threshold=0.60718216772863565 -0.13989542650223116 0.41513123404381774 0.43312439938363939 -0.55134184287384125 -0.10417831416924227 0.10551052032198392 -0.69891594916506861 -0.30633043639370611 -0.33999233194096506 0.15212326223449021 -0.37931507532308945 0.33803521529887276 -0.85398868700230834 -0.64979447640035803 0.65335287502331485 -0.23703001752367778
decision_type=2 2 2 2 2 2 2 2 2 2 2 2 2 2 2 2 2
left_child=5 2 4 11 -2 8 -6 -7 9 13 14 -3 -13 -1 -10 16 -9
right_child=1 3 -4 -5 6 7 -8 15 10 -11 -12 12 -14 -15 -16 -17 -18
leaf_value=0.0146342764943687 -0.019617046831957516 -0.099168259598392497 -0.040547748870265805 0.09945900850053925 0.080021966335220809 0.040281031127744643 0.16351508334675183 -0.053787317117512556 -0.099059185723276932 0.10300473386542247 0.018837737237240502 0.051278642078444882 -0.096573039989004295 -0.077212936435995569 -0.036602296571355733 -0.034280518546041125 -0.096401160622663046
leaf_weight=4.3634520620107651 4.6445245295763007 7.2918569743633332 6.792469009757041 5.3884299397468558 17.814111799001697 4.2166304588317862 13.901638373732565 6.8823455870151511 5.9838563054800042 8.6747684180736524 5.890327349305152 5.2977210581302625 5.4707027524709702 4.9449960887432116 9.6737136542797089 4.8001088649034491 23.511503577232364
leaf_count=22 21 38 35 24 79 20 58 38 31 39 30 27 31 27 51 27 134
internal_value=0 0.0433663 0.0772168 -0.0189288 0.0992164 -0.036631 0.116619 -0.0667693 -0.00658456 0.0320065 -0.0387915 -0.0542507 -0.0238347 -0.0341584 -0.0604715 -0.0795952 -0.0867517
internal_weight=0 66.6015 43.1527 23.4487 36.3603 78.9417 31.7158 39.4106 39.5311 17.9832 21.5479 18.0603 10.7684 9.30845 15.6576 35.194 30.3938
internal_count=732 313 193 120 158 419 137 219 200 88 112 96 58 49 82 199 172
is_linear=0
shrinkage=0.1


Tree=15
num_leaves=16
num_cat=0
split_feature=34 10 14 31 40 18 14 27 27 2 34 27 2 27 10
split_gain=12.2932 7.23905 6.98601 9.73838 7.04489 7.98964 5.24174 4.44598 3.05851 2.23774 2.14828 2.73445 0.201071 0.00123573 0.000111749
threshold=-0.6055058022215567 0.4293738583135237 0.43309299986287791 -0.1927344287089062 0.58057907470640469 0.48190767393720918 0.099080628231548437 -0.55134184287384125 0.388743202380467 -0.11663385641423074 -0.91418016121781942 0.024735517726193378 -0.35165627957530715 -0.0041201865351844329 0.39409797922729101
decision_type=2 2 2 2 2 2 2 2 2 2 2 2 2 2 2
left_child=7 2 4 -4 5 -2 -6 -1 9 12 13 -12 -3 -9 -15
right_child=1 8 3 -5 6 -7 -8 10 -10 -11 11 -13 -14 14 -16
leaf_value=0.039228457400632882 0.025235623265691537 -0.099226563988552813 0.21103646316913488 0.025245609545672749 0.0072500272480482105 0.13889234822982549 -0.078058052292692581 -0.096274256388933638 0.034337425824144688 -0.009087807257698326 -0.081634616483027292 0.016734995461207047 -0.069582398051589542 -0.094494556905312027 -0.093877259850590783
leaf_weight=4.2986037582159069 32.723802700638771 6.319129467010498 4.699975997209549 7.0577341020107252 31.701004981994629 7.6263826042413703 9.3203403055667859 3.6351268589496657 4.4156824499368659 5.530522584915162 6.289972692728039 5.1310068666934967 3.5868319272994995 5.4964343607425672 6.2870268076658249
leaf_count=22 155 33 20 34 162 31 48 21 22 29 35 26 20 34 40
internal_value=0 0.0157739 0.0274608 0.0995128 0.0170497 0.0467173 -0.0121326 -0.055191 -0.0390508 -0.0600439 -0.0703131 -0.0374409 -0.0884928 -0.0946624 -0.0941652
internal_weight=0 112.981 93.1292 11.7577 81.3715 40.3502 41.0213 31.1382 19.8522 15.4365 26.8396 11.421 9.90596 15.4186 11.7835
internal_count=732 554 450 54 396 186 210 178 104 82 156 61 53 95 74
is_linear=0
shrinkage=0.1


Tree=16
num_leaves=16
num_cat=0
split_feature=28 40 29 20 15 6 28 22 10 29 36 21 15 23 10
split_gain=18.1968 7.21504 9.59057 6.36108 8.75268 5.32621 6.46067 5.98856 4.06462 3.34453 5.10239 3.20562 2.93593 2.52694 0.942347
threshold=0.85621571049684553 0.51905954101770235 1.2247762273029903 -0.79301715304632525 -0.43916897438482161 0.41546934598746266 1.5902243807575511 -0.12036660042999055 -0.4913377060689092 -0.32506413133669904 1.0000000180025095e-35 -0.14369803429813544 -0.6233913013872262 -0.11143766526825369 0.67958694397031361
decision_type=2 2 2 2 2 2 2 2 2 2 2 2 2 2 2
left_child=1 2 3 4 -1 -2 7 -7 -5 10 13 12 -11 -3 -13
right_child=5 9 -4 8 -6 6 -8 -9 -10 11 -12 14 -14 -15 -16
leaf_value=-0.055925617737392054 0.14429981839420311 -0.062721953014189466 0.14745063210454065 -0.07916293681765009 0.11749853960362491 -0.069603099523713866 0.12378976960094812 0.071478042581845799 -0.0041655066146666806 -0.08240612763928068 0.065595376887902151 -0.095031672043527637 -0.0020510937802637672 0.030590030330559483 -0.037397986012303673
leaf_weight=4.4377793967723838 7.8160085529089001 11.730848655104637 4.6360984295606604 9.7504015564918465 8.4543688595294935 5.9242121428251302 6.8337019383907309 6.1137227118015272 27.91749776899815 6.8365532904863384 6.5412029623985282 16.675842955708507 13.576660513877867 3.8561361581087121 3.4185825437307349
leaf_count=22 32 66 19 50 37 28 28 26 140 38 31 101 74 20 20
internal_value=0 -0.0165653 0.00979462 -0.00282774 0.0578019 0.0748828 0.0461325 0.00204798 -0.0235787 -0.0397943 -0.00852983 -0.0568733 -0.0289627 -0.0396371 -0.0852267
internal_weight=0 117.832 55.1961 50.56 12.8921 26.6876 18.8716 12.0379 37.6679 62.6358 22.1282 40.5076 20.4132 15.587 20.0944
internal_count=732 618 268 249 59 114 82 54 190 350 117 233 112 86 121
is_linear=0
shrinkage=0.1


Tree=17
num_leaves=23
num_cat=0
split_feature=32 13 26 1 28 22 33 16 25 8 15 40 12 15 27 4 11 8 24 40 32 1
split_gain=20.7293 18.7851 12.2492 20.3183 8.53081 9.74122 7.5452 7.31204 11.9783 5.62059 4.26522 4.18817 2.89462 2.20038 1.21752 2.24234 0.718035 0.258083 0.253324 0.178282 0.0035338 0.00271626
threshold=-0.18106571721060613 -0.70714944031357441 -0.69089516311734156 0.14629237555354627 -0.027016979706676509 -0.2149648162909977 0.30820462908396368 0.32180818090280688 -0.096518130824682358 0.56808695644565987 -0.017051199167308937 0.51905954101770235 -0.21978407939071756 -0.87318984934354604 -0.16612481409110461 -0.076978030333162015 -0.7916740302553319 0.70168658714926002 -0.83155762635569175 0.60801337563950597 -0.024093810221850361 0.141266912168486
decision_type=2 2 2 2 2 2 2 2 2 2 2 2 2 2 2 2 2 2 2 2 2 2
left_child=1 13 12 9 14 7 -5 8 -6 -4 11 -7 -3 -1 15 19 -15 -12 -16 -2 -20 -18
right_child=4 2 3 6 5 10 -8 -9 -10 -11 17 -13 -14 16 18 -17 21 -19 20 -21 -22 -23
leaf_value=0.0070662770119872334 -0.096657094202958468 -0.079989033804663018 0.15023924332719193 -0.058913571478304644 -0.0062935407804871049 0.069226282941866044 0.083445515203874124 -0.052931004110870941 0.20779187456778148 0.028866569114219583 -0.096703228706783551 -0.060905914505305928 0.024794232969474424 -0.043620916443263269 -0.065069506003156877 0.016721215921497275 -0.098224521913621854 -0.063838986112027818 -0.097879536176019744 -0.064865666202788386 -0.094400888507368205 -0.094639089573893387
leaf_weight=3.7791986018419257 3.6989941149950027 5.9488898068666458 26.31057903170586 10.080780729651449 5.2043657004833213 4.6470703184604645 5.9032834470272055 4.3611351847648612 5.2497880756855002 4.4625274240970603 9.0957614630460721 5.2868174016475677 4.7346322238445264 3.7137722671031943 3.3125646859407416 3.4627985358238202 4.0704549551010114 3.2409532666206369 3.6231029480695751 3.3719405084848404 15.053579971194269 4.3936856538057327
leaf_count=20 21 34 97 54 25 22 28 23 20 20 52 29 23 21 20 19 22 20 20 21 94 27
internal_value=0 0.0363911 0.0630555 0.0851293 -0.0397811 -0.00699774 -0.00633708 0.0558389 0.101214 0.132639 -0.0487992 -3.01034e-05 -0.0335521 -0.0595926 -0.0771639 -0.049209 -0.080279 -0.0880695 -0.0905554 -0.0814966 -0.0950757 -0.0963633
internal_weight=0 73.3978 57.4407 46.7572 69.6089 37.0859 15.9841 14.8153 10.4542 30.7731 22.2706 9.93389 10.6835 15.9571 32.523 10.5337 12.1779 12.3367 21.9892 7.07093 18.6767 8.46414
internal_count=732 346 256 199 386 191 82 68 45 117 123 51 57 90 195 61 70 72 134 42 114 49
is_linear=0
shrinkage=0.1


Tree=18
num_leaves=18
num_cat=0
split_feature=25 31 20 40 29 22 10 23 32 21 8 13 31 29 40 23 24
split_gain=15.7187 27.0518 7.98781 7.69309 7.45807 7.65511 6.16223 5.32386 5.47971 4.68396 3.80582 2.48157 4.6962 1.70077 4.41528 1.1804 0.514362
threshold=0.54291212200053007 -0.53928653682668337 -0.62645409887589742 -0.36175318350644442 -0.35228196915297472 -0.24164807568546615 -0.68780098535788758 -0.24020903207306837 0.21544847440939027 0.074764712083480872 0.15414301450679405 -0.58697534293200693 -0.16045861699603167 -0.74669014043950499 0.60967610859513099 -0.26781408643412002 0.29511912171315274
decision_type=2 2 2 2 2 2 2 2 2 2 2 2 2 2 2 2 2
left_child=1 2 10 -2 9 -6 -5 -8 -9 -4 -1 12 -3 14 -13 -15 -14
right_child=3 11 4 6 5 -7 7 8 -10 -11 -12 13 16 15 -16 -17 -18
leaf_value=0.04972914316988844 -0.044488584557886901 0.052948257596495102 -0.087266190633230739 -0.028549599046203467 -0.014663375427150181 0.10119113716694142 0.013941666560953145 0.084566064181505946 0.19894227303373188 0.04200545963998327 0.16602909107570876 -0.081778304807689772 -0.0452109840600491 -0.031078088976382728 0.04721679000777379 -0.085326592498456241 -0.098132191436168303
leaf_weight=5.181083142757414 5.6293656080961219 5.1804371923208237 8.553477540612219 4.0932130366563824 10.156555160880087 13.007472142577173 4.9957850724458721 10.297879353165628 7.0608388334512702 4.1690575927495948 6.1582044959068298 7.435273125767706 3.7143399417400342 4.5169650614261618 4.1258734911680222 35.809560462832451 3.6328805387020111
leaf_count=24 31 26 45 20 48 58 22 43 28 21 26 45 20 25 23 207 20
internal_value=0 -0.0177637 0.0397261 0.0616608 0.016608 0.0503933 0.0842545 0.10491 0.13109 -0.0449051 0.11289 -0.0599121 -0.0199667 -0.0695564 -0.0357433 -0.0792502 -0.0713782
internal_weight=0 111.641 47.2259 32.0771 35.8866 23.164 26.4477 22.3545 17.3587 12.7225 11.3393 64.4153 12.5277 51.8877 11.5611 40.3265 7.34722
internal_count=732 588 222 144 172 106 113 93 71 66 50 366 66 300 68 232 40
is_linear=0
shrinkage=0.1


Tree=19
num_leaves=18
num_cat=0
split_feature=40 32 28 28 34 13 28 4 2 11 32 27 20 2 40 23 21
split_gain=19.3965 10.7605 11.9188 7.44356 10.6522 10.4268 5.96721 5.19974 4.5226 4.46379 3.79753 3.59192 2.94792 2.77198 2.68137 1.77913 0.757358
threshold=0.56727721106140494 -0.0061602870659042894 -1.1253130872512715 0.63764104047989534 0.54792653753080511 -0.70714944031357441 -0.25710306194555871 0.42136753287044904 0.33727021601835888 -0.13833874773611254 -0.25703400786388159 -0.13614403208707002 -0.52578632886883436 0.51017140870526212 -0.63942356155201285 -0.26018494177372098 -0.73722120627710275
decision_type=2 2 2 2 2 2 2 2 2 2 2 2 2 2 2 2 2
left_child=6 2 -2 4 5 -3 7 9 10 14 -4 -6 -11 15 -1 -8 -17
right_child=1 3 8 -5 11 -7 13 -9 -10 12 -12 -13 -14 -15 -16 16 -18
leaf_value=-0.097944234755367898 0.11476267312910052 0.12427631219087135 -0.084601204005575026 -0.035696277234501091 0.2003612525277835 -0.0071929534852807654 -0.00947706167999883 -0.096647547854506036 0.046873888404694808 -0.0037800824615623189 0.0012390313926777296 0.095136709600631197 0.1055841510064747 0.01595366899547199 0.0024102539849489247 -0.043696506327396821 -0.091773881596304535
leaf_weight=3.6682903915643719 6.3753565400838843 9.8665911257266981 15.295488461852075 6.2701511681079856 7.4652707129716873 15.524436101317407 3.4518388360738745 5.2895628064870825 5.2856717109680167 4.0710227489471436 7.7726299911737469 5.7372537553310377 6.2465136647224409 3.5372602045536032 9.7100875377655047 3.7718603610992458 24.952762350440025
leaf_count=20 29 41 85 33 27 72 20 30 24 20 39 23 30 20 49 22 148
internal_value=0 0.0330092 -0.00878148 0.0653595 0.0817777 0.0438941 -0.0407126 -0.00700224 -0.0365604 0.013009 -0.055678 0.154635 0.062432 -0.0680722 -0.0251065 -0.0773094 -0.0854608
internal_weight=0 79.5928 34.7291 44.8637 38.5936 25.391 64.6992 28.9855 28.3538 23.6959 23.0681 13.2025 10.3175 35.7137 13.3784 32.1765 28.7246
internal_count=732 373 177 196 163 113 359 149 148 119 124 50 50 210 69 190 170
is_linear=0
shrinkage=0.1


Tree=20
num_leaves=18
num_cat=0
split_feature=34 10 40 8 20 33 2 2 18 1 3 6 6 28 27 10 8
split_gain=10.7722 6.07203 5.83515 6.96216 7.62044 7.16478 6.55424 9.70881 8.66376 3.42027 7.32716 2.7662 2.25255 0.00250354 0.0020671 0.000188451 0.000147268
threshold=-0.91418016121781942 0.4293738583135237 0.59388062121752017 -0.37727116284487477 -0.043995737794026275 1.2767015083935391 -0.24437938309581916 -0.53882363985490989 0.51907522974742337 0.091949289128984743 0.59839454842250062 -0.22868293986366897 0.16133820670967181 0.04121981490673992 -0.10669536738015531 1.0355758135444584 0.53366061969009093
decision_type=2 2 2 2 2 2 2 2 2 2 2 2 2 2 2 2 2
left_child=12 2 6 4 -4 -5 7 -2 -8 11 -11 -3 14 -13 -1 16 -16
right_child=1 9 3 5 -6 -7 8 -9 -10 10 -12 13 -14 -15 15 -17 -18
leaf_value=-0.095632447255061495 -0.0094485518347457338 0.004109210235283307 0.16962472236189363 -0.042986923767508206 -0.01476952856332487 0.068142326819506119 -0.015670415918798735 0.12224047588270125 0.11805918269016297 0.10591688048633091 -0.076637482086845676 -0.097884621309397957 0.0018923538102245457 -0.09458253588978488 -0.093480303448688407 -0.09214597146751706 -0.09252834245649548
leaf_weight=3.3032031208276775 8.2557217627763766 3.8521360307931909 4.3523358255624771 32.193561851978302 4.6205832213163358 7.0768949538469306 24.175218686461452 17.393365278840065 6.0586243569850913 4.2776209861040098 4.5237669795751572 3.6294195652008057 3.0433683395385733 6.2497200220823288 3.684030815958975 3.4247805923223495 2.9076538383960724
leaf_count=20 37 20 20 171 23 35 117 76 24 20 24 20 18 39 24 24 20
internal_value=0 0.0104911 0.0206765 -0.00480162 0.0746713 -0.0229604 0.0426715 0.0798535 0.0111279 -0.0365766 0.012087 -0.0677686 -0.0757279 -0.0957957 -0.0934631 -0.0927477 -0.0930604
internal_weight=0 126.659 104.126 48.2434 8.97292 39.2705 55.8829 25.6491 30.2338 22.5327 8.80139 13.7313 16.363 9.87914 13.3197 10.0165 6.59168
internal_count=732 626 503 249 43 206 254 113 141 123 44 79 106 59 88 68 44
is_linear=0
shrinkage=0.1


Tree=21
num_leaves=11
num_cat=0
split_feature=28 40 10 37 20 8 22 32 20 15
split_gain=14.7855 6.14529 5.83165 9.85101 5.64378 6.84758 5.56452 4.70119 7.00975 4.78513
threshold=0.85621571049684553 -2.7988484355005223 0.9745219057903648 -1.0000000180025095e-35 -1.0249305762342742 -0.26533149779070192 0.016519887145967364 0.57596353616754314 0.4036894016830393 0.11878436094236751
decision_type=2 2 2 2 2 2 2 2 2 2
left_child=1 -1 4 -4 5 -3 -6 8 -2 -10
right_child=7 2 3 -5 6 -7 -8 -9 9 -11
leaf_value=0.1013983136791955 0.10807503003667585 0.13740321234013528 -0.048007025875779541 0.13615609926742697 -0.050821594962531781 -0.011766944538294702 0.014078414310221943 0.13717944613405569 -0.069587202802835438 0.060058121832690638
leaf_weight=4.3486359119415274 9.0352256000042015 4.1429970860481289 5.6167893707752228 6.0149448513984662 67.10976917296648 11.96367773413658 16.449250638484955 6.9922565072774878 6.166072338819502 5.2889045029878616
leaf_count=20 36 20 29 25 382 59 83 26 30 22
internal_value=0 -0.0152214 -0.0197779 0.0472265 -0.0275979 0.026603 -0.0380455 0.0663783 0.0422175 -0.00972835
internal_weight=0 115.646 111.297 11.6317 99.6657 16.1067 83.559 27.4825 20.4902 11.455
internal_count=732 618 598 54 544 79 465 114 88 52
is_linear=0
shrinkage=0.1


Tree=22
num_leaves=17
num_cat=0
split_feature=32 25 31 8 25 29 40 11 20 8 23 18 17 37 13 13
split_gain=17.1887 16.456 21.904 10.3156 7.5394 6.94424 2.33077 3.78365 2.18223 1.98316 1.80055 1.48189 0.249414 0.184117 0.0131858 0.00361963
threshold=0.41709886040089589 0.44544620985254818 -0.54672329623850413 0.56808695644565987 -0.15679756047379056 -1.0026402273023882 0.10047579560523141 -0.11662461452040387 0.45159515660640942 -0.56923992519934863 -0.18853382239836411 -0.5556535428829491 1.2760647238777549 0.54375456855458915 0.62263238711440405 -0.41858861185939711
decision_type=2 2 2 2 2 2 2 2 2 2 2 2 2 2 2 2
left_child=1 2 5 4 -4 -1 7 -2 12 -8 -5 -7 15 14 -11 -3
right_child=6 8 3 10 -6 11 9 -9 -10 13 -12 -13 -14 -15 -16 -17
leaf_value=0.064349411492453462 0.040687904945924371 -0.092775248117229744 0.12216281590652418 -0.07569621543118997 0.046304485259238873 -0.082904384800088243 -0.021031423187669346 -0.096184180327945457 -0.013729675945398732 -0.093437861853959178 0.010319357863648898 -0.010100301559188798 -0.062840965756198561 -0.071353546436348975 -0.10046147772416852 -0.096601663698794749
leaf_weight=4.7885489165782955 4.8799494206905365 4.2731622755527496 27.847471058368683 3.9974716156721115 24.742891564965248 15.960633501410488 5.154479235410693 3.445787310600279 5.7761704474687567 13.695381648838525 6.2206665724515897 3.3895291537046406 3.1671813279390326 4.1660833507776251 3.3210786134004584 5.865711063146593
leaf_count=23 25 29 106 21 112 97 30 20 30 91 31 19 20 26 18 34
internal_value=0 0.0190373 0.0374932 0.0686091 0.0864727 -0.0434697 -0.0620797 -0.0159596 -0.0650561 -0.0766593 -0.0233311 -0.0701514 -0.0873369 -0.0901956 -0.0948087 -0.094989
internal_weight=0 106.029 86.9472 62.8085 52.5904 24.1387 34.6628 8.32574 19.0822 26.337 10.2181 19.3502 13.3061 21.1825 17.0165 10.1389
internal_count=732 522 409 270 218 139 210 45 113 165 52 116 83 135 109 63
is_linear=0
shrinkage=0.1


Tree=23
num_leaves=17
num_cat=0
split_feature=27 40 34 2 9 40 13 18 4 37 25 31 32 22 15 16
split_gain=13.2205 9.50621 8.82366 9.03403 8.43347 6.22995 5.4282 5.0085 4.88703 3.62592 3.05045 4.16688 1.98819 2.37093 1.70999 0.726629
threshold=-0.16612481409110461 0.40017651319464903 0.94888443854047544 -0.56198454186293556 0.73104971638568161 0.61798945623937163 -1.2914608607530218 -0.62668070577853774 0.053849274647428128 -0.5282890216790862 -1.0290864779061619 -0.68875464204576353 0.48231984426626334 -0.14195031018689191 -0.71931805742117483 0.4400064938832316
decision_type=2 2 2 2 2 2 2 2 2 2 2 2 2 2 2 2
left_child=4 6 3 -3 7 -6 -2 10 -5 -8 -1 -12 15 -14 -11 -9
right_child=1 2 -4 8 5 -7 9 12 -10 14 11 -13 13 -15 -16 -17
leaf_value=-0.074165168397910014 0.080525804341327917 -0.061265059153403412 -0.064585075158400299 0.04257164700095234 -0.022998606294330887 0.12547621454632726 0.030683975593073134 -0.093975207287382012 0.1107652978314011 -0.020056673731592981 0.098611169687220959 -0.028661387860307731 0.023058306808430108 -0.077307155735767449 -0.086717612806292629 -0.048051975675720414
leaf_weight=4.3190366029739371 4.3385429680347469 5.0340468734502783 5.8649272620677939 18.944058924913406 6.3785520493984205 5.0741840153932571 5.291785925626761 22.069686323404316 23.60131299495697 5.8354174345731797 4.4875056296586981 6.0277817398309699 4.1739742010831833 5.3970989733934385 11.299586310982695 4.0828736871480933
leaf_count=24 21 25 32 80 32 21 27 142 95 26 22 37 24 32 69 23
internal_value=0 0.0267837 0.0511464 0.0654122 -0.0346998 0.0427838 -0.0218632 -0.0522519 0.0804009 -0.0416707 -0.00340888 0.0256535 -0.0725341 -0.0335375 -0.0640159 -0.0868058
internal_weight=0 80.2097 53.4443 47.5794 62.0107 11.4527 26.7653 50.558 42.5454 22.4268 14.8343 10.5153 35.7236 9.57107 17.135 26.1526
internal_count=732 375 232 200 357 53 143 304 175 122 83 59 221 56 95 165
is_linear=0
shrinkage=0.1


Tree=24
num_leaves=17
num_cat=0
split_feature=40 32 30 14 10 28 2 4 10 32 20 8 2 23 10 32
split_gain=15.9002 8.42997 10.252 5.83262 6.46053 5.40215 5.08432 4.62521 3.75036 6.14484 3.28913 4.07599 2.59877 1.74206 0.780012 0.767423
threshold=0.56727721106140494 -0.0061602870659042894 -0.82595330449287785 0.41513123404381774 0.207455788685045 -0.25710306194555871 -0.44271514528428879 0.42136753287044904 0.11322703881298907 0.34193374734284088 0.069098309142692313 -1.0000000180025095e-35 0.51017140870526212 -0.26018494177372098 -0.82555422342620111 -0.59336985945878351
decision_type=2 2 2 2 2 2 2 2 2 2 2 2 2 2 2 2
left_child=5 2 -2 4 6 7 -3 8 9 -1 11 -4 13 -7 -15 -12
right_child=1 3 10 -5 -6 12 -8 -9 -10 -11 15 -13 -14 14 -16 -17
leaf_value=-0.046097806551675113 0.10333001369796764 0.11629046206144328 -0.061291514002107951 -0.027552953494905569 0.17210959104765369 -0.0070124977852712772 0.030703843367391428 -0.094882238208568531 0.080330107686528596 0.087707535130229081 -0.040419038846501991 0.036620573310858509 0.01589526377110987 -0.040042962843255731 -0.09002477847657514 -0.097787104153740409
leaf_weight=13.101560384035119 6.6437601000070563 9.7972813248634285 7.8038914203643825 6.8992944359779349 5.5507514476776114 3.3728519678115871 23.807999387383465 4.8719343096017829 6.0131922066211692 4.6503525227308264 3.4766242951154709 9.340578421950342 3.5352614670991889 3.6095535308122662 23.130793370306492 7.0814108699560148
leaf_count=69 29 38 42 36 22 20 100 30 29 21 20 46 20 22 148 40
internal_value=0 0.0292634 -0.00823227 0.0572262 0.0721642 -0.0380448 0.0556558 -0.00612151 0.0120748 -0.0110457 -0.0349877 -0.00794746 -0.0652137 -0.0747358 -0.083278 -0.0788965
internal_weight=0 80.4016 34.3463 46.0553 39.156 62.2855 33.6053 28.637 23.7651 17.7519 27.7025 17.1445 33.6485 30.1132 26.7403 10.558
internal_count=732 373 177 196 160 359 138 149 119 90 148 88 210 190 170 60
is_linear=0
shrinkage=0.1


Tree=25
num_leaves=14
num_cat=0
split_feature=34 40 10 1 17 1 27 24 34 27 27 27 6
split_gain=9.49895 5.45877 6.47343 5.6319 7.71879 4.26732 3.79602 2.52386 1.97848 2.41198 1.36465 0.00173042 0.000235309
threshold=-0.6055058022215567 -3.0661264947230218 0.4293738583135237 -0.9393824349471277 -0.30113059182190438 -1.020917137400265 -0.55134184287384125 0.45457356534206744 -0.91418016121781942 0.024735517726193378 -1.0000000180025095e-35 -0.0041201865351844329 -0.71072221622042209
decision_type=2 2 2 2 2 2 2 2 2 2 2 2 2
left_child=6 -2 3 5 -5 -3 -1 10 11 -10 -4 -8 -13
right_child=1 2 7 4 -6 -7 8 -9 9 -11 -12 12 -14
leaf_value=0.034900856613435498 0.13383895732887105 0.032926995617666044 -0.096027475135487636 -0.029944803810620025 0.034379241584931754 0.15671666437843551 -0.094109281724273186 0.022576979360078069 -0.078960464761367075 0.014997109600309429 -0.031856311666185251 -0.09115300029096203 -0.092226468240240778
leaf_weight=4.3845935612916973 3.6604004651308051 6.4682602733373642 7.3528881743550309 29.299916446208954 51.349801793694496 4.8900348693132383 3.2567592486739203 4.0988217443227759 5.8060583397746051 5.160682424902916 6.0329000055789956 7.2077250033617037 2.8492432534694636
leaf_count=22 15 29 44 150 239 21 21 22 35 26 34 54 20
internal_value=0 0.0137115 0.00969555 0.0202952 0.0110104 0.0862216 -0.0507342 -0.046082 -0.0661983 -0.0347463 -0.0671059 -0.0921059 -0.0914571
internal_weight=0 113.153 109.493 92.008 80.6497 11.3583 28.6651 17.4846 24.2805 10.9667 13.3858 13.3137 10.057
internal_count=732 554 539 439 389 50 178 100 156 61 78 95 74
is_linear=0
shrinkage=0.1


Tree=26
num_leaves=15
num_cat=0
split_feature=28 2 29 37 21 28 36 11 7 29 31 23 31 28
split_gain=12.1647 16.4781 8.20773 6.38247 5.38205 5.14681 5.10175 4.16557 5.38855 5.33893 4.5852 3.84532 3.05732 2.50237
threshold=0.31303811406968945 -0.53882363985490989 -0.37690100217067674 -0.31388030363235114 2.050026017165512 1.3713354241919922 -1.0000000180025095e-35 0.51452289677813878 -0.40427257914015463 1.2247762273029903 0.21877266644079882 0.037923364429278676 -0.11831565938102812 0.060420888982160588
decision_type=2 2 2 2 2 2 2 2 2 2 2 2 2 2
left_child=4 -2 3 -3 7 12 -5 9 11 13 -10 -9 -4 -1
right_child=1 2 5 6 -6 -7 -8 8 10 -11 -12 -13 -14 -15
leaf_value=-0.041004552583519149 0.18226472029861118 0.15728096729172092 -0.098495274629068236 -0.042666411926501217 0.083779927626422293 0.052867980543736072 0.10121057585824665 -0.083238406167944992 0.12089454783260495 0.051626750554966711 -0.0077231765563900538 0.027490452092377823 -0.015531164951868466 -0.097152841455343947
leaf_weight=45.836232356727123 6.95670361816883 5.9103369861841211 6.3415309786796596 5.1709269285202017 4.5844120010733596 8.2155353277921659 4.7088633030652973 7.386171370744707 5.7521441727876645 5.6120401173830023 5.3495321422815323 5.4506541937589645 14.827358916401865 9.5997803136706334
leaf_count=262 27 24 35 27 21 32 20 43 28 27 27 28 75 56
internal_value=0 0.0389967 0.016934 0.0750814 -0.0217616 -0.0143123 0.0259076 -0.0274549 0.00790005 -0.0413184 0.0589179 -0.0362217 -0.0403846 -0.0507277
internal_weight=0 52.1313 45.1746 15.7901 89.571 29.3844 9.87979 84.9866 23.9385 61.0481 11.1017 12.8368 21.1689 55.436
internal_count=732 240 213 71 492 142 47 471 126 345 55 71 110 318
is_linear=0
shrinkage=0.1


Tree=27
num_leaves=21
num_cat=0
split_feature=32 13 34 27 22 28 22 16 14 17 4 1 3 33 34 27 32 1 13 40
split_gain=14.5255 13.8668 8.35782 9.45732 11.81 7.55604 7.74249 5.60899 4.1517 3.88555 4.28748 2.07178 4.66894 1.27316 3.67918 0.307173 0.0054618 0.00423912 0.0017507 0.0013706
threshold=-0.18106571721060613 -0.70714944031357441 1.4995042408088153 -0.020644640448757735 -0.18935874135912287 -0.027016979706676509 -0.2149648162909977 0.1402193877926331 1.0337510025526158 -0.2850632419072478 -0.0020229124740088708 -0.11836346363511793 -0.80948994431243448 -0.29516581468816599 0.39934523760734059 -0.15667339267945785 -0.031485351900871594 0.54376111875987843 -0.39301255328406531 0.59221788826189525
decision_type=2 2 2 2 2 2 2 2 2 2 2 2 2 2 2 2 2 2 2 2
left_child=1 11 3 4 -3 13 7 -7 -5 10 -8 12 -1 16 -15 -11 -2 -13 -18 -16
right_child=5 2 -4 8 -6 6 9 -9 -10 15 -12 17 -14 14 19 -17 18 -19 -20 -21
leaf_value=-0.095372944075276189 -0.0966498618712191 0.12430314494620827 0.1625142020279205 -0.051393488608593385 0.0098064196301337649 0.097478447907751106 -0.076037781215504377 -0.029495469991655778 0.065452528152678949 -0.095902699982129455 0.057511894650844775 -0.096521622372032684 0.061604430155025508 0.012969938022973304 -0.094626219310778345 -0.057557413960548767 -0.091136228352207138 -0.091739096296406239 -0.093596423989998026 -0.092004529642284741
leaf_weight=3.9404803961515427 3.4455072581768045 18.062678754329678 6.0369939208030692 12.81027450412512 17.972546532750133 9.3444424420595151 4.1665114462375641 5.5425342619419089 3.987383008003234 7.9635726660490018 5.682415194809435 3.8202823549509031 3.6495413780212402 5.4017124846577635 3.3265382722020131 2.8320362269878423 7.1396616846323004 3.5997385233640671 4.8624136447906503 4.9784467443823814
leaf_count=24 20 69 23 65 79 39 23 29 20 49 31 22 18 32 21 20 54 26 32 36
internal_value=0 0.0291723 0.0510484 0.0383116 0.067198 -0.0357248 -0.00476581 0.0502051 -0.0236569 -0.0444059 0.00101475 -0.0566263 -0.0198929 -0.0734558 -0.0512711 -0.0858435 -0.0931404 -0.0942014 -0.0921329 -0.0930546
internal_weight=0 73.8799 58.8699 52.8329 36.0352 64.6858 35.5315 14.887 16.7977 20.6445 9.84893 15.01 7.59002 29.1543 13.7067 10.7956 15.4476 7.42002 12.0021 8.30499
internal_count=732 346 256 233 148 386 191 68 85 123 54 90 42 195 89 69 106 48 86 57
is_linear=0
shrinkage=0.1


Tree=28
num_leaves=17
num_cat=0
split_feature=40 13 24 18 10 31 23 37 15 22 25 20 29 25 31 20
split_gain=11.2519 11.3018 9.17499 6.82305 5.76705 4.99839 4.82077 4.42753 5.57719 5.44234 4.41889 3.72343 3.4289 2.15574 2.30096 0.431147
threshold=0.48372702069496915 0.12431998404834536 -0.80799785070531427 0.51043716952779172 0.45244609171478911 -0.64669549753790345 0.019196363267239964 -0.74269773972582132 -0.78566133578633301 -0.13953003937082545 -1.0729790621694189 1.0028845997311671 -0.11454681692061648 0.48781550722418326 0.84958950012766998 0.86016735200540229
decision_type=2 2 2 2 2 2 2 2 2 2 2 2 2 2 2 2
left_child=7 2 -2 5 6 -3 -4 9 10 -1 -9 -7 -12 15 -15 -10
right_child=1 3 4 -5 -6 11 -8 8 13 -11 12 -13 -14 14 -16 -17
leaf_value=0.088788808973992384 -0.057176757052293581 0.038038587788364352 0.068879641294800939 0.05243412642515221 0.14632559498718942 -0.095525575294257786 -0.023475691285590794 -0.076842351310922583 -0.089364358096746047 -0.068443618616325294 -0.024336548832225687 0.023040703411268671 0.099601100583222663 0.035316052590668057 -0.073882958544548391 -0.058342224027427371
leaf_weight=5.7317506223917007 6.7158953100442877 4.9378196299076107 30.564011260867119 8.6549496203660947 7.7965987771749488 15.405045367777349 6.9341228008270255 4.2329697310924521 20.267662964761261 3.5741520375013334 3.8907375484704962 3.1985590606927863 5.2369159758090964 3.6505890786647788 4.0931967347860336 5.7513321340084067
leaf_count=29 35 24 136 38 28 96 30 22 132 21 20 18 22 19 23 39
internal_value=0 0.0230749 0.0518991 -0.0234882 0.0680719 -0.0514009 0.0518014 -0.034633 -0.0470807 0.0284 0.00760774 -0.0751402 0.0467717 -0.068722 -0.0224042 -0.0825071
internal_weight=0 84.207 52.0106 32.1964 45.2947 23.5414 37.4981 56.4293 47.1234 9.3059 13.3606 18.6036 9.12765 33.7628 7.74379 26.019
internal_count=732 405 229 176 194 138 166 327 277 50 64 114 42 213 42 171
is_linear=0
shrinkage=0.1


Tree=29
num_leaves=17
num_cat=0
split_feature=40 32 15 28 8 28 22 16 4 31 40 24 13 12 8 15
split_gain=13.3472 7.23533 8.59608 5.60343 5.10932 5.04541 6.65793 6.8831 4.04707 3.4233 3.58038 3.27392 2.87488 1.59178 0.287257 0.274193
threshold=0.56436782480641667 -0.0061602870659042894 -0.85448830043194091 -0.25710306194555871 -0.21648263711801033 0.63764104047989534 -0.31400060850053352 -0.68240621354773257 0.42136753287044904 -0.71680655364228529 -1.0000000180025095e-35 -0.63589595542596222 -0.69891594916506861 0.65335287502331485 0.68937319613782044 0.11426551725644943
decision_type=2 2 2 2 2 2 2 2 2 2 2 2 2 2 2 2
left_child=3 2 -2 8 15 6 -3 -8 9 -1 -11 -6 -5 14 -14 -4
right_child=1 5 4 12 11 -7 7 -9 -10 10 -12 -13 13 -15 -16 -17
leaf_value=0.064842017313635744 0.10429633622408106 -0.045165239338463087 -0.096982460777382068 0.0075603494131954371 0.06204791413215488 -0.033646793258294429 -0.0079327587345198059 0.10040963827689385 -0.093517357347772279 0.020152163578418671 -0.081303738579982368 -0.028196887311572633 -0.092613017511132212 -0.020565134486980243 -0.059170650888729776 -0.061447148739532657
leaf_weight=8.1866811811924016 5.6223140507936469 4.9355280101299277 7.4127293676137942 4.620214149355891 5.9318487346172359 6.0903135240077964 7.3425273299217215 29.11893904209137 4.2386457547545424 9.962584540247919 5.3442794978618595 12.472585417330263 19.688308171927936 4.1043770760297766 2.9538328498601905 3.0709343478083611
leaf_count=37 24 22 45 23 27 33 30 113 28 52 28 66 137 27 20 20
internal_value=0 0.0260116 -0.00883349 -0.0363279 -0.0308513 0.0513346 0.063837 0.0785919 -0.00358025 0.012646 -0.0152704 0.000889501 -0.065281 -0.0778636 -0.0882502 -0.0865733
internal_weight=0 81.9977 34.5104 59.0989 28.8881 47.4873 41.397 36.4615 27.7322 23.4935 15.3069 18.4044 31.3667 26.7465 22.6421 10.4837
internal_count=732 380 182 352 158 198 165 143 145 117 80 93 207 184 157 65
is_linear=0
shrinkage=0.1


Tree=30
num_leaves=16
num_cat=0
split_feature=34 7 3 29 27 11 26 4 7 34 18 6 11 27 10
split_gain=8.27795 4.79494 8.99323 7.6891 5.75011 6.29743 5.38648 4.30144 5.19 3.8179 3.78746 2.3637 1.90454 0.00269769 0.000236969
threshold=-0.91418016121781942 0.031177795394067519 -0.64415516066520728 0.18216625266049072 -0.77187501462178132 -0.80092284542394998 0.18403625940881674 -0.22413125648732471 -0.34093300810014615 1.0000000180025095e-35 -0.90136022478263211 0.21275770450165235 0.59335680947297875 -0.11574465368239727 0.39409797922729101
decision_type=2 2 2 2 2 2 2 2 2 2 2 2 2 2 2
left_child=11 2 3 10 -3 -6 -7 8 -4 -5 -2 13 -9 -1 -15
right_child=1 4 7 9 5 6 -8 12 -10 -11 -12 -13 -14 14 -16
leaf_value=-0.093740535325007493 0.051796401963211093 -0.06757258523278814 -0.0739482910745482 0.16169937797833636 0.13907355919841469 0.087090567822502685 0.0072425620642739569 -0.077659199052380432 0.063566082567319673 0.045912335427579359 -0.035872903962496767 0.011929705611370868 -0.018983891353362987 -0.090709577332252961 -0.089653048651389192
leaf_weight=2.9578895717859259 7.6364406794309607 5.2783516943454734 4.4455874115228653 5.0380987823009473 5.9094826728105536 11.599109113216398 31.102748021483421 20.118529886007313 7.1727661043405515 6.5502880066633224 13.892895445227625 2.7560157254338256 7.62995272129774 4.768793970346449 3.8261867165565491
leaf_count=20 35 24 26 20 24 50 150 117 34 30 72 17 44 37 32
internal_value=0 0.00896655 -0.00782892 0.0305745 0.0315574 0.0423212 0.0289317 -0.0401362 0.0109483 0.0962512 -0.00477666 -0.0712844 -0.0615254 -0.0911357 -0.0902392
internal_weight=0 126.374 72.4846 33.1177 53.8897 48.6113 42.7019 39.3668 11.6184 11.5884 21.5293 14.3089 27.7485 11.5529 8.59498
internal_count=732 626 378 157 248 224 200 221 60 50 107 106 161 89 69
is_linear=0
shrinkage=0.1


Tree=31
num_leaves=16
num_cat=0
split_feature=28 40 21 21 34 30 24 21 20 27 24 32 22 29 29
split_gain=10.1143 6.14426 8.10629 7.26195 11.2419 10.0413 5.20346 4.62884 4.26389 3.79791 3.55793 1.86844 4.96188 1.17116 0.257814
threshold=1.1340252776982986 -0.051244860272406684 0.24524216699809531 -0.043617945298868484 0.62007505844295896 -0.65573608881778112 -0.75143450051757699 -0.34654673986031087 -0.45240263666283004 -0.58649509242989806 0.68888965963076243 -0.63476329908629625 -0.2915407450806265 -0.560983576789155 0.40946568799086763
decision_type=2 2 2 2 2 2 2 2 2 2 2 2 2 2 2
left_child=1 2 6 4 5 -3 -1 -2 -8 -9 -4 12 -5 -13 -6
right_child=7 3 10 11 14 -7 8 9 -10 -11 -12 13 -14 -15 -16
leaf_value=-0.098022269042647964 -0.018905506172237227 -0.059141839761936543 0.14756783359130174 -0.099328923295083499 -0.096383766342364799 0.05460333458163117 -0.063455256606321661 0.14842172510567447 0.04175664534538602 0.050309766069090059 0.037094486233023465 -0.03237496342639961 0.061545035156461682 -0.089467346912363077 -0.063017853886972217
leaf_weight=5.1989154517650631 5.1890623271465328 10.721174135804175 5.7904361337423307 3.9698939621448517 8.8340385556220991 28.110715955495834 5.2125979959964779 6.5598890334367796 14.756095141172407 9.8997577875852549 5.871299147605896 4.4433235228061738 3.7079651355743435 18.775405183434483 3.1385437697172156
leaf_count=29 21 63 25 22 54 148 26 24 69 39 25 25 20 122 20
internal_value=0 -0.0108838 0.0230268 -0.0261702 -0.00292048 0.0231992 -0.00890872 0.0634487 0.0142923 0.0894117 0.0919481 -0.0644005 -0.021636 -0.0785417 -0.0876371
internal_weight=0 118.53 36.8293 81.7011 50.8045 38.8319 25.1676 21.6487 19.9687 16.4596 11.6617 30.8966 7.67786 23.2187 11.9726
internal_count=732 648 174 474 285 211 124 84 95 63 50 189 42 147 74
is_linear=0
shrinkage=0.1


Tree=32
num_leaves=18
num_cat=0
split_feature=25 31 8 16 40 29 32 27 28 37 29 17 23 1 13 32 32
split_gain=12.8942 21.5273 11.2604 8.6306 7.44549 7.03418 6.40652 4.96702 2.47465 1.13649 1.01697 0.925373 0.795419 0.786023 0.00771563 0.00379013 0.000385791
threshold=0.44544620985254818 -0.54672329623850413 0.013039984375645394 0.1974953245318298 0.6196525063288808 -1.0631572251973009 0.41709886040089589 0.24325292241829607 1.2847140839464644 0.75816328660132426 -0.18091521937433483 -0.39372883194124414 -0.079227911082641683 0.0841117705435699 -0.28486623170561404 -0.24809926924775977 -0.047219132691858394
decision_type=2 2 2 2 2 2 2 2 2 2 2 2 2 2 2 2 2
left_child=1 5 3 7 6 -1 -4 -3 10 11 -2 -7 -11 -6 16 -16 -12
right_child=8 2 4 -5 13 9 -8 -9 -10 12 14 -13 -14 -15 15 -17 -18
leaf_value=0.057269683562352958 -0.043569733895324377 0.11083861129808568 0.051540597793798881 -0.029490604514927354 -0.098517558560808266 -0.089305710522842141 -0.094042045408270436 0.019705951386412023 0.010706235385178797 -0.067968415730673401 -0.090863023639109974 -0.031158885723057181 0.0029378363278270508 -0.037204188052374236 -0.097281235133637942 -0.093072175017324149 -0.089280129738570177
leaf_weight=4.9902054369449607 5.7629023939371171 30.816704005002975 18.887899324297912 6.7509940564632407 6.2124309465289098 20.016230300068859 3.5986782386898986 7.4208117425441733 3.5516992807388297 3.2601022571325302 2.8627116084098816 3.1704515293240574 3.0736792609095565 3.1515476405620575 3.3109196126461056 6.0459922850131909 3.3317774012684849
leaf_count=25 37 114 84 36 36 133 24 32 19 20 22 21 20 19 19 42 29
internal_value=0 0.0130713 0.0425383 0.0747485 -0.00295812 -0.0525379 0.028242 0.0931524 -0.0665746 -0.0711 -0.0794522 -0.081355 -0.0335588 -0.0778819 -0.0927492 -0.0945615 -0.0900116
internal_weight=0 111.35 76.8391 44.9885 31.8506 34.5107 22.4866 38.2375 24.866 29.5205 21.3143 23.1867 6.33378 9.36398 15.5514 9.35691 6.19449
internal_count=732 564 345 182 163 219 108 146 168 194 149 154 40 55 112 61 51
is_linear=0
shrinkage=0.1


Tree=33
num_leaves=18
num_cat=0
split_feature=40 11 25 19 15 6 34 32 23 23 33 37 28 32 18 1 33
split_gain=9.81834 11.2202 9.42573 8.69444 6.2151 5.73278 5.2742 5.20302 5.18479 4.30367 6.65115 3.52194 5.55252 3.11986 2.48074 1.17626 0.349355
threshold=0.066806325372007577 0.44894258249361751 0.5841128188139203 -0.59971062787791574 -0.87318984934354604 -0.63185170827388759 -0.23570061369602294 -0.20297094912401462 -0.085553187660238852 0.096368545944135825 -0.56927882100765614 -0.5282890216790862 0.052019567007499302 0.53516816834841829 -0.76996467302194904 0.61685743162610629 1.0649946407673718
decision_type=2 2 2 2 2 2 2 2 2 2 2 2 2 2 2 2 2
left_child=11 2 3 4 -2 -4 -7 9 -9 10 -3 12 -1 -5 -13 16 -16
right_child=1 7 5 13 -6 6 -8 8 -10 -11 -12 14 -14 -15 15 -17 -18
leaf_value=0.098304771896669418 -0.060690439171034283 0.15555457884480997 0.14150641940481276 -0.072790908398202667 0.068894832912125434 -0.056086619309925256 0.071886783718705313 0.055806392042253287 0.18336797273252492 -0.039402141862467877 -0.015547103685775346 -0.0092518624976148465 -0.070617139292696543 -0.010830111644094019 -0.093779652733218533 -0.030063651166539074 -0.054769201718310248
leaf_weight=3.9904678016901007 5.1853916943073299 4.6767870634794226 5.6084884107112911 25.077824585139751 12.930450461804865 5.3344772309064874 8.1264378875493968 6.5881122946739197 6.1708826422691327 5.5345833227038375 4.4181522727012661 7.3311786800622967 3.7978511899709702 12.022275529801844 15.047581084072595 4.3983711078762999 2.7089148834347716
leaf_count=20 28 18 20 157 59 22 34 31 23 24 23 37 23 65 102 26 20
internal_value=0 0.0161207 -0.00405026 -0.0249838 0.031803 0.0565633 0.0211717 0.0708301 0.117501 0.0301262 0.0724366 -0.0438771 0.0159327 -0.0527125 -0.059675 -0.0763603 -0.0878283
internal_weight=0 101.674 74.2853 55.2159 18.1158 19.0694 13.4609 27.3885 12.759 14.6295 9.09494 37.2744 7.78832 37.1001 29.486 22.1549 17.7565
internal_count=732 504 385 309 87 76 56 119 54 65 41 228 43 222 185 148 122
is_linear=0
shrinkage=0.1


Tree=34
num_leaves=20
num_cat=0
split_feature=40 2 2 14 28 6 34 14 2 20 14 33 32 12 29 20 13 27 18
split_gain=11.5692 6.91495 7.18216 5.57323 6.4902 6.59334 5.4859 5.22737 5.51115 5.8908 5.42782 5.22964 4.72692 3.68687 5.7719 2.69216 4.5663 1.94301 0.768485
threshold=0.60718216772863565 -0.13989542650223116 0.43312439938363939 -0.10028786733823361 -0.3528199757813536 -0.069205298331118728 0.53692560657176547 -0.26925646775600931 0.15212326223449021 -0.61421611308100799 -0.36986529565431642 -0.82392678657868856 -0.18368676414172538 0.020071428759956052 -0.68057598881699166 -0.37931507532308945 0.33803521529887276 0.36374272610944158 0.31801218908752238
decision_type=2 2 2 2 2 2 2 2 2 2 2 2 2 2 2 2 2 2 2
left_child=7 3 15 13 5 -5 -6 10 17 -10 11 -1 -13 -2 -15 -3 -17 18 -9
right_child=1 2 -4 4 6 -7 -8 8 9 -11 -12 12 -14 14 -16 16 -18 -19 -20
leaf_value=0.055819441435981193 0.1513603765542294 -0.099066359689145803 0.078750839921838872 0.0053193007946394444 -0.077678102706338681 0.15813502395019602 0.045139712694831136 -0.089825231502766972 -0.073384250387521568 0.083293349454029775 0.10795167277828613 -0.095119570577451629 0.0087246946648713835 -0.028551663615212493 0.10652395458049956 0.044231185773218933 -0.093029265001520131 0.0053008443780723224 -0.051739097995316591
leaf_weight=7.4891956746578279 6.5905360430479076 6.7294591292738959 5.8269405663013449 6.016648069024086 8.2573502808809263 5.3197114318609255 6.4994521588087073 21.150112643837936 4.3034079670906067 5.4247250258922559 4.2618402019143096 8.9052713960409218 8.6326677501201576 4.7832558751106271 9.3418421298265422 5.4383901953697205 4.3721758797764778 2.9278162643313399 7.0684417784214011
leaf_count=36 24 38 24 26 43 20 26 140 26 31 23 56 42 20 34 27 31 18 47
internal_value=0 0.0290178 -0.0167202 0.0508732 0.0201281 0.0770298 -0.0235845 -0.0286132 -0.0517185 0.0139843 0.00363165 -0.0141329 -0.0440045 0.0895993 0.0607826 -0.050354 -0.0169403 -0.0722398 -0.0802851
internal_weight=0 69.1758 22.367 46.8088 26.0932 11.3364 14.7568 70.1635 40.8745 9.72813 29.289 25.0271 17.5379 20.7156 14.1251 16.54 9.81057 31.1464 28.2186
internal_count=732 313 120 193 115 46 69 419 262 57 157 134 98 78 54 96 58 205 187
is_linear=0
shrinkage=0.1


Tree=35
num_leaves=16
num_cat=0
split_feature=34 32 24 23 4 29 32 32 31 27 34 3 34 6 10
split_gain=7.48646 4.34044 4.0102 8.19409 7.19183 6.38289 4.1527 5.28717 4.08395 3.39838 1.75786 2.91348 0.676113 0.00154502 0.000287934
threshold=-0.6055058022215567 1.8024617594586736 -0.60745694202579203 -0.17608066417153731 -0.12991209104372861 -0.53677631097806644 0.062231496924276784 0.34193374734284088 0.19695283288219581 -0.55134184287384125 -0.91418016121781942 0.29166276565478166 -0.74946089011484351 -0.057885452489870773 0.55702680364884649
decision_type=2 2 2 2 2 2 2 2 2 2 2 2 2 2 2
left_child=9 2 6 5 -5 -4 8 -8 -2 -1 13 12 -12 14 -11
right_child=1 -3 3 4 -6 -7 7 -9 -10 10 11 -13 -14 -15 -16
leaf_value=0.03357503877329325 -0.082656924853999988 -0.079021152626823243 -0.018150293557251587 0.049769908543721597 -0.032507539076947464 0.10031806523659381 0.11856902757997714 -0.0055219604208279396 0.018549907069968407 -0.089895287193702586 -0.035068558413464762 0.042687853311272846 -0.096466510339506206 -0.092171403189725457 -0.088733002865209104
leaf_weight=4.3805961906909969 11.003322623670103 4.9888950586318961 5.8255349844694164 18.984402179718018 24.123172782361507 20.737068086862564 4.3392438739538219 16.450235918164253 6.2529214918613425 5.173971854150297 3.2091314792633057 3.4055242091417313 4.0659439638256991 2.6484982296824464 3.6245404183864594
leaf_count=22 61 27 28 87 125 93 19 86 28 43 19 17 25 19 33
internal_value=0 0.0121659 0.0163893 0.0306478 0.00372712 0.0743364 -0.00972113 0.0203787 -0.0459839 -0.0468972 -0.0628283 -0.0336491 -0.0693831 -0.0900539 -0.0894165
internal_weight=0 112.705 107.716 69.6702 43.1076 26.5626 38.0457 20.7895 17.2562 26.5082 22.1276 10.6806 7.27508 11.447 8.79851
internal_count=732 554 527 333 212 121 194 105 89 178 156 61 44 95 76
is_linear=0
shrinkage=0.1


Tree=36
num_leaves=11
num_cat=0
split_feature=28 2 37 28 6 20 22 1 26 13
split_gain=8.69985 11.0569 7.19042 5.14799 4.972 4.59124 3.93764 2.97301 12.1334 4.38929
threshold=0.31303811406968945 -0.53882363985490989 1.1869807226947946 1.5318144388246235 0.16133820670967181 -1.7472621063396934 0.25706858747397665 -0.48901951029310403 -0.26199520787921698 0.46979170674094273
decision_type=2 2 2 2 2 2 2 2 2 2
left_child=5 -2 3 4 -3 -1 7 9 -9 -7
right_child=1 2 -4 -5 -6 6 -8 8 -10 -11
leaf_value=0.070135163662240263 0.14458986463401211 0.047830976505438327 0.12785785549797132 0.067694816380822684 -0.042686679525067557 -0.073805765366775244 0.038680531681339066 0.078407233993629546 -0.045340126111814476 0.047256368576962568
leaf_weight=5.4234148859977713 7.5631452202796927 8.2211395502090472 4.933856174349784 8.7652022242546064 23.172831438481808 23.857202053070072 8.6837004423141462 10.310744181275366 34.220261231064796 3.4247951954603186
leaf_count=24 27 37 21 32 123 152 39 53 204 20
internal_value=0 0.0326989 0.0139322 -6.44272e-05 -0.0189828 -0.0189223 -0.0249225 -0.0326134 -0.0166876 -0.0586085
internal_weight=0 52.6562 45.093 40.1592 31.394 85.9201 80.4967 71.813 44.531 27.282
internal_count=732 240 213 192 160 492 468 429 257 172
is_linear=0
shrinkage=0.1


Tree=37
num_leaves=17
num_cat=0
split_feature=32 13 25 31 8 29 24 33 2 32 11 8 11 28 29 7
split_gain=11.3746 11.8577 9.95386 9.4945 7.26634 4.53686 2.17127 2.03328 1.62344 3.65788 0.91874 0.339426 0.232171 0.014785 0.00676577 0.000388237
threshold=0.57255155563957782 -0.70714944031357441 0.44544620985254818 -0.54672329623850413 0.013039984375645394 -0.93912694328055102 -0.50646523589707537 -1.1091525153206889 -0.48234086012356941 1.0525414326997462 0.46883820860172248 0.94759634118226843 1.3008754465161756 -0.019864503922777214 -0.88319248510546289 0.097558134298242852
decision_type=2 2 2 2 2 2 2 2 2 2 2 2 2 2 2 2
left_child=1 7 3 5 -5 -3 -4 -1 9 -2 -8 13 14 15 -9 -10
right_child=8 2 6 4 -6 -7 10 12 11 -11 -12 -13 -14 -15 -16 -17
leaf_value=-0.014435953624128795 0.03325925267831388 0.065703475490130947 0.014922858807461206 0.084473818488409777 0.012928729109537775 -0.055835884192249746 -0.095397950106331147 -0.096152681020873654 -0.090131555703899385 -0.091735575787521492 -0.029417146338432218 -0.051684180006014095 -0.059481722641647583 -0.096545583241238339 -0.090718292949881027 -0.088473899234190939
leaf_weight=5.9933159872889545 4.4518434628844279 4.0487665385007885 3.5590851083397856 38.981245413422585 22.326099403202534 12.721525803208349 7.1321434602141363 3.866825670003891 3.543078012764453 4.9382954239845276 2.997228242456913 2.3885101079940787 2.6555196046829215 5.9215977862477294 5.6214670985937101 2.3500155881047249
leaf_count=39 26 18 22 145 103 84 45 23 29 37 20 19 17 38 45 22
internal_value=0 0.011788 0.0263909 0.0401811 0.0584195 -0.0264933 -0.0522667 -0.0620964 -0.064737 -0.0324758 -0.0758746 -0.0860658 -0.0856181 -0.0930166 -0.092933 -0.0894705
internal_weight=0 109.903 91.7661 78.0776 61.3073 16.7703 13.6885 18.1371 23.5933 9.39014 10.1294 14.2032 12.1438 11.8147 9.48829 5.89309
internal_count=732 561 437 350 248 102 87 124 171 63 65 108 85 89 68 51
is_linear=0
shrinkage=0.1


Tree=38
num_leaves=18
num_cat=0
split_feature=13 40 37 29 24 38 31 25 6 28 2 29 29 20 33 0 20
split_gain=8.45785 8.60216 8.65051 7.46388 5.47821 4.40247 4.39687 7.25912 3.72353 4.9133 3.39511 5.83671 3.36302 2.97427 1.85423 4.10399 1.73137
threshold=-0.23812935965294696 0.62131492215062145 -1.1715151758192912 0.088544147497030892 0.2895076819741032 -1.0000000180025095e-35 -0.65738417435392571 0.49677977854216554 0.0031469644843741492 -0.3245501038352982 -0.024641342159507692 0.45194294043234767 0.29014791645832633 -0.44386566719287723 -0.2767532446671514 -0.35229024078809407 1.0415430927687521
decision_type=2 2 2 2 2 2 2 2 2 2 2 2 2 2 2 2 2
left_child=1 2 12 5 -5 -4 8 14 -2 -10 11 -9 -1 -3 15 -8 -16
right_child=6 13 3 4 -6 -7 7 10 9 -11 -12 -13 -14 -15 16 -17 -18
leaf_value=0.1498507746757711 -0.038602344706220697 0.13870813295135836 -0.081313600839334615 -0.034634086618542996 0.095851330642767352 0.0052094172125728214 0.049229782125126326 -0.10002644453095551 0.13854296097991739 -0.001149745812149199 0.077238842894420581 0.047979989689153367 0.033713877517340021 0.047258905461561931 -0.081346462749997517 -0.070979986996746611 -0.006211808549798351
leaf_weight=4.8268673121929151 6.1195367425680187 7.5069895535707474 15.006230428814883 5.2711256816983214 8.2582955211400968 9.6704938560724312 4.5613853856921196 4.6329092532396334 4.4787285178899774 5.7507455050945255 6.3141338452696791 6.2709516435861588 5.1576322168111801 6.7582445591688138 25.380973756313328 7.5259310156106931 3.4885131269693366
leaf_count=20 30 28 87 25 33 50 25 25 21 28 28 28 20 30 181 47 26
internal_value=0 0.0271718 0.00697996 -0.0146789 0.0450136 -0.0474063 -0.0227194 -0.0355961 0.0230996 0.0600113 0.0188851 -0.014906 0.0898586 0.0953835 -0.0584996 -0.0256165 -0.0722674
internal_weight=0 62.4559 48.1906 38.2061 13.5294 24.6767 74.5238 58.1748 16.349 10.2295 17.218 10.9039 9.9845 14.2652 40.9568 12.0873 28.8695
internal_count=732 293 235 195 58 137 439 360 79 49 81 53 40 58 279 72 207
is_linear=0
shrinkage=0.1


Tree=39
num_leaves=17
num_cat=0
split_feature=40 32 23 22 28 34 28 4 28 11 13 5 10 12 27 28
split_gain=9.80132 5.3311 8.61037 5.01084 5.31026 5.69026 4.81399 3.53689 3.32466 3.04724 2.60045 2.08977 2.03256 1.94874 0.917557 0.0010521
threshold=0.56436782480641667 -0.25703400786388159 0.081256731892502307 -0.31400060850053352 0.63764104047989534 0.16043656986135527 -0.25710306194555871 0.42136753287044904 -0.79808404511570341 -0.13833874773611254 -0.42785190201881756 -0.65054064287176638 -0.029879932849760538 0.65335287502331485 0.28691221422224494 0.93589028481729331
decision_type=2 2 2 2 2 2 2 2 2 2 2 2 2 2 2 2
left_child=6 2 8 -3 5 -5 7 9 -2 11 -8 -1 -11 15 -10 -12
right_child=1 3 -4 4 -6 -7 10 -9 14 12 13 -13 -14 -15 -16 -17
leaf_value=0.036461872137745467 0.016436003421041064 -0.037339208099362552 0.084542584704826132 0.02333878185881404 -0.036048027041968855 0.095383578548593195 -0.0051480719000858866 -0.091804872823378916 -0.095032881270645977 0.012918451438386059 -0.091186027352414781 -0.049899788528469637 0.10058211786594456 -0.010361254540644321 -0.031360297428209991 -0.089519458015067013
leaf_weight=4.2064868062734631 4.9321249425411269 7.5928959101438513 6.1022676080465308 20.390861287713051 6.3040106743574134 23.710799306631088 6.416366025805476 3.7942615225911132 9.7718213275074941 6.0187553316354752 13.039413318037992 8.3914379701018351 4.7182575762271863 3.6126086115837088 2.9454046040773401 5.3389870375394812
leaf_count=19 25 38 25 86 36 87 36 28 66 30 100 48 20 25 17 46
internal_value=0 0.0220515 -0.0178534 0.0383933 0.0498014 0.0620729 -0.0323891 -0.0022618 -0.0532568 0.0122979 -0.0611608 -0.0210634 0.0514412 -0.0775038 -0.0802858 -0.0907019
internal_weight=0 81.7502 23.7516 57.9986 50.4057 44.1017 55.5366 27.1292 17.6494 23.3349 28.4074 12.5979 10.737 21.991 12.7172 18.3784
internal_count=732 380 133 247 209 173 352 145 108 117 207 67 50 171 83 146
is_linear=0
shrinkage=0.1


Tree=40
num_leaves=12
num_cat=0
split_feature=34 32 1 3 5 29 34 34 1 34 6
split_gain=6.46342 3.7419 3.94377 6.47595 5.48655 3.39929 3.13611 2.2315 3.03985 0.00221689 0.00158529
threshold=-0.6055058022215567 1.8024617594586736 -0.9393824349471277 -0.78083930641405697 -0.69598498102934825 -0.88319248510546289 0.49407388811197772 -0.85119021778151105 -0.15387319492043669 -0.95605143159701245 -0.54400346949313161
decision_type=2 2 2 2 2 2 2 2 2 2 2
left_child=5 2 6 -4 -5 -1 -2 9 -9 10 -7
right_child=1 -3 3 4 -6 7 -8 8 -10 -11 -12
leaf_value=0.037115158273665627 0.026106144113446118 -0.076188521984499061 -0.085412403609739659 0.10071883593922532 0.0082304632014809764 -0.088111521172400051 0.12957275012394881 -0.095261911242512515 0.021870156570304319 -0.092596211464010883 -0.090758344525060167
leaf_weight=4.2359121441841152 7.0857149809598905 4.6916063502430907 6.8538644164800635 6.9584912508726111 81.961167328059673 5.8915028423070925 4.9943105578422546 3.6576850488781929 5.6199167668819392 2.2831095680594453 3.6740207523107529
leaf_count=21 30 27 36 31 409 57 21 24 30 17 29
internal_value=0 0.0112371 0.0150401 0.00824888 0.0154682 -0.0446444 0.0688829 -0.0610376 -0.024309 -0.0897964 -0.0891281
internal_weight=0 112.545 107.854 95.7735 88.9197 25.3621 12.08 21.1262 9.2776 11.8486 9.56552
internal_count=732 554 527 476 440 178 51 157 54 103 86
is_linear=0
shrinkage=0.1


Tree=41
num_leaves=14
num_cat=0
split_feature=28 2 29 12 37 2 8 22 11 37 10 29 29
split_gain=7.13709 8.7326 5.87663 5.68696 4.77491 4.12506 3.53898 4.54477 3.19129 4.64656 5.15577 3.93046 2.68068
threshold=0.31303811406968945 -0.53882363985490989 -0.37690100217067674 2.4216066779122429 -0.31388030363235114 -0.092180743429132253 0.54537319470400381 -0.097804112427734277 0.51452289677813878 1.1869807226947946 0.19879460529812493 1.2247762273029903 0.47181125668199747
decision_type=2 2 2 2 2 2 2 2 2 2 2 2 2
left_child=3 -2 4 8 -3 -6 7 -4 11 10 -10 12 -1
right_child=1 2 6 -5 5 -7 -8 -9 9 -11 -12 -13 -14
leaf_value=-0.031932081252219989 0.12727632342263215 0.12843138687204303 -0.024056254413823214 0.10881317863671314 0.071473947594900097 -0.05824658855590157 -0.079121301821591522 0.076824149401912775 0.079682799865580703 -0.08200163421726471 -0.025076135442985783 0.043280553225399226 -0.086556465806118865
leaf_weight=39.876924864947796 7.7871481925249091 6.3217425942420986 15.806120269000532 3.4238305836915961 5.9029083847999582 4.1924600601196262 6.581580124795436 6.2244058325886753 9.9578273445367866 4.5834765434265128 8.8941173702478391 5.6996048614382735 11.596732281148432
leaf_count=247 27 24 81 14 27 20 33 28 56 24 47 27 77
internal_value=0 0.0294974 0.0125879 -0.0174135 0.0602797 0.0176029 -0.0147768 0.00444604 -0.0227749 0.00830303 0.0302588 -0.0355139 -0.0442387
internal_weight=0 52.8164 45.0292 84.0325 16.4171 10.0954 28.6121 22.0305 80.6087 23.4354 18.8519 57.1733 51.4737
internal_count=732 240 213 492 71 47 142 109 478 127 103 351 324
is_linear=0
shrinkage=0.1


Tree=42
num_leaves=17
num_cat=0
split_feature=32 13 25 26 14 40 33 24 2 32 11 8 8 28 29 7
split_gain=9.79636 10.0788 8.22606 7.73474 6.53572 3.38208 1.97338 1.81266 1.61213 3.32082 0.977313 0.348199 0.242884 0.012533 0.00608403 0.000316758
threshold=0.57255155563957782 -0.70714944031357441 0.44544620985254818 -0.69089516311734156 0.25423944578026786 -0.54548089379556564 -1.1091525153206889 -0.5019691396525453 -0.48234086012356941 1.0525414326997462 0.46883820860172248 0.94759634118226843 0.91374892378781003 -0.019864503922777214 -0.68057598881699166 0.097558134298242852
decision_type=2 2 2 2 2 2 2 2 2 2 2 2 2 2 2 2
left_child=1 6 3 5 -5 -3 -1 -4 9 -2 -9 13 14 15 -8 -10
right_child=8 2 7 4 -6 -7 12 10 11 -11 -12 -13 -14 -15 -16 -17
leaf_value=-0.012577048075610936 0.031015739370746684 0.055710089382879614 0.0093306515096418987 0.024970801332936346 0.09060180149973536 -0.053873752235111309 -0.095711203004416656 -0.093943730831609215 -0.089167681406724694 -0.090436834005232808 -0.023036848126785355 -0.048919599376048832 -0.058111406451670879 -0.095319312535262921 -0.090201714517734649 -0.087602015559011426
leaf_weight=5.8787600770592716 4.5032953247427958 3.7102696001529702 3.7337252721190444 37.404438555240631 25.52896922826767 11.689958058297631 3.1837043911218643 6.6059489548206312 3.2623485550284377 4.5018718019127846 2.7542791739106178 2.2681246548891059 2.752751186490058 5.5317079052329055 5.4106473550200445 2.1397396624088287
leaf_count=39 26 19 23 158 97 76 20 45 29 37 19 19 19 38 46 22
internal_value=0 0.0105661 0.0237861 0.0360497 0.0515941 -0.0274725 -0.0596005 -0.0495801 -0.0623242 -0.0297009 -0.0730791 -0.0845768 -0.0839626 -0.0919736 -0.0922427 -0.0885475
internal_weight=0 108.653 91.4276 78.3336 62.9334 15.4002 17.2259 13.094 22.2071 9.00517 9.36023 13.2019 11.3471 10.9338 8.59435 5.40209
internal_count=732 561 437 350 255 95 124 87 171 63 64 108 85 89 66 51
is_linear=0
shrinkage=0.1


Tree=43
num_leaves=17
num_cat=0
split_feature=40 24 34 26 25 32 28 25 6 27 23 34 8 20 14 6
split_gain=7.52373 7.72652 8.87778 3.83508 5.19901 3.81257 5.12674 3.55138 3.82048 2.91905 3.84001 2.3168 4.83908 1.33052 0.828987 0.285173
threshold=0.38313405538379064 -0.74378663873481066 0.94888443854047544 -0.84309055058786531 -1.0290864779061619 1.5427648557850737 0.8293156530906749 0.48781550722418326 0.18551970590853187 -0.22439159066023417 -0.2377811307156171 0.88646445066132784 0.42708204967980046 -0.1199038358058704 0.9978196725555315 0.44786409772001157
decision_type=2 2 2 2 2 2 2 2 2 2 2 2 2 2 2 2
left_child=3 9 5 4 -1 6 -3 11 -9 15 -11 14 -13 -4 -5 -2
right_child=1 2 13 7 -6 -7 -8 8 -10 10 -12 12 -14 -15 -16 -17
leaf_value=-0.056980935864717801 -0.096216224525051033 0.049711882003962295 -0.021331140650448249 -0.087539176261737406 0.088663846872377577 0.1342128095334523 -0.057282808782320498 0.060599405509263293 -0.070446754932786945 -0.066488172863297876 0.050596982583524755 -0.091720847703811503 0.092969833986494679 -0.095746172479615158 -0.031048054156073882 -0.056989650352022803
leaf_weight=4.471951812505722 5.5552137494087237 49.451838798820972 5.1636423021554947 19.020909830927856 5.4232240766286832 4.6661689206957808 4.9242790788412085 5.4032928645610792 3.7817445397377014 5.3359752297401428 5.8963973894715291 3.146264173090457 2.5835663303732872 4.4936411902308446 3.0085732489824286 2.781141497194767
leaf_count=24 36 213 31 140 23 19 31 27 23 27 26 25 16 31 20 20
internal_value=0 0.0171375 0.0329279 -0.0324473 0.0228422 0.0474664 0.0400225 -0.0472561 0.00664393 -0.0382977 -0.0050247 -0.0650906 -0.00844428 -0.0559573 -0.0798242 -0.0831296
internal_weight=0 88.2683 68.6996 46.8395 9.89518 59.0423 54.3761 36.9444 9.18504 19.5687 11.2324 27.7593 5.72983 9.65728 22.0295 8.33636
internal_count=732 434 325 298 47 263 244 251 50 109 53 201 41 62 160 56
is_linear=0
shrinkage=0.1


Tree=44
num_leaves=17
num_cat=0
split_feature=40 27 22 23 14 27 28 17 4 8 6 2 28 2 13 40
split_gain=8.44533 4.87792 5.4591 6.07536 4.41605 5.36683 4.25883 3.31927 3.63671 4.18909 3.16913 3.06614 2.9181 2.53266 1.81604 0.319095
threshold=0.56436782480641667 -0.55134184287384125 -0.31400060850053352 0.10617585761600505 -0.10028786733823361 -0.11390900489570112 -0.25710306194555871 0.70086239073603307 0.42136753287044904 0.097724407288356491 0.69337739385669528 -0.1042350213696172 0.079254592585770237 0.51017140870526212 -0.42785190201881756 0.46460606740610838
decision_type=2 2 2 2 2 2 2 2 2 2 2 2 2 2 2 2
left_child=6 10 3 12 11 -6 7 8 9 -1 -2 -4 -3 14 -8 -16
right_child=1 2 4 -5 5 -7 13 -9 -10 -11 -12 -13 -14 -15 15 -17
leaf_value=0.068980495242159379 -0.10083406265040257 -0.088486279256703285 0.093989232000118564 0.084769333210093195 -0.028176772449144506 0.055096143729630911 -0.016014777563041857 -0.095893458687111591 -0.090492661788340978 -0.021466229873146017 0.021156670732200733 0.01156918610222659 0.02116464291414662 0.02266804907954427 -0.089642666910395755 -0.050809144652127339
leaf_weight=10.745649144053468 5.1144626066088659 8.6961444094777125 19.30259466171265 3.9673509746789923 13.80207470059395 17.61956100910902 4.8731404170394006 3.3368687480688086 3.0896218791604033 9.7825709432363492 3.6488388106226921 5.8912074044346801 3.3666372150182715 3.3415125906467429 16.214179106056694 2.4335318729281417
leaf_count=51 29 48 69 15 71 78 28 20 25 49 19 29 22 20 140 19
internal_value=0 0.0204379 0.0289397 -0.0225779 0.0435264 0.0185182 -0.0306176 -0.00253487 0.0106554 0.0258788 -0.0500399 0.0747165 -0.0578835 -0.0587969 -0.0703703 -0.0845749
internal_weight=0 81.4089 72.6456 16.0301 56.6154 31.4216 53.8171 26.9547 23.6178 20.5282 8.7633 25.1938 12.0628 26.8624 23.5209 18.6477
internal_count=732 380 332 85 247 149 352 145 125 100 48 98 70 207 187 159
is_linear=0
shrinkage=0.1


Tree=45
num_leaves=19
num_cat=0
split_feature=10 2 2 29 5 20 34 23 11 25 40 24 33 14 27 5 2 34
split_gain=5.98071 4.16203 8.47707 10.6283 6.74348 5.93583 5.72181 7.72001 4.18122 5.25559 3.32793 2.54014 2.47994 2.276 2.34802 4.72023 1.55214 0.00748699
threshold=0.4293738583135237 -0.23056164374410673 -0.32964873684067492 0.012862107479844105 -0.87124008347006821 0.069098309142692313 0.87204071825674589 -0.18853382239836411 -0.91044386362611951 -0.20547989009296128 -0.099047719195384978 -0.83010352571834645 1.168480176288877 0.9978196725555315 0.024735517726193378 0.12805678294722986 -0.11663385641423074 -0.71733213675586815
decision_type=2 2 2 2 2 2 2 2 2 2 2 2 2 2 2 2 2 2
left_child=1 2 4 5 -1 -4 8 -8 9 -3 -10 -6 -9 14 16 -16 -2 -15
right_child=13 6 3 -5 11 -7 7 12 10 -11 -12 -13 -14 17 15 -17 -18 -19
leaf_value=0.089424146795436477 -0.093962322504807017 -0.046949464963902912 -0.06074195931220025 0.19232801446688841 0.048838622743185234 0.096288605590598375 0.1316266258772868 0.036450606957943686 0.0035258019639208926 0.11524077661134918 -0.064135847596473727 -0.027380630482754843 -0.074375200877669981 -0.088712213163074594 -0.056784522768880547 0.081022545088544382 -0.007598540497943701 -0.095552920967890698
leaf_weight=7.7059564515948287 5.6382216289639473 3.819883331656456 4.358531631529333 6.3442500010132781 5.2335897460579899 5.3767854124307632 6.0876376181840888 4.149051830172537 10.672904059290881 4.1886755377054197 22.794166058301929 26.575087636709213 3.9331310093402863 2.6660345792770386 5.2465911433100683 4.7230546921491623 3.2983354777097755 4.0010804980993262
leaf_count=32 39 23 23 26 27 25 26 19 53 18 132 133 21 26 37 26 21 25
internal_value=0 0.0110508 0.0304027 0.0916165 0.00549308 0.0259855 -0.00828324 0.0465781 -0.0270262 0.0378801 -0.042558 -0.01484 -0.0174819 -0.0425803 -0.0248645 0.00850068 -0.0620869 -0.0928175
internal_weight=0 111.24 55.5942 16.0796 39.5146 9.73532 55.6454 14.1698 41.4756 8.00856 33.4671 31.8087 8.08218 25.5733 18.9062 9.96965 8.93656 6.66712
internal_count=732 558 266 74 192 48 292 66 226 41 185 160 40 174 123 63 60 51
is_linear=0
shrinkage=0.1


Tree=46
num_leaves=9
num_cat=0
split_feature=28 37 20 8 22 20 28 3
split_gain=6.34222 5.66519 4.17244 7.375 5.5635 6.64753 4.46078 3.55458
threshold=1.5902243807575511 2.0446155948817348 -1.0249305762342742 -0.085701565018452733 0.066496985286753602 0.21954999165806627 -0.49296102269908848 -0.61685530786535148
decision_type=2 2 2 2 2 2 2 2
left_child=1 2 3 -1 7 -6 -5 -4
right_child=-2 -3 4 6 5 -7 -8 -9
leaf_value=0.11419869751699155 0.076831509289247923 0.081421451122185601 -0.068432262952786579 -0.073091192739174735 0.092887237766285644 -0.020581322360417494 0.061385249618441863 -0.018788481178671237
leaf_weight=6.9663007929921177 10.117741942405699 7.0772806107997885 18.918475612998009 6.1447899863123903 8.9005219638347643 12.295645847916601 4.1210123822092983 60.698340848088264
leaf_count=32 36 32 128 32 38 54 20 360
internal_value=0 -0.00548068 -0.0106908 0.0347829 -0.0184637 0.0270655 -0.0191082 -0.0305848
internal_weight=0 125.122 118.045 17.2321 100.813 21.1962 10.2658 79.6168
internal_count=732 696 664 84 580 92 52 488
is_linear=0
shrinkage=0.1


Tree=47
num_leaves=20
num_cat=0
split_feature=9 31 13 8 29 24 37 28 32 12 40 30 37 24 17 14 20 25 25
split_gain=8.88084 15.8142 6.60871 6.1784 5.672 4.84916 6.39014 3.78107 5.95247 3.49549 2.17495 2.55413 1.21298 2.76868 0.992189 0.990114 0.741303 1.61769 0.00617939
threshold=0.17566104504446231 -0.54672329623850413 1.340657654475889 0.089902784341359274 -1.0631572251973009 -0.52416886204065782 0.11493713246111893 -0.27691384392534796 -0.47924170175035047 0.030329714164893561 -0.48978076688460853 0.71614370069842448 0.75816328660132426 0.17137199303259701 -0.39372883194124414 -0.30007331134940701 0.14510183460462031 0.46386125238306802 0.43353416576359427
decision_type=2 2 2 2 2 2 2 2 2 2 2 2 2 2 2 2 2 2 2
left_child=1 4 10 7 -1 15 -7 8 -3 -9 11 -2 14 -14 -6 -5 18 -18 -12
right_child=2 3 -4 5 12 6 -8 9 -10 -11 16 -13 13 -15 -16 -17 17 -19 -20
leaf_value=0.050338296010988617 -0.070700602929988837 0.078041424921924202 0.083475497062326931 -0.030692944400177148 -0.086032052877056939 0.09365435578014375 -0.034075311923543176 0.10913618482814998 -0.069872196530928049 0.038712323568336142 -0.093392835358307225 0.050132033870476322 -0.093074788755994509 0.04747194757256322 -0.021830677667793955 -0.10386423343861734 -0.0072152968287511263 -0.091997203908497277 -0.088944824703012598
leaf_weight=5.112537249922755 3.6256757825613048 6.3872396573424339 3.5269541293382636 3.7910277545452118 16.849714547395713 8.0901563763618451 7.5926649570465079 19.137316793203357 4.7395546957850438 11.15703998506069 4.6997965201735523 3.3802907764911652 2.8575374558567992 2.7509837746620178 2.8083697557449332 3.610511206090453 4.0987370535731298 4.9910861253738403 9.3111055344343168
leaf_count=25 22 26 17 22 133 37 36 69 23 40 33 20 22 18 21 20 22 38 88
internal_value=0 0.0137688 -0.0460344 0.0417854 -0.0457201 0.000329018 0.0318154 0.0648894 0.0150363 0.0831999 -0.0612063 -0.0124004 -0.0651569 -0.0241365 -0.0768602 -0.0663863 -0.0760081 -0.0537678 -0.0904369
internal_weight=0 94.8847 33.6336 64.5055 30.3791 23.0844 15.6828 41.4212 11.1268 30.2944 30.1067 7.00597 25.2666 5.60852 19.6581 7.40154 23.1007 9.08982 14.0109
internal_count=732 492 240 273 219 115 73 158 49 109 223 42 194 40 154 42 181 60 121
is_linear=0
shrinkage=0.1


Tree=48
num_leaves=17
num_cat=0
split_feature=40 11 1 16 16 32 2 2 23 23 32 37 28 18 1 33
split_gain=6.67606 7.44718 6.23301 7.18268 8.80563 4.01868 3.88845 5.06705 3.54269 3.30351 3.15892 3.10499 4.21063 2.25543 1.03723 0.402953
threshold=0.066806325372007577 0.44894258249361751 0.49451288454669495 -0.69339195853326396 -0.80618588086709797 -0.20297094912401462 -0.024641342159507692 -0.32799664263681966 0.027521881734370045 -0.085553187660238852 1.355340102508682 -0.5282890216790862 0.052019567007499302 -0.76996467302194904 0.61685743162610629 1.0649946407673718
decision_type=2 2 2 2 2 2 2 2 2 2 2 2 2 2 2 2
left_child=11 2 3 4 -2 8 7 -4 -3 -7 -5 12 -1 -13 15 -15
