{"learner":{"attributes":{"scikit_learn":"{\"_estimator_type\": \"classifier\"}"},"feature_names":[],"feature_types":[],"gradient_booster":{"model":{"gbtree_model_param":{"num_parallel_tree":"1","num_trees":"1000"},"iteration_indptr":[0,5,10,15,20,25,30,35,40,45,50,55,60,65,70,75,80,85,90,95,100,105,110,115,120,125,130,135,140,145,150,155,160,165,170,175,180,185,190,195,200,205,210,215,220,225,230,235,240,245,250,255,260,265,270,275,280,285,290,295,300,305,310,315,320,325,330,335,340,345,350,355,360,365,370,375,380,385,390,395,400,405,410,415,420,425,430,435,440,445,450,455,460,465,470,475,480,485,490,495,500,505,510,515,520,525,530,535,540,545,550,555,560,565,570,575,580,585,590,595,600,605,610,615,620,625,630,635,640,645,650,655,660,665,670,675,680,685,690,695,700,705,710,715,720,725,730,735,740,745,750,755,760,765,770,775,780,785,790,795,800,805,810,815,820,825,830,835,840,845,850,855,860,865,870,875,880,885,890,895,900,905,910,915,920,925,930,935,940,945,950,955,960,965,970,975,980,985,990,995,1000],"tree_info":[0,1,2,3,4,0,1,2,3,4,0,1,2,3,4,0,1,2,3,4,0,1,2,3,4,0,1,2,3,4,0,1,2,3,4,0,1,2,3,4,0,1,2,3,4,0,1,2,3,4,0,1,2,3,4,0,1,2,3,4,0,1,2,3,4,0,1,2,3,4,0,1,2,3,4,0,1,2,3,4,0,1,2,3,4,0,1,2,3,4,0,1,2,3,4,0,1,2,3,4,0,1,2,3,4,0,1,2,3,4,0,1,2,3,4,0,1,2,3,4,0,1,2,3,4,0,1,2,3,4,0,1,2,3,4,0,1,2,3,4,0,1,2,3,4,0,1,2,3,4,0,1,2,3,4,0,1,2,3,4,0,1,2,3,4,0,1,2,3,4,0,1,2,3,4,0,1,2,3,4,0,1,2,3,4,0,1,2,3,4,0,1,2,3,4,0,1,2,3,4,0,1,2,3,4,0,1,2,3,4,0,1,2,3,4,0,1,2,3,4,0,1,2,3,4,0,1,2,3,4,0,1,2,3,4,0,1,2,3,4,0,1,2,3,4,0,1,2,3,4,0,1,2,3,4,0,1,2,3,4,0,1,2,3,4,0,1,2,3,4,0,1,2,3,4,0,1,2,3,4,0,1,2,3,4,0,1,2,3,4,0,1,2,3,4,0,1,2,3,4,0,1,2,3,4,0,1,2,3,4,0,1,2,3,4,0,1,2,3,4,0,1,2,3,4,0,1,2,3,4,0,1,2,3,4,0,1,2,3,4,0,1,2,3,4,0,1,2,3,4,0,1,2,3,4,0,1,2,3,4,0,1,2,3,4,0,1,2,3,4,0,1,2,3,4,0,1,2,3,4,0,1,2,3,4,0,1,2,3,4,0,1,2,3,4,0,1,2,3,4,0,1,2,3,4,0,1,2,3,4,0,1,2,3,4,0,1,2,3,4,0,1,2,3,4,0,1,2,3,4,0,1,2,3,4,0,1,2,3,4,0,1,2,3,4,0,1,2,3,4,0,1,2,3,4,0,1,2,3,4,0,1,2,3,4,0,1,2,3,4,0,1,2,3,4,0,1,2,3,4,0,1,2,3,4,0,1,2,3,4,0,1,2,3,4,0,1,2,3,4,0,1,2,3,4,0,1,2,3,4,0,1,2,3,4,0,1,2,3,4,0,1,2,3,4,0,1,2,3,4,0,1,2,3,4,0,1,2,3,4,0,1,2,3,4,0,1,2,3,4,0,1,2,3,4,0,1,2,3,4,0,1,2,3,4,0,1,2,3,4,0,1,2,3,4,0,1,2,3,4,0,1,2,3,4,0,1,2,3,4,0,1,2,3,4,0,1,2,3,4,0,1,2,3,4,0,1,2,3,4,0,1,2,3,4,0,1,2,3,4,0,1,2,3,4,0,1,2,3,4,0,1,2,3,4,0,1,2,3,4,0,1,2,3,4,0,1,2,3,4,0,1,2,3,4,0,1,2,3,4,0,1,2,3,4,0,1,2,3,4,0,1,2,3,4,0,1,2,3,4,0,1,2,3,4,0,1,2,3,4,0,1,2,3,4,0,1,2,3,4,0,1,2,3,4,0,1,2,3,4,0,1,2,3,4,0,1,2,3,4,0,1,2,3,4,0,1,2,3,4,0,1,2,3,4,0,1,2,3,4,0,1,2,3,4,0,1,2,3,4,0,1,2,3,4,0,1,2,3,4,0,1,2,3,4,0,1,2,3,4,0,1,2,3,4,0,1,2,3,4,0,1,2,3,4,0,1,2,3,4,0,1,2,3,4,0,1,2,3,4,0,1,2,3,4,0,1,2,3,4,0,1,2,3,4,0,1,2,3,4,0,1,2,3,4,0,1,2,3,4,0,1,2,3,4,0,1,2,3,4,0,1,2,3,4,0,1,2,3,4,0,1,2,3,4,0,1,2,3,4,0,1,2,3,4,0,1,2,3,4,0,1,2,3,4,0,1,2,3,4,0,1,2,3,4,0,1,2,3,4,0,1,2,3,4,0,1,2,3,4,0,1,2,3,4,0,1,2,3,4,0,1,2,3,4,0,1,2,3,4,0,1,2,3,4,0,1,2,3,4,0,1,2,3,4,0,1,2,3,4,0,1,2,3,4,0,1,2,3,4,0,1,2,3,4,0,1,2,3,4,0,1,2,3,4,0,1,2,3,4,0,1,2,3,4,0,1,2,3,4,0,1,2,3,4,0,1,2,3,4,0,1,2,3,4,0,1,2,3,4],"trees":[{"base_weights":[-1.700391E-3,-3.88619E-1,1.23180285E-1,6.7415726E-1,-4.5025414E-1,3.2634032E-1,-6.396588E-2,1.4035088E-1,-3.508772E-2,-5.7714957E-1,-2.3508136E-1,-8.4525354E-2,5.460385E-1,1.235955E-1,-1.1398509E-1,-6.0587514E-2,8.77193E-3,-4.1176468E-1,2.9411763E-1,7.6642334E-1,-2.587519E-1,1.4768683E0,3.0567685E-1,-1.8159805E-1,4.771784E-1,5.2631576E-2,-5.2162852E-2,1.11111104E-1,-4.639175E-2,-1.2345678E-2,1.4197531E-1,-3.6E-2,9.6491225E-2,1.802575E-1,-6.849315E-3,1.0215663E-2,8.9965396E-2,-3.1424027E-2,2.4009603E-3,1.13138676E-1,-3.1007752E-2],"categories":[],"categories_nodes":[],"categories_segments":[],"categories_sizes":[],"default_left":[0,0,0,0,0,0,0,0,0,0,0,0,0,0,0,0,0,0,0,0,0,0,0,0,0,0,0,0,0,0,0,0,0,0,0,0,0,0,0,0,0],"id":0,"left_children":[1,3,5,7,9,11,13,-1,-1,15,17,19,21,-1,23,-1,-1,25,27,29,31,33,35,37,39,-1,-1,-1,-1,-1,-1,-1,-1,-1,-1,-1,-1,-1,-1,-1,-1],"loss_changes":[1.1414352E1,4.079214E0,6.8113575E0,3.1539521E0,1.3682518E0,7.7910166E0,6.2398515E0,0E0,0E0,7.017393E-1,2.189341E0,4.7587247E0,1.208671E1,0E0,3.7335463E0,0E0,0E0,2.02658E0,4.3056397E0,3.3612683E0,3.6032934E0,5.7809486E0,5.4446893E0,2.2602327E0,5.3157015E0,0E0,0E0,0E0,0E0,0E0,0E0,0E0,0E0,0E0,0E0,0E0,0E0,0E0,0E0,0E0,0E0],"parents":[2147483647,0,0,1,1,2,2,3,3,4,4,5,5,6,6,9,9,10,10,11,11,12,12,14,14,17,17,18,18,19,19,20,20,21,21,22,22,23,23,24,24],"right_children":[2,4,6,8,10,12,14,-1,-1,16,18,20,22,-1,24,-1,-1,26,28,30,32,34,36,38,40,-1,-1,-1,-1,-1,-1,-1,-1,-1,-1,-1,-1,-1,-1,-1,-1],"split_conditions":[-6.058415E-1,-1.5667264E0,5.7683784E-1,-6.1280465E-1,-9.136268E-1,-3.2410875E-1,-4.4574508E-1,1.4035088E-1,-3.508772E-2,2.3532994E0,3.5563344E-1,-6.985052E-1,-4.8766482E-1,1.235955E-1,1.568465E0,-6.0587514E-2,8.77193E-3,-1.7095302E0,5.64444E-1,1.6209815E-1,1.6080693E0,-1.7464028E-1,1.4946578E-1,9.524473E-2,7.304032E-1,5.2631576E-2,-5.2162852E-2,1.11111104E-1,-4.639175E-2,-1.2345678E-2,1.4197531E-1,-3.6E-2,9.6491225E-2,1.802575E-1,-6.849315E-3,1.0215663E-2,8.9965396E-2,-3.1424027E-2,2.4009603E-3,1.13138676E-1,-3.1007752E-2],"split_indices":[34,29,40,32,34,8,22,0,0,31,3,25,33,0,33,0,0,4,16,13,0,13,18,5,28,0,0,0,0,0,0,0,0,0,0,0,0,0,0,0,0],"split_type":[0,0,0,0,0,0,0,0,0,0,0,0,0,0,0,0,0,0,0,0,0,0,0,0,0,0,0,0,0,0,0,0,0,0,0,0,0,0,0,0,0],"sum_hessian":[2.3424002E2,5.6640003E1,1.776E2,2.5600002E0,5.4080006E1,8.48E1,9.28E1,1.2800001E0,1.2800001E0,3.2960003E1,2.112E1,2.9760002E1,5.5040005E1,2.5600002E0,9.0240005E1,3.1680002E1,1.2800001E0,1.6000002E1,5.1200004E0,4.4800005E0,2.5280003E1,1.0240001E1,4.4800003E1,8.1600006E1,8.64E0,1.2800001E0,1.4720001E1,2.2400002E0,2.88E0,2.2400002E0,2.2400002E0,2.4000002E1,1.2800001E0,8.320001E0,1.9200001E0,3.424E1,1.056E1,4.9280003E1,3.2320004E1,4.4800005E0,4.1600003E0],"tree_param":{"num_deleted":"0","num_feature":"41","num_nodes":"41","size_leaf_vector":"1"}},{"base_weights":[2.5505866E-3,-1.269746E-1,7.18232E-1,-1.552039E-1,1.3402061E-1,1.0891088E0,2.352941E-1,-2.108768E-1,4.120267E-1,1.6182572E0,5.536332E-1,6.666666E-1,-2.2222221E-1,-2.9158828E-1,1.6687268E-1,-2.7237353E-1,1.1751151E0,7.142857E-1,1.9565217E-1,1.0362694E-1,1.1570247E0,1.5979381E-1,-3.2679737E-2,-5.279503E-2,3.9325842E-1,1.7382411E-2,-3.5922628E-2,8.949416E-2,-1.646447E-2,4.9382713E-2,-5.472637E-2,1.5384614E-1,-6.849315E-3,1.5384614E-1,-3.8461536E-2,-2.173913E-2,9.6491225E-2,1.516854E-1,8.77193E-3,-4.7619045E-2,6.1643835E-2,9.6491225E-2,-3.508772E-2],"categories":[],"categories_nodes":[],"categories_segments":[],"categories_sizes":[],"default_left":[0,0,0,0,0,0,0,0,0,0,0,0,0,0,0,0,0,0,0,0,0,0,0,0,0,0,0,0,0,0,0,0,0,0,0,0,0,0,0,0,0,0,0],"id":1,"left_children":[1,3,5,7,-1,9,11,13,15,17,19,21,23,25,27,29,31,33,-1,35,37,-1,39,-1,41,-1,-1,-1,-1,-1,-1,-1,-1,-1,-1,-1,-1,-1,-1,-1,-1,-1,-1],"loss_changes":[2.1897657E1,8.493156E0,6.227539E0,6.313077E0,0E0,4.827669E0,3.5032673E0,5.5427256E0,9.699822E0,1.5502186E0,3.0189874E0,5.913753E0,1.9011483E0,4.747859E0,7.957999E0,2.4354374E0,4.027524E0,4.395604E0,0E0,2.344253E0,1.7292166E0,0E0,2.0554338E0,0E0,1.8529469E0,0E0,0E0,0E0,0E0,0E0,0E0,0E0,0E0,0E0,0E0,0E0,0E0,0E0,0E0,0E0,0E0,0E0,0E0],"parents":[2147483647,0,0,1,1,2,2,3,3,5,5,6,6,7,7,8,8,9,9,10,10,11,11,12,12,13,13,14,14,15,15,16,16,17,17,19,19,20,20,22,22,24,24],"right_children":[2,4,6,8,-1,10,12,14,16,18,20,22,24,26,28,30,32,34,-1,36,38,-1,40,-1,42,-1,-1,-1,-1,-1,-1,-1,-1,-1,-1,-1,-1,-1,-1,-1,-1,-1,-1],"split_conditions":[8.828193E-1,3.2298725E0,-8.748013E-2,9.818173E-1,1.3402061E-1,6.564015E-1,-5.2160423E-2,1.723447E-2,7.7327737E-3,9.406822E-2,1.5905908E0,-2.0667595E-1,1.5220485E0,-1.0888476E0,-3.573445E-1,-9.1533214E-2,5.8535033E-1,-4.2249173E-1,1.9565217E-1,-1.6723189E-1,1.7070996E0,1.5979381E-1,6.4641036E-2,-5.279503E-2,-4.084617E-1,1.7382411E-2,-3.5922628E-2,8.949416E-2,-1.646447E-2,4.9382713E-2,-5.472637E-2,1.5384614E-1,-6.849315E-3,1.5384614E-1,-3.8461536E-2,-2.173913E-2,9.6491225E-2,1.516854E-1,8.77193E-3,-4.7619045E-2,6.1643835E-2,9.6491225E-2,-3.508772E-2],"split_indices":[28,12,2,10,0,6,29,22,37,26,28,37,28,20,11,24,20,0,0,2,6,0,15,0,8,0,0,0,0,0,0,0,0,0,0,0,0,0,0,0,0,0,0],"split_type":[0,0,0,0,0,0,0,0,0,0,0,0,0,0,0,0,0,0,0,0,0,0,0,0,0,0,0,0,0,0,0,0,0,0,0,0,0,0,0,0,0,0,0],"sum_hessian":[2.3424002E2,1.9904001E2,3.52E1,1.9616002E2,2.88E0,1.92E1,1.6000002E1,1.7920001E2,1.6960001E1,8.64E0,1.056E1,8.000001E0,8.000001E0,1.4784001E2,3.1360003E1,9.280001E0,7.6800003E0,3.2000003E0,5.4400005E0,6.7200003E0,3.8400002E0,2.88E0,5.1200004E0,5.4400005E0,2.5600002E0,1.8560001E1,1.2928001E2,9.280001E0,2.2080002E1,2.2400002E0,7.0400004E0,5.76E0,1.9200001E0,1.6000001E0,1.6000001E0,5.4400005E0,1.2800001E0,2.5600002E0,1.2800001E0,3.2000003E0,1.9200001E0,1.2800001E0,1.2800001E0],"tree_param":{"num_deleted":"0","num_feature":"41","num_nodes":"43","size_leaf_vector":"1"}},{"base_weights":[-1.700391E-3,2.7906975E-1,-3.3942556E-1,-4.164625E-2,8.147229E-1,-4.250751E-1,2.1220158E-1,-2.4916942E-1,5.1693404E-1,-4.3062198E-1,1.0487804E0,-1.9674355E-1,-5.2257264E-1,-3.2258064E-1,8.1081074E-1,-1.1350737E-2,-5.624037E-1,8.4788024E-1,-2.7027026E-1,8.77193E-3,-5.3672314E-2,1.502177E0,1.1080332E-1,-3.276131E-1,5.371901E-1,-5.4937863E-1,-4.4247787E-2,-5.109489E-2,-0E0,-3.8461536E-2,1.2068965E0,-4.5871556E-2,6.648199E-2,-5.9967585E-2,8.77193E-3,5.9171594E-3,1.2840466E-1,-5.1724136E-2,3.8461536E-2,-3.8461536E-2,1.6332819E-1,-1.8691588E-2,1.5384614E-1,5.2631576E-2,-3.9408866E-2,-3.8461536E-2,1.11111104E-1,8.77193E-3,-5.6446224E-2,5.2631576E-2,-4.3209877E-2,5.2631576E-2,-4.109589E-2,1.7256637E-1,-3.508772E-2],"categories":[],"categories_nodes":[],"categories_segments":[],"categories_sizes":[],"default_left":[0,0,0,0,0,0,0,0,0,0,0,0,0,0,0,0,0,0,0,0,0,0,0,0,0,0,0,0,0,0,0,0,0,0,0,0,0,0,0,0,0,0,0,0,0,0,0,0,0,0,0,0,0,0,0],"id":2,"left_children":[1,3,5,7,9,11,13,15,17,19,21,23,25,27,29,31,33,35,37,-1,-1,39,41,43,45,47,49,-1,51,-1,53,-1,-1,-1,-1,-1,-1,-1,-1,-1,-1,-1,-1,-1,-1,-1,-1,-1,-1,-1,-1,-1,-1,-1,-1],"loss_changes":[2.240092E1,2.2195166E1,5.156929E0,9.592379E0,1.4547718E1,1.9710922E0,5.089045E0,4.478093E0,6.0752783E0,5.068526E-1,1.726986E1,3.007532E0,8.050194E-1,5.27431E-1,3.9680262E0,1.0964887E1,6.8165207E-1,5.4419117E0,1.3957989E0,0E0,0E0,7.445633E0,6.4251585E0,1.6628802E0,2.9879208E0,6.372433E-1,1.2276677E0,0E0,1.1247296E0,0E0,5.2926016E0,0E0,0E0,0E0,0E0,0E0,0E0,0E0,0E0,0E0,0E0,0E0,0E0,0E0,0E0,0E0,0E0,0E0,0E0,0E0,0E0,0E0,0E0,0E0,0E0],"parents":[2147483647,0,0,1,1,2,2,3,3,4,4,5,5,6,6,7,7,8,8,9,9,10,10,11,11,12,12,13,13,14,14,15,15,16,16,17,17,18,18,21,21,22,22,23,23,24,24,25,25,26,26,28,28,30,30],"right_children":[2,4,6,8,10,12,14,16,18,20,22,24,26,28,30,32,34,36,38,-1,-1,40,42,44,46,48,50,-1,52,-1,54,-1,-1,-1,-1,-1,-1,-1,-1,-1,-1,-1,-1,-1,-1,-1,-1,-1,-1,-1,-1,-1,-1,-1,-1],"split_conditions":[-3.0667616E-2,1.6961041E-1,1.0410439E0,-5.114256E-2,-6.513143E-1,-2.527316E-1,-4.36427E-1,-4.531703E-3,6.001155E-1,-2.88939E-1,1.307414E-1,7.6102006E-1,1.568465E0,5.7960457E-1,-3.9419177E-1,-6.0492796E-1,1.2407775E0,-4.1693398E-1,3.368364E-1,8.77193E-3,-5.3672314E-2,-1.898377E0,1.4682536E0,-6.915563E-1,-4.2088437E-1,-1.156244E0,-5.9422005E-2,-5.109489E-2,8.1533056E-1,-3.8461536E-2,1.6623554E-1,-4.5871556E-2,6.648199E-2,-5.9967585E-2,8.77193E-3,5.9171594E-3,1.2840466E-1,-5.1724136E-2,3.8461536E-2,-3.8461536E-2,1.6332819E-1,-1.8691588E-2,1.5384614E-1,5.2631576E-2,-3.9408866E-2,-3.8461536E-2,1.11111104E-1,8.77193E-3,-5.6446224E-2,5.2631576E-2,-4.3209877E-2,5.2631576E-2,-4.109589E-2,1.7256637E-1,-3.508772E-2],"split_indices":[32,13,28,33,15,22,27,1,40,2,1,14,33,13,0,3,20,13,11,0,0,8,6,21,1,17,16,0,13,0,0,0,0,0,0,0,0,0,0,0,0,0,0,0,0,0,0,0,0,0,0,0,0,0,0],"split_type":[0,0,0,0,0,0,0,0,0,0,0,0,0,0,0,0,0,0,0,0,0,0,0,0,0,0,0,0,0,0,0,0,0,0,0,0,0,0,0,0,0,0,0,0,0,0,0,0,0,0,0,0,0,0,0],"sum_hessian":[2.3424002E2,1.2800002E2,1.06240005E2,8.064001E1,4.7360004E1,9.216E1,1.4080001E1,5.9200005E1,2.1440002E1,7.3600006E0,4.0000004E1,2.8480001E1,6.3680004E1,7.6800003E0,6.4000006E0,3.424E1,2.4960001E1,1.5040001E1,6.4000006E0,1.2800001E0,6.0800004E0,2.6560001E1,1.3440001E1,2.4640001E1,3.8400002E0,6.0160004E1,3.5200002E0,4.4800005E0,3.2000003E0,1.6000001E0,4.8E0,2.0800001E1,1.3440001E1,2.3680002E1,1.2800001E0,5.76E0,9.280001E0,4.8E0,1.6000001E0,1.6000001E0,2.4960001E1,1.1840001E1,1.6000001E0,1.2800001E0,2.3360003E1,1.6000001E0,2.2400002E0,1.2800001E0,5.8880005E1,1.2800001E0,2.2400002E0,1.2800001E0,1.9200001E0,3.5200002E0,1.2800001E0],"tree_param":{"num_deleted":"0","num_feature":"41","num_nodes":"55","size_leaf_vector":"1"}},{"base_weights":[-1.700391E-3,-2.8115237E-1,2.644628E-1,-3.8234133E-1,4.336043E-1,-1.6253208E-1,5.2631575E-1,5.0890584E-2,-4.564315E-1,1.0946745E0,-1.11111104E-1,8.5271317E-1,-2.8169012E-1,9.663409E-1,1.0152284E-1,-1.8691587E-1,8.2474226E-1,-4.8640913E-1,3.0927834E-1,1.6279069E0,-3.8461536E-2,-5.1724136E-2,4.7619045E-1,-3.508772E-2,1.3402061E-1,6.19469E-1,-3.7871033E-1,-1.1299434E-1,1.183355E0,-1.1789181E-1,6.401384E-1,-4.444444E-2,3.305785E-2,-0E0,1.4035088E-1,-5.0710436E-2,1.8518519E-2,9.6491225E-2,-3.8461536E-2,5.2631576E-2,1.85567E-1,1.4035088E-1,-4.109589E-2,9.589041E-2,-0E0,1.111111E-2,-5.0836544E-2,-4.7619045E-2,3.0927835E-2,-2.6548672E-2,1.380323E-1,5.5900622E-2,-2.9914528E-2,1.6666667E-1,4.784689E-3],"categories":[],"categories_nodes":[],"categories_segments":[],"categories_sizes":[],"default_left":[0,0,0,0,0,0,0,0,0,0,0,0,0,0,0,0,0,0,0,0,0,0,0,0,0,0,0,0,0,0,0,0,0,0,0,0,0,0,0,0,0,0,0,0,0,0,0,0,0,0,0,0,0,0,0],"id":3,"left_children":[1,3,5,7,9,11,13,15,17,19,21,23,25,27,29,31,33,35,37,39,-1,-1,41,-1,-1,43,45,47,49,51,53,-1,-1,-1,-1,-1,-1,-1,-1,-1,-1,-1,-1,-1,-1,-1,-1,-1,-1,-1,-1,-1,-1,-1,-1],"loss_changes":[1.7571466E1,8.500576E0,1.3614537E1,3.2805557E0,5.4366345E0,5.8969755E0,1.3965719E1,3.0470612E0,2.1419392E0,5.9584417E0,2.392994E0,3.497836E0,3.9591446E0,8.762787E0,4.7317653E0,1.858105E0,1.8520527E0,1.259737E0,2.1362882E0,3.1798458E-1,0E0,0E0,4.0319977E0,0E0,0E0,9.5041835E-1,2.538373E0,1.2331195E0,9.144604E0,3.705607E0,6.94878E0,0E0,0E0,0E0,0E0,0E0,0E0,0E0,0E0,0E0,0E0,0E0,0E0,0E0,0E0,0E0,0E0,0E0,0E0,0E0,0E0,0E0,0E0,0E0,0E0],"parents":[2147483647,0,0,1,1,2,2,3,3,4,4,5,5,6,6,7,7,8,8,9,9,10,10,11,11,12,12,13,13,14,14,15,15,16,16,17,17,18,18,19,19,22,22,25,25,26,26,27,27,28,28,29,29,30,30],"right_children":[2,4,6,8,10,12,14,16,18,20,22,24,26,28,30,32,34,36,38,40,-1,-1,42,-1,-1,44,46,48,50,52,54,-1,-1,-1,-1,-1,-1,-1,-1,-1,-1,-1,-1,-1,-1,-1,-1,-1,-1,-1,-1,-1,-1,-1,-1],"split_conditions":[-1.653374E-1,8.061849E-1,3.8812226E-1,-7.5277346E-1,1.373323E0,-1.3781631E0,-2.4116153E-1,-1.5884797E-1,4.5589167E-1,1.6287127E-1,5.5522263E-1,-1.3691131E0,-8.287946E-1,-2.3991959E-1,-3.7958622E-2,2.2742662E-1,-8.419001E-1,7.6668024E-1,-1.6160159E-3,-4.5726013E-1,-3.8461536E-2,-5.1724136E-2,-8.973769E-1,-3.508772E-2,1.3402061E-1,5.855797E-2,-8.4056747E-1,-7.238448E-1,-1.6580274E0,5.918021E-1,-6.495025E-1,-4.444444E-2,3.305785E-2,-0E0,1.4035088E-1,-5.0710436E-2,1.8518519E-2,9.6491225E-2,-3.8461536E-2,5.2631576E-2,1.85567E-1,1.4035088E-1,-4.109589E-2,9.589041E-2,-0E0,1.111111E-2,-5.0836544E-2,-4.7619045E-2,3.0927835E-2,-2.6548672E-2,1.380323E-1,5.5900622E-2,-2.9914528E-2,1.6666667E-1,4.784689E-3],"split_indices":[27,0,40,31,26,34,13,2,23,12,40,8,24,23,8,33,17,1,13,11,0,0,29,0,0,10,0,13,28,40,30,0,0,0,0,0,0,0,0,0,0,0,0,0,0,0,0,0,0,0,0,0,0,0,0],"split_type":[0,0,0,0,0,0,0,0,0,0,0,0,0,0,0,0,0,0,0,0,0,0,0,0,0,0,0,0,0,0,0,0,0,0,0,0,0,0,0,0,0,0,0,0,0,0,0,0,0,0,0,0,0,0,0],"sum_hessian":[2.3424002E2,1.14240005E2,1.2000001E2,1.0048E2,1.3760001E1,4.5760002E1,7.4240005E1,1.4720001E1,8.576001E1,5.76E0,8.000001E0,4.1600003E0,4.1600002E1,3.5840004E1,3.84E1,1.1840001E1,2.88E0,8.2880005E1,2.88E0,4.1600003E0,1.6000001E0,4.8E0,3.2000003E0,1.2800001E0,2.88E0,3.5200002E0,3.808E1,6.0800004E0,2.9760002E1,2.7840002E1,1.056E1,8.000001E0,3.8400002E0,1.6000001E0,1.2800001E0,8.064001E1,2.2400002E0,1.2800001E0,1.6000001E0,1.2800001E0,2.88E0,1.2800001E0,1.9200001E0,1.9200001E0,1.6000001E0,8.000001E0,3.0080002E1,3.2000003E0,2.88E0,3.5200002E0,2.6240002E1,5.4400005E0,2.2400002E1,3.2000003E0,7.3600006E0],"tree_param":{"num_deleted":"0","num_feature":"41","num_nodes":"55","size_leaf_vector":"1"}},{"base_weights":[2.5505866E-3,-2.546093E-1,3.5556448E-1,-1.6611295E-2,-4.362416E-1,6.4724916E-1,-1.1867905E-1,2.3222059E-1,-2.199762E-1,2.4096385E-1,-5.2831286E-1,8.498023E-1,-2.4590163E-1,-2.6996624E-1,1.1904762E0,-0E0,1.2403101E0,5.665722E-2,-3.996101E-1,1.15384616E-1,-7.177033E-2,-5.562165E-1,5.2631576E-2,6.134636E-1,1.3821137E0,-5.405405E-2,1.7241378E-1,-4.2089984E-1,2.2222221E-1,3.8461536E-2,1.5384614E-1,8.2474224E-2,-1.5594541E-2,8.77193E-3,1.5979381E-1,-4.3778803E-2,7.142857E-2,-4.8387095E-2,2.739726E-2,-3.8461536E-2,7.692307E-2,3.8461536E-2,-5.8500912E-2,-4.7619045E-2,7.312723E-2,1.6822429E-1,-4.109589E-2,5.670103E-2,-4.109589E-2,-5.0802138E-2,-3.2679737E-3,-3.2846715E-2,8.4070794E-2],"categories":[],"categories_nodes":[],"categories_segments":[],"categories_sizes":[],"default_left":[0,0,0,0,0,0,0,0,0,0,0,0,0,0,0,0,0,0,0,0,0,0,0,0,0,0,0,0,0,0,0,0,0,0,0,0,0,0,0,0,0,0,0,0,0,0,0,0,0,0,0,0,0],"id":4,"left_children":[1,3,5,7,9,11,13,15,17,19,21,23,25,27,29,31,33,35,37,-1,39,41,-1,43,45,-1,47,49,51,-1,-1,-1,-1,-1,-1,-1,-1,-1,-1,-1,-1,-1,-1,-1,-1,-1,-1,-1,-1,-1,-1,-1,-1],"loss_changes":[2.1445858E1,5.9011736E0,1.3848907E1,3.0974245E0,4.958275E0,1.1389238E1,7.998133E0,6.4517727E0,1.6943051E0,2.9262872E0,2.3091488E0,5.5178947E0,1.596871E0,2.7352064E0,5.8608055E-1,3.1382008E0,1.9867764E0,4.9039826E0,1.2972138E0,0E0,2.4953992E0,2.0464668E0,0E0,5.077402E0,8.634478E0,0E0,1.5681596E0,9.155412E-1,3.3414865E0,0E0,0E0,0E0,0E0,0E0,0E0,0E0,0E0,0E0,0E0,0E0,0E0,0E0,0E0,0E0,0E0,0E0,0E0,0E0,0E0,0E0,0E0,0E0,0E0],"parents":[2147483647,0,0,1,1,2,2,3,3,4,4,5,5,6,6,7,7,8,8,9,9,10,10,11,11,12,12,13,13,14,14,15,15,16,16,17,17,18,18,20,20,21,21,23,23,24,24,26,26,27,27,28,28],"right_children":[2,4,6,8,10,12,14,16,18,20,22,24,26,28,30,32,34,36,38,-1,40,42,-1,44,46,-1,48,50,52,-1,-1,-1,-1,-1,-1,-1,-1,-1,-1,-1,-1,-1,-1,-1,-1,-1,-1,-1,-1,-1,-1,-1,-1],"split_conditions":[6.092603E-1,-2.2120944E-1,-1.4258316E-1,-3.089202E-1,-6.151052E-1,4.1432926E-1,1.063423E0,6.4755493E-1,-2.927674E-1,-5.2862567E-1,1.6169468E0,6.849091E-1,-2.2685395E-1,1.1158349E-1,-2.5703487E-1,-4.4822204E-1,-9.9000233E-1,-6.0682523E-1,-3.2182968E-1,1.15384616E-1,4.3550903E-1,-2.7745292E-1,5.2631576E-2,-5.470736E-1,6.311458E-1,-5.405405E-2,-4.228738E-1,3.3644798E-1,-1.17921114E-1,3.8461536E-2,1.5384614E-1,8.2474224E-2,-1.5594541E-2,8.77193E-3,1.5979381E-1,-4.3778803E-2,7.142857E-2,-4.8387095E-2,2.739726E-2,-3.8461536E-2,7.692307E-2,3.8461536E-2,-5.8500912E-2,-4.7619045E-2,7.312723E-2,1.6822429E-1,-4.109589E-2,5.670103E-2,-4.109589E-2,-5.0802138E-2,-3.2679737E-3,-3.2846715E-2,8.4070794E-2],"split_indices":[40,28,2,14,13,14,2,32,22,12,21,34,22,32,20,2,14,20,28,0,40,23,0,27,28,0,2,2,23,0,0,0,0,0,0,0,0,0,0,0,0,0,0,0,0,0,0,0,0,0,0,0,0],"split_type":[0,0,0,0,0,0,0,0,0,0,0,0,0,0,0,0,0,0,0,0,0,0,0,0,0,0,0,0,0,0,0,0,0,0,0,0,0,0,0,0,0,0,0,0,0,0,0,0,0,0,0,0,0],"sum_hessian":[2.3424002E2,1.3568001E2,9.8560005E1,5.9200005E1,7.648E1,6.0800003E1,3.7760002E1,2.6560001E1,3.2640003E1,8.960001E0,6.7520004E1,4.9600002E1,1.1200001E1,3.456E1,3.2000003E0,2.2400002E1,4.1600003E0,1.3120001E1,1.952E1,1.6000001E0,7.3600006E0,6.6240005E1,1.2800001E0,3.5840004E1,1.3760001E1,6.4000006E0,4.8E0,2.6560001E1,8.000001E0,1.6000001E0,1.6000001E0,2.88E0,1.952E1,1.2800001E0,2.88E0,7.6800003E0,5.4400005E0,1.76E1,1.9200001E0,5.76E0,1.6000001E0,1.6000001E0,6.464001E1,3.2000003E0,3.2640003E1,1.1840001E1,1.9200001E0,2.88E0,1.9200001E0,2.1440002E1,5.1200004E0,4.4800005E0,3.5200002E0],"tree_param":{"num_deleted":"0","num_feature":"41","num_nodes":"53","size_leaf_vector":"1"}},{"base_weights":[-1.2787877E-3,-3.7734255E-1,1.1611831E-1,6.305936E-1,-4.3932605E-1,3.013853E-1,-5.92873E-2,1.280394E-1,-3.4495782E-2,-5.6782925E-1,-2.2624032E-1,-7.9759456E-2,4.966853E-1,1.1281389E0,-1.0790324E-1,-5.9716392E-2,7.872011E-3,-4.0159735E-1,2.7986068E-1,7.091552E-1,-2.4986963E-1,1.2775587E0,2.8117532E-1,1.6611734E-2,1.4321141E-1,-2.369014E-1,1.947053E-1,5.2468933E-2,-5.1352154E-2,1.01588905E-1,-4.5534637E-2,-1.34051815E-2,1.3168983E-1,-3.542876E-2,1.14531495E-1,1.537544E-1,-7.2874064E-3,-5.307321E-2,4.0206235E-2,-1.2398906E-3,-3.9315518E-2,4.1835178E-2,-4.157326E-2],"categories":[],"categories_nodes":[],"categories_segments":[],"categories_sizes":[],"default_left":[0,0,0,0,0,0,0,0,0,0,0,0,0,0,0,0,0,0,0,0,0,0,0,0,0,0,0,0,0,0,0,0,0,0,0,0,0,0,0,0,0,0,0],"id":5,"left_children":[1,3,5,7,9,11,13,-1,-1,15,17,19,21,23,25,-1,-1,27,29,31,33,35,37,-1,-1,39,41,-1,-1,-1,-1,-1,-1,-1,-1,-1,-1,-1,-1,-1,-1,-1,-1],"loss_changes":[1.0415151E1,3.7833772E0,5.860615E0,2.7630816E0,1.3354292E0,6.560609E0,5.501424E0,0E0,0E0,6.6696644E-1,2.0448108E0,4.275977E0,9.411758E0,8.5949516E-1,3.5764575E0,0E0,0E0,1.9885361E0,3.8134837E0,3.0862396E0,4.173667E0,4.4221E0,4.805355E0,0E0,0E0,2.2352617E0,3.939055E0,0E0,0E0,0E0,0E0,0E0,0E0,0E0,0E0,0E0,0E0,0E0,0E0,0E0,0E0,0E0,0E0],"parents":[2147483647,0,0,1,1,2,2,3,3,4,4,5,5,6,6,9,9,10,10,11,11,12,12,13,13,14,14,17,17,18,18,19,19,20,20,21,21,22,22,25,25,26,26],"right_children":[2,4,6,8,10,12,14,-1,-1,16,18,20,22,24,26,-1,-1,28,30,32,34,36,38,-1,-1,40,42,-1,-1,-1,-1,-1,-1,-1,-1,-1,-1,-1,-1,-1,-1,-1,-1],"split_conditions":[-6.058415E-1,-1.5667264E0,5.7683784E-1,-6.1280465E-1,-9.136268E-1,-3.2410875E-1,-4.4574508E-1,1.280394E-1,-3.4495782E-2,2.3532994E0,3.5563344E-1,-6.985052E-1,-4.8766482E-1,-1.7388803E0,6.804444E-1,-5.9716392E-2,7.872011E-3,-1.4129652E0,5.64444E-1,3.964685E-2,1.4396439E0,-1.7464028E-1,-9.513463E-1,1.6611734E-2,1.4321141E-1,-9.632795E-2,-1.4247438E-1,5.2468933E-2,-5.1352154E-2,1.01588905E-1,-4.5534637E-2,-1.34051815E-2,1.3168983E-1,-3.542876E-2,1.14531495E-1,1.537544E-1,-7.2874064E-3,-5.307321E-2,4.0206235E-2,-1.2398906E-3,-3.9315518E-2,4.1835178E-2,-4.157326E-2],"split_indices":[34,29,40,32,34,8,22,0,0,31,3,25,33,28,33,0,0,32,16,29,1,13,14,0,0,4,23,0,0,0,0,0,0,0,0,0,0,0,0,0,0,0,0],"split_type":[0,0,0,0,0,0,0,0,0,0,0,0,0,0,0,0,0,0,0,0,0,0,0,0,0,0,0,0,0,0,0,0,0,0,0,0,0,0,0,0,0,0,0],"sum_hessian":[2.339177E2,5.5123547E1,1.7879414E2,2.6620126E0,5.2461536E1,8.660352E1,9.219063E1,1.4102101E0,1.2518024E0,3.1687387E1,2.0774147E1,2.9541786E1,5.7061733E1,2.7526662E0,8.943796E1,3.0385162E1,1.3022258E0,1.5581767E1,5.19238E0,4.6779947E0,2.486379E1,1.1276107E1,4.578563E1,1.0322576E0,1.7204087E0,6.2859074E1,2.6578886E1,1.2822175E0,1.429955E1,2.4039607E0,2.7884192E0,2.2858887E0,2.392106E0,2.382663E1,1.0371605E0,9.339507E0,1.9365991E0,5.494291E0,4.0291336E1,2.6238888E1,3.6620186E1,1.9682476E1,6.896411E0],"tree_param":{"num_deleted":"0","num_feature":"41","num_nodes":"43","size_leaf_vector":"1"}},{"base_weights":[3.4285514E-3,-1.210735E-1,6.610182E-1,1.0632141E-1,-2.8617892E-1,9.7779876E-1,2.2639567E-1,-1.3404717E-2,1.1255169E0,-4.7007777E-2,-4.0471408E-1,1.4134837E0,5.1171E-1,6.220085E-1,-2.1291253E-1,-8.002643E-2,1.087159E0,2.8397006E-1,1.5008928E-1,-2.515621E-1,4.6359718E-1,-2.2322413E-1,-5.5712736E-1,1.6106969E-2,1.5341884E0,-4.100924E-2,7.292363E-1,-2.3286179E-1,1.1024473E0,5.0147336E-2,-4.0477076E-1,-1.5084565E-2,9.401976E-2,1.5173946E-1,6.0430486E-3,9.026721E-2,-3.858511E-2,-4.2358547E-2,4.1917797E-2,-3.0435497E-2,9.250664E-2,6.1835874E-2,-2.8727114E-2,-6.0412265E-2,9.697143E-5,7.6851524E-2,1.7726718E-1,1.1885303E-1,-6.2411614E-3,-4.2207737E-2,1.8223228E-2,1.3760374E-1,6.746299E-3,-5.210187E-2,1.0084184E-2],"categories":[],"categories_nodes":[],"categories_segments":[],"categories_sizes":[],"default_left":[0,0,0,0,0,0,0,0,0,0,0,0,0,0,0,0,0,0,0,0,0,0,0,0,0,0,0,0,0,0,0,0,0,0,0,0,0,0,0,0,0,0,0,0,0,0,0,0,0,0,0,0,0,0,0],"id":6,"left_children":[1,3,5,7,9,11,13,15,17,19,21,23,25,27,29,31,33,35,-1,37,39,41,43,-1,45,-1,47,49,51,-1,53,-1,-1,-1,-1,-1,-1,-1,-1,-1,-1,-1,-1,-1,-1,-1,-1,-1,-1,-1,-1,-1,-1,-1,-1],"loss_changes":[1.9301134E1,7.473319E0,4.945549E0,1.0279829E1,3.2447443E0,3.62352E0,3.1082988E0,5.678916E0,2.3709612E0,4.2193317E0,2.0012226E0,1.3396282E0,2.6870935E0,4.0617437E0,1.4171088E0,5.404911E0,1.8615365E0,1.9913481E0,0E0,3.4882972E0,4.387826E0,2.1581793E0,1.0785198E0,0E0,3.6439705E-1,0E0,3.7085638E0,4.0356714E-1,1.6360159E0,0E0,4.95497E-1,0E0,0E0,0E0,0E0,0E0,0E0,0E0,0E0,0E0,0E0,0E0,0E0,0E0,0E0,0E0,0E0,0E0,0E0,0E0,0E0,0E0,0E0,0E0,0E0],"parents":[2147483647,0,0,1,1,2,2,3,3,4,4,5,5,6,6,7,7,8,8,9,9,10,10,11,11,12,12,13,13,14,14,15,15,16,16,17,17,19,19,20,20,21,21,22,22,24,24,26,26,27,27,28,28,30,30],"right_children":[2,4,6,8,10,12,14,16,18,20,22,24,26,28,30,32,34,36,-1,38,40,42,44,-1,46,-1,48,50,52,-1,54,-1,-1,-1,-1,-1,-1,-1,-1,-1,-1,-1,-1,-1,-1,-1,-1,-1,-1,-1,-1,-1,-1,-1,-1],"split_conditions":[8.828193E-1,4.654376E-1,-8.748013E-2,9.818173E-1,-3.1682974E-1,6.564015E-1,7.7327737E-3,2.0554073E0,4.365502E-1,1.0550659E0,-1.4311211E-1,-1.243595E0,-9.923747E-1,2.3350555E-2,-2.1057606E-1,1.3529991E0,3.1301448E0,9.010053E-1,1.5008928E-1,-5.7278182E-2,-6.5630025E-1,-1.335934E0,1.1552474E0,1.6106969E-2,9.406822E-2,-4.100924E-2,2.9482755E-1,1.1053857E0,4.0326634E-1,5.0147336E-2,5.8485556E-1,-1.5084565E-2,9.401976E-2,1.5173946E-1,6.0430486E-3,9.026721E-2,-3.858511E-2,-4.2358547E-2,4.1917797E-2,-3.0435497E-2,9.250664E-2,6.1835874E-2,-2.8727114E-2,-6.0412265E-2,9.697143E-5,7.6851524E-2,1.7726718E-1,1.1885303E-1,-6.2411614E-3,-4.2207737E-2,1.8223228E-2,1.3760374E-1,6.746299E-3,-5.210187E-2,1.0084184E-2],"split_indices":[28,40,2,10,29,6,37,21,37,36,21,10,11,33,23,32,21,4,0,23,31,20,10,0,26,0,14,4,17,0,8,0,0,0,0,0,0,0,0,0,0,0,0,0,0,0,0,0,0,0,0,0,0,0,0],"split_type":[0,0,0,0,0,0,0,0,0,0,0,0,0,0,0,0,0,0,0,0,0,0,0,0,0,0,0,0,0,0,0,0,0,0,0,0,0,0,0,0,0,0,0,0,0,0,0,0,0,0,0,0,0,0,0],"sum_hessian":[2.3377228E2,1.972438E2,3.652847E1,8.3120445E1,1.1412335E2,2.0405716E1,1.6122753E1,7.526574E1,7.8547096E0,3.82805E1,7.584286E1,9.496263E0,1.0909453E1,8.264442E0,7.8583097E0,7.184401E1,3.4217312E0,2.964703E0,4.890007E0,2.7693487E1,1.0587009E1,3.5744175E1,4.0098682E1,1.0399803E0,8.456283E0,1.9138703E0,8.995584E0,3.158921E0,5.1055217E0,1.3220127E0,6.536297E0,6.797747E1,3.8665357E0,2.0745354E0,1.3471959E0,1.3604488E0,1.6042541E0,2.233401E1,5.359479E0,4.1016808E0,6.4853287E0,1.9157882E0,3.3828384E1,3.6908302E1,3.1903808E0,3.0111656E0,5.4451165E0,5.375511E0,3.6200724E0,2.1582744E0,1.0006465E0,3.7774558E0,1.328066E0,5.2896557E0,1.2466413E0],"tree_param":{"num_deleted":"0","num_feature":"41","num_nodes":"55","size_leaf_vector":"1"}},{"base_weights":[-3.005525E-3,2.55885E-1,-3.2824156E-1,-4.075556E-2,7.2391856E-1,-4.133451E-1,1.9714212E-1,-2.3397617E-1,5.0077057E-1,-4.2166635E-1,9.2056626E-1,-1.881022E-1,-5.116798E-1,-3.129698E-1,7.312078E-1,2.0081298E-3,-5.552911E-1,-3.4280267E-1,7.580681E-1,-5.2984145E-2,9.565766E-3,1.4174988E0,3.054152E-1,-4.2424297E-1,2.0481817E-1,-5.389595E-1,-4.100411E-2,-5.034963E-2,6.9894856E-3,-3.7698504E-2,1.0696744E0,-4.4868827E-2,6.072674E-2,-5.923024E-2,7.7387006E-3,-4.907472E-2,1.7921014E-2,9.728267E-2,-4.3711584E-2,1.7329152E-1,-1.1433722E-2,-2.4474156E-3,1.11686185E-1,-7.536805E-3,-5.7155866E-2,6.2255234E-2,-3.3621423E-2,-5.545305E-2,9.834434E-3,5.264593E-2,-4.300289E-2,5.1970877E-2,-4.0423106E-2,1.4924988E-1,-3.4304794E-2],"categories":[],"categories_nodes":[],"categories_segments":[],"categories_sizes":[],"default_left":[0,0,0,0,0,0,0,0,0,0,0,0,0,0,0,0,0,0,0,0,0,0,0,0,0,0,0,0,0,0,0,0,0,0,0,0,0,0,0,0,0,0,0,0,0,0,0,0,0,0,0,0,0,0,0],"id":7,"left_children":[1,3,5,7,9,11,13,15,17,19,21,23,25,27,29,31,33,35,37,-1,-1,39,41,43,45,47,49,-1,51,-1,53,-1,-1,-1,-1,-1,-1,-1,-1,-1,-1,-1,-1,-1,-1,-1,-1,-1,-1,-1,-1,-1,-1,-1,-1],"loss_changes":[1.9891562E1,1.8292618E1,4.7628317E0,8.640659E0,1.1895933E1,1.9066467E0,4.389589E0,4.6051927E0,4.9786196E0,5.078827E-1,1.2990757E1,2.7834034E0,7.7866554E-1,5.223991E-1,3.3142257E0,1.0094133E1,6.479821E-1,5.335446E-1,4.781193E0,0E0,0E0,1.1801796E1,5.621214E0,9.066038E-1,2.827362E0,6.3869095E-1,1.2195646E0,0E0,1.0878329E0,0E0,4.218839E0,0E0,0E0,0E0,0E0,0E0,0E0,0E0,0E0,0E0,0E0,0E0,0E0,0E0,0E0,0E0,0E0,0E0,0E0,0E0,0E0,0E0,0E0,0E0,0E0],"parents":[2147483647,0,0,1,1,2,2,3,3,4,4,5,5,6,6,7,7,8,8,9,9,10,10,11,11,12,12,13,13,14,14,15,15,16,16,17,17,18,18,21,21,22,22,23,23,24,24,25,25,26,26,28,28,30,30],"right_children":[2,4,6,8,10,12,14,16,18,20,22,24,26,28,30,32,34,36,38,-1,-1,40,42,44,46,48,50,-1,52,-1,54,-1,-1,-1,-1,-1,-1,-1,-1,-1,-1,-1,-1,-1,-1,-1,-1,-1,-1,-1,-1,-1,-1,-1,-1],"split_conditions":[-3.0667616E-2,1.6961041E-1,1.0410439E0,-1.3828278E-2,-6.513143E-1,-2.527316E-1,-4.36427E-1,-4.531703E-3,-6.354934E-1,-5.303505E-1,3.6011785E-2,-2.6373338E-2,1.568465E0,-6.338061E-1,-3.9419177E-1,-6.0492796E-1,1.2407775E0,3.8323335E-2,6.8023956E-1,-5.2984145E-2,9.565766E-3,2.4548915E-1,1.345582E0,-4.3169327E-2,-1.12557776E-1,1.0223536E0,1.06262095E-1,-5.034963E-2,2.2214149E-1,-3.7698504E-2,1.6623554E-1,-4.4868827E-2,6.072674E-2,-5.923024E-2,7.7387006E-3,-4.907472E-2,1.7921014E-2,9.728267E-2,-4.3711584E-2,1.7329152E-1,-1.1433722E-2,-2.4474156E-3,1.11686185E-1,-7.536805E-3,-5.7155866E-2,6.2255234E-2,-3.3621423E-2,-5.545305E-2,9.834434E-3,5.264593E-2,-4.300289E-2,5.1970877E-2,-4.0423106E-2,1.4924988E-1,-3.4304794E-2],"split_indices":[32,13,28,33,15,22,27,1,37,18,30,28,33,24,0,3,20,24,1,0,0,27,13,27,12,23,32,0,37,0,0,0,0,0,0,0,0,0,0,0,0,0,0,0,0,0,0,0,0,0,0,0,0,0,0],"split_type":[0,0,0,0,0,0,0,0,0,0,0,0,0,0,0,0,0,0,0,0,0,0,0,0,0,0,0,0,0,0,0,0,0,0,0,0,0,0,0,0,0,0,0,0,0,0,0,0,0,0,0,0,0,0,0],"sum_hessian":[2.3424278E2,1.3054285E2,1.03699936E2,8.046004E1,5.0082806E1,8.9427414E1,1.4272521E1,5.9719574E1,2.0740463E1,7.169882E0,4.2912926E1,2.806207E1,6.1365345E1,7.51171E0,6.7608113E0,3.5004707E1,2.4714867E1,4.769828E0,1.5970635E1,5.9098964E0,1.2599854E0,2.301588E1,1.9897043E1,1.7478168E1,1.0583902E1,5.7866413E1,3.498931E0,4.348612E0,3.163098E0,1.5551627E0,5.2056484E0,2.0212492E1,1.4792216E1,2.3409254E1,1.3056113E0,3.7631903E0,1.0066375E0,1.3695739E1,2.274897E0,1.897709E1,4.03879E0,1.4835563E1,5.0614815E0,5.6379385E0,1.184023E1,5.887475E0,4.696428E0,5.661309E1,1.2533238E0,1.2794056E0,2.2195253E0,1.29039E0,1.8727081E0,3.963048E0,1.2426006E0],"tree_param":{"num_deleted":"0","num_feature":"41","num_nodes":"55","size_leaf_vector":"1"}},{"base_weights":[-1.4275085E-3,-2.7007782E-1,2.4495164E-1,-3.707172E-1,4.1015866E-1,-1.5507388E-1,4.792007E-1,5.1782377E-2,-4.4513243E-1,1.0009454E0,-1.0571269E-1,7.709578E-1,-2.7139378E-1,8.5251844E-1,9.66844E-2,-5.147891E-2,3.44858E-1,-4.7542453E-1,2.9373455E-1,1.4586209E0,-3.781613E-2,-5.0882846E-2,4.5044023E-1,-3.457461E-2,1.1911147E0,5.7546735E-1,-3.6774963E-1,-1.12283826E-1,1.0323308E0,-4.991365E-2,8.4706396E-1,-2.2840982E-2,1.0033679E-1,-4.964776E-2,1.8284764E-2,1.1532996E-1,-4.0851768E-2,1.746264E-2,1.7085098E-1,1.2794155E-1,-4.0352236E-2,1.6124897E-2,1.4833485E-1,9.053069E-2,-1.627717E-3,4.8706643E-2,-4.351073E-2,5.266435E-2,-3.4430407E-2,-2.6092505E-2,1.1927157E-1,3.8870614E-2,-4.2956844E-2,-3.479309E-2,1.2009688E-1],"categories":[],"categories_nodes":[],"categories_segments":[],"categories_sizes":[],"default_left":[0,0,0,0,0,0,0,0,0,0,0,0,0,0,0,0,0,0,0,0,0,0,0,0,0,0,0,0,0,0,0,0,0,0,0,0,0,0,0,0,0,0,0,0,0,0,0,0,0,0,0,0,0,0,0],"id":8,"left_children":[1,3,5,7,9,11,13,15,17,19,21,23,25,27,29,-1,31,33,35,37,-1,-1,39,-1,41,43,45,47,49,51,53,-1,-1,-1,-1,-1,-1,-1,-1,-1,-1,-1,-1,-1,-1,-1,-1,-1,-1,-1,-1,-1,-1,-1,-1],"loss_changes":[1.5612999E1,7.876814E0,1.16042385E1,3.130025E0,4.682659E0,5.185487E0,1.1034025E1,2.7836058E0,2.0225487E0,5.0304155E0,2.2293365E0,2.9528515E0,3.6210554E0,6.9284096E0,4.3959517E0,0E0,4.360118E0,1.2160339E0,2.8441956E0,1.4771652E0,0E0,0E0,3.5458064E0,0E0,1.0128536E0,9.239297E-1,2.4070435E0,1.2295324E0,7.197113E0,5.8376784E0,3.1769438E0,0E0,0E0,0E0,0E0,0E0,0E0,0E0,0E0,0E0,0E0,0E0,0E0,0E0,0E0,0E0,0E0,0E0,0E0,0E0,0E0,0E0,0E0,0E0,0E0],"parents":[2147483647,0,0,1,1,2,2,3,3,4,4,5,5,6,6,7,7,8,8,9,9,10,10,11,11,12,12,13,13,14,14,16,16,17,17,18,18,19,19,22,22,24,24,25,25,26,26,27,27,28,28,29,29,30,30],"right_children":[2,4,6,8,10,12,14,16,18,20,22,24,26,28,30,-1,32,34,36,38,-1,-1,40,-1,42,44,46,48,50,52,54,-1,-1,-1,-1,-1,-1,-1,-1,-1,-1,-1,-1,-1,-1,-1,-1,-1,-1,-1,-1,-1,-1,-1,-1],"split_conditions":[-1.653374E-1,8.061849E-1,3.8812226E-1,-7.5277346E-1,1.373323E0,-1.3781631E0,-2.4116153E-1,-1.0190603E0,4.5589167E-1,1.6287127E-1,5.5522263E-1,-1.3691131E0,-8.287946E-1,-2.3991959E-1,5.8513755E-1,-5.147891E-2,-3.311297E-1,7.6668024E-1,-7.593774E-2,-1.0643108E0,-3.781613E-2,-5.0882846E-2,-8.973769E-1,-3.457461E-2,-1.8335578E0,2.071771E-3,-1.0948952E0,-7.384041E-1,-1.6580274E0,-3.4904745E-1,2.605425E-1,-2.2840982E-2,1.0033679E-1,-4.964776E-2,1.8284764E-2,1.1532996E-1,-4.0851768E-2,1.746264E-2,1.7085098E-1,1.2794155E-1,-4.0352236E-2,1.6124897E-2,1.4833485E-1,9.053069E-2,-1.627717E-3,4.8706643E-2,-4.351073E-2,5.266435E-2,-3.4430407E-2,-2.6092505E-2,1.1927157E-1,3.8870614E-2,-4.2956844E-2,-3.479309E-2,1.2009688E-1],"split_indices":[27,0,40,31,26,34,13,1,23,12,40,8,24,23,1,0,2,1,13,37,0,0,29,0,20,33,30,0,28,31,29,0,0,0,0,0,0,0,0,0,0,0,0,0,0,0,0,0,0,0,0,0,0,0,0],"split_type":[0,0,0,0,0,0,0,0,0,0,0,0,0,0,0,0,0,0,0,0,0,0,0,0,0,0,0,0,0,0,0,0,0,0,0,0,0,0,0,0,0,0,0,0,0,0,0,0,0,0,0,0,0,0,0],"sum_hessian":[2.3388263E2,1.1183846E2,1.22044174E2,9.782108E1,1.401738E1,4.5197945E1,7.684623E1,1.46946945E1,8.312639E1,6.0959125E0,7.9214673E0,4.4157677E0,4.0782177E1,3.826889E1,3.8577335E1,4.7518835E0,9.942811E0,8.01951E1,2.931293E0,4.533689E0,1.5622234E0,4.641944E0,3.2795234E0,1.2556282E0,3.160139E0,3.6582153E0,3.7123962E1,6.070819E0,3.2198074E1,3.3053345E1,5.523991E0,5.6646094E0,4.278201E0,7.794793E1,2.2471666E0,1.029224E0,1.9020689E0,1.0153531E0,3.5183358E0,1.4113042E0,1.8682191E0,1.0415115E0,2.1186275E0,2.0086787E0,1.6495366E0,2.256489E0,3.4867474E1,1.2789856E0,4.791833E0,3.4833527E0,2.871472E1,1.5324696E1,1.772865E1,1.2660217E0,4.2579694E0],"tree_param":{"num_deleted":"0","num_feature":"41","num_nodes":"55","size_leaf_vector":"1"}},{"base_weights":[2.2880945E-3,-2.908303E-1,2.7534342E-1,-5.7661273E-2,-4.5834553E-1,-5.469737E-2,5.569627E-1,7.084302E-2,-5.5876054E-2,-4.9948198E-1,4.9577884E-2,8.0365604E-1,-2.3597845E-1,7.061427E-1,-2.1804404E-1,3.6821052E-1,-1.8570597E-1,5.2862156E-2,-5.55584E-1,7.590839E-2,1.2940993E0,-3.1816825E-1,6.65605E-1,4.096445E-1,1.4346172E0,6.703142E-2,-3.6923933E-1,1.0633968E-2,1.02519594E-1,-3.2281917E-2,4.6382137E-2,7.054554E-2,-3.0386481E-2,3.6887407E-2,-5.8888324E-2,9.455904E-2,-4.6257064E-2,3.6250886E-2,1.5615402E-1,-4.7440402E-2,4.985189E-3,-3.4584858E-2,1.1908137E-1,1.0018517E-1,6.273565E-3,5.344582E-3,1.5624382E-1,3.842254E-2,-5.4980796E-2],"categories":[],"categories_nodes":[],"categories_segments":[],"categories_sizes":[],"default_left":[0,0,0,0,0,0,0,0,0,0,0,0,0,0,0,0,0,0,0,0,0,0,0,0,0,0,0,0,0,0,0,0,0,0,0,0,0,0,0,0,0,0,0,0,0,0,0,0,0],"id":9,"left_children":[1,3,5,7,9,11,13,15,-1,17,-1,19,21,23,25,27,29,31,33,35,37,39,41,43,45,-1,47,-1,-1,-1,-1,-1,-1,-1,-1,-1,-1,-1,-1,-1,-1,-1,-1,-1,-1,-1,-1,-1,-1],"loss_changes":[1.8892498E1,4.4202566E0,1.1388514E1,3.1780608E0,2.8422108E0,9.0861025E0,7.7876835E0,3.0954447E0,0E0,2.0085793E0,0E0,3.5410576E0,3.766958E0,1.1422472E1,1.781652E0,3.1104069E0,2.1060035E0,1.7979387E0,2.004795E0,2.8573167E0,9.360323E-1,2.590693E0,2.7129583E0,8.343712E0,2.6856308E0,0E0,1.6269432E0,0E0,0E0,0E0,0E0,0E0,0E0,0E0,0E0,0E0,0E0,0E0,0E0,0E0,0E0,0E0,0E0,0E0,0E0,0E0,0E0,0E0,0E0],"parents":[2147483647,0,0,1,1,2,2,3,3,4,4,5,5,6,6,7,7,9,9,11,11,12,12,13,13,14,14,15,15,16,16,17,17,18,18,19,19,20,20,21,21,22,22,23,23,24,24,26,26],"right_children":[2,4,6,8,10,12,14,16,-1,18,-1,20,22,24,26,28,30,32,34,36,38,40,42,44,46,-1,48,-1,-1,-1,-1,-1,-1,-1,-1,-1,-1,-1,-1,-1,-1,-1,-1,-1,-1,-1,-1,-1,-1],"split_conditions":[5.685245E-1,-2.5647593E-1,-1.1981329E-4,4.2327756E-1,1.6694323E0,-1.1239657E0,6.311458E-1,-4.5885587E-1,-5.5876054E-2,-7.8686404E-1,4.9577884E-2,-8.6357E-1,8.525561E-1,6.6614854E-1,-3.7854344E-1,1.1705818E-1,-1.9704E-2,-5.2862567E-1,-2.7745292E-1,-2.5183249E0,-2.2817515E-1,-2.5542513E-1,-1.7506747E0,-7.238448E-1,-4.5197377E-1,6.703142E-2,-5.888701E-1,1.0633968E-2,1.02519594E-1,-3.2281917E-2,4.6382137E-2,7.054554E-2,-3.0386481E-2,3.6887407E-2,-5.8888324E-2,9.455904E-2,-4.6257064E-2,3.6250886E-2,1.5615402E-1,-4.7440402E-2,4.985189E-3,-3.4584858E-2,1.1908137E-1,1.0018517E-1,6.273565E-3,5.344582E-3,1.5624382E-1,3.842254E-2,-5.4980796E-2],"split_indices":[40,28,32,4,21,28,28,15,0,13,0,20,2,34,20,10,6,12,23,6,14,32,12,13,8,0,34,0,0,0,0,0,0,0,0,0,0,0,0,0,0,0,0,0,0,0,0,0,0],"split_type":[0,0,0,0,0,0,0,0,0,0,0,0,0,0,0,0,0,0,0,0,0,0,0,0,0,0,0,0,0,0,0,0,0,0,0,0,0,0,0,0,0,0,0,0,0,0,0,0,0],"sum_hessian":[2.3404495E2,1.12844246E2,1.2120071E2,4.7739098E1,6.510514E1,5.6173977E1,6.502673E1,3.8678757E1,9.060342E0,6.2871006E1,2.2341394E0,9.196409E0,4.6977566E1,5.4604786E1,1.04219475E1,1.771266E1,2.0966097E1,5.802371E0,5.7068634E1,4.1673837E0,5.029026E0,4.3645844E1,3.331725E0,3.9919415E1,1.468537E1,1.0164273E0,9.40552E0,1.3495348E1,4.2173123E0,1.772698E1,3.2391157E0,1.7052406E0,4.0971303E0,1.6337837E0,5.543485E1,1.3044937E0,2.8628898E0,1.6470937E0,3.3819323E0,3.0435833E1,1.3210009E1,1.2554555E0,2.0762694E0,1.4048802E1,2.5870611E1,1.3640653E0,1.3321305E1,1.6002481E0,7.8052726E0],"tree_param":{"num_deleted":"0","num_feature":"41","num_nodes":"49","size_leaf_vector":"1"}},{"base_weights":[-9.618713E-4,-3.6620453E-1,1.092458E-1,5.9100735E-1,-4.2849037E-1,1.9029021E-1,-2.4853289E-1,1.17969565E-1,-3.4029976E-2,-5.5884296E-1,-2.1713428E-1,1.1889979E-1,7.6458824E-1,8.6707965E-2,-3.236089E-1,-5.888747E-2,7.16176E-3,3.7973824E-1,-3.5844854E-1,3.284018E-1,-7.9078995E-2,1.6725981E-1,2.2402395E-1,-4.2440182E-1,3.5735577E-1,-1.6008941E-2,1.1114079E-1,-4.5963835E-2,6.482555E-2,1.04249045E-2,7.3272735E-2,-1.5717624E-2,6.9446355E-2,9.348475E-2,-2.7359743E-2,3.8715843E-2,-4.8637655E-2,-3.691786E-2,8.130288E-2],"categories":[],"categories_nodes":[],"categories_segments":[],"categories_sizes":[],"default_left":[0,0,0,0,0,0,0,0,0,0,0,0,0,0,0,0,0,0,0,0,0,0,0,0,0,0,0,0,0,0,0,0,0,0,0,0,0,0,0],"id":10,"left_children":[1,3,5,7,9,11,13,-1,-1,15,17,19,21,-1,23,-1,-1,25,27,29,31,-1,33,35,37,-1,-1,-1,-1,-1,-1,-1,-1,-1,-1,-1,-1,-1,-1],"loss_changes":[9.471532E0,3.5050583E0,5.2888103E0,2.458757E0,1.3054905E0,5.97488E0,3.1131098E0,0E0,0E0,6.366501E-1,1.9404265E0,5.5330563E0,7.5639763E0,0E0,2.3764853E0,0E0,0E0,1.9871767E0,2.1123312E0,5.7877817E0,4.2818155E0,0E0,4.2502847E0,1.6314278E0,1.8634732E0,0E0,0E0,0E0,0E0,0E0,0E0,0E0,0E0,0E0,0E0,0E0,0E0,0E0,0E0],"parents":[2147483647,0,0,1,1,2,2,3,3,4,4,5,5,6,6,9,9,10,10,11,11,12,12,14,14,17,17,18,18,19,19,20,20,22,22,23,23,24,24],"right_children":[2,4,6,8,10,12,14,-1,-1,16,18,20,22,-1,24,-1,-1,26,28,30,32,-1,34,36,38,-1,-1,-1,-1,-1,-1,-1,-1,-1,-1,-1,-1,-1,-1],"split_conditions":[-6.058415E-1,-1.5667264E0,4.2346466E-1,-6.1280465E-1,-9.136268E-1,4.8065627E-1,-3.1234896E0,1.17969565E-1,-3.4029976E-2,2.3532994E0,-4.0826192E-1,5.8099484E-1,-7.3200434E-1,8.6707965E-2,4.5612112E-1,-5.888747E-2,7.16176E-3,2.470545E-1,7.484041E-1,8.857797E-2,8.6536765E-1,1.6725981E-1,7.693824E-3,-8.839172E-1,7.148235E-1,-1.6008941E-2,1.1114079E-1,-4.5963835E-2,6.482555E-2,1.04249045E-2,7.3272735E-2,-1.5717624E-2,6.9446355E-2,9.348475E-2,-2.7359743E-2,3.8715843E-2,-4.8637655E-2,-3.691786E-2,8.130288E-2],"split_indices":[34,29,10,32,34,14,40,0,0,31,22,40,1,0,12,0,0,29,32,15,37,0,11,29,10,0,0,0,0,0,0,0,0,0,0,0,0,0,0],"split_type":[0,0,0,0,0,0,0,0,0,0,0,0,0,0,0,0,0,0,0,0,0,0,0,0,0,0,0,0,0,0,0,0,0,0,0,0,0,0,0],"sum_hessian":[2.333088E2,5.354171E1,1.797671E2,2.7525012E0,5.078921E1,1.4694835E2,3.281876E1,1.5230544E0,1.2294469E0,3.0397596E1,2.0391613E1,1.3177461E2,1.5173735E1,1.404144E0,3.1414616E1,2.9078419E1,1.3191786E0,3.580668E0,1.6810946E1,6.370399E1,6.807062E1,4.8809E0,1.0292835E1,2.769248E1,3.7221358E0,2.5099907E0,1.0706774E0,1.5769302E1,1.0416435E0,4.1792572E1,2.1911419E1,6.255213E1,5.5184846E0,3.8766422E0,6.4161925E0,1.5924377E0,2.6100042E1,1.5078329E0,2.2143028E0],"tree_param":{"num_deleted":"0","num_feature":"41","num_nodes":"39","size_leaf_vector":"1"}},{"base_weights":[4.3158717E-3,-1.1485965E-1,6.07198E-1,9.9179536E-2,-2.74751E-1,3.9554003E-1,1.1600018E0,-1.3915148E-2,1.0078536E0,-4.2719837E-2,-3.925273E-1,9.8840886E-1,8.148778E-2,1.4293178E0,3.1992072E-1,-7.8083016E-2,9.95982E-1,2.646303E-1,1.3202327E-1,-2.4220449E-1,4.3732092E-1,-2.104196E-1,-5.4788E-1,-7.1356683E-3,1.2445569E0,-3.1939763E-1,5.6630206E-1,1.5999798E-1,4.252209E-2,8.0829404E-2,-3.5251122E-2,-1.4655131E-2,8.5677415E-2,1.4507546E-1,-3.1953093E-2,8.34729E-2,-3.8098823E-2,-4.129622E-2,3.9102506E-2,-2.9192219E-2,8.449478E-2,7.6699704E-2,-2.7836634E-2,-5.7147462E-2,9.44951E-3,1.3822979E-1,1.5577653E-2,-5.4075945E-2,6.464958E-3,1.16036296E-1,1.7398812E-2],"categories":[],"categories_nodes":[],"categories_segments":[],"categories_sizes":[],"default_left":[0,0,0,0,0,0,0,0,0,0,0,0,0,0,0,0,0,0,0,0,0,0,0,0,0,0,0,0,0,0,0,0,0,0,0,0,0,0,0,0,0,0,0,0,0,0,0,0,0,0,0],"id":11,"left_children":[1,3,5,7,9,11,13,15,17,19,21,23,25,27,29,31,33,35,-1,37,39,41,43,-1,45,47,49,-1,-1,-1,-1,-1,-1,-1,-1,-1,-1,-1,-1,-1,-1,-1,-1,-1,-1,-1,-1,-1,-1,-1,-1],"loss_changes":[1.6879515E1,6.741334E0,4.077962E0,8.710439E0,3.0593262E0,5.422565E0,1.8545437E0,5.018549E0,1.8283939E0,3.8425837E0,1.9935808E0,2.8427267E0,4.147887E0,5.961542E-1,1.5226325E0,4.7735353E0,3.2321196E0,1.8000464E0,0E0,3.211711E0,3.7577534E0,2.600338E0,6.542387E-1,0E0,1.0180855E0,1.0391421E0,2.035266E0,0E0,0E0,0E0,0E0,0E0,0E0,0E0,0E0,0E0,0E0,0E0,0E0,0E0,0E0,0E0,0E0,0E0,0E0,0E0,0E0,0E0,0E0,0E0,0E0],"parents":[2147483647,0,0,1,1,2,2,3,3,4,4,5,5,6,6,7,7,8,8,9,9,10,10,11,11,12,12,13,13,14,14,15,15,16,16,17,17,19,19,20,20,21,21,22,22,24,24,25,25,26,26],"right_children":[2,4,6,8,10,12,14,16,18,20,22,24,26,28,30,32,34,36,-1,38,40,42,44,-1,46,48,50,-1,-1,-1,-1,-1,-1,-1,-1,-1,-1,-1,-1,-1,-1,-1,-1,-1,-1,-1,-1,-1,-1,-1,-1],"split_conditions":[8.828193E-1,4.654376E-1,5.646551E-1,9.818173E-1,-3.1682974E-1,1.966912E-1,-2.0485406E-1,2.0554073E0,4.365502E-1,1.0550659E0,-2.8626552E-1,1.0439504E0,1.1566316E-1,1.844273E0,8.488046E-1,1.3529991E0,3.6590385E0,9.010053E-1,1.3202327E-1,-5.7278182E-2,-6.5630025E-1,-3.687858E-1,1.3457642E0,-7.1356683E-3,1.2464353E0,1.7660366E-1,5.6796634E-1,1.5999798E-1,4.252209E-2,8.0829404E-2,-3.5251122E-2,-1.4655131E-2,8.5677415E-2,1.4507546E-1,-3.1953093E-2,8.34729E-2,-3.8098823E-2,-4.129622E-2,3.9102506E-2,-2.9192219E-2,8.449478E-2,7.6699704E-2,-2.7836634E-2,-5.7147462E-2,9.44951E-3,1.3822979E-1,1.5577653E-2,-5.4075945E-2,6.464958E-3,1.16036296E-1,1.7398812E-2],"split_indices":[28,40,32,10,29,20,2,21,37,36,12,28,15,20,32,32,21,4,0,23,31,27,6,0,34,21,13,0,0,0,0,0,0,0,0,0,0,0,0,0,0,0,0,0,0,0,0,0,0,0,0],"split_type":[0,0,0,0,0,0,0,0,0,0,0,0,0,0,0,0,0,0,0,0,0,0,0,0,0,0,0,0,0,0,0,0,0,0,0,0,0,0,0,0,0,0,0,0,0,0,0,0,0,0,0],"sum_hessian":[2.3296042E2,1.951862E2,3.7774208E1,8.362328E1,1.1156292E2,2.855613E1,9.218078E0,7.5243126E1,8.380163E0,3.802081E1,7.354211E1,9.144963E0,1.9411167E1,6.4491744E0,2.7689035E0,7.161543E1,3.6276917E0,3.0265155E0,5.353648E0,2.7209248E1,1.0811563E1,3.493962E1,3.860249E1,1.9205327E0,7.2244306E0,1.0812048E1,8.599119E0,5.0050383E0,1.4441363E0,1.4869306E0,1.2819729E0,6.751399E1,4.1014414E0,2.6193707E0,1.0083212E0,1.4517062E0,1.5748094E0,2.1704283E1,5.504965E0,3.9782808E0,6.833282E0,1.6022974E0,3.3337322E1,3.734131E1,1.261184E0,6.1738024E0,1.0506285E0,6.599876E0,4.212172E0,2.6414962E0,5.9576225E0],"tree_param":{"num_deleted":"0","num_feature":"41","num_nodes":"51","size_leaf_vector":"1"}},{"base_weights":[-4.5929383E-3,2.7478695E-1,-2.7382132E-1,-3.9116785E-1,4.9229237E-1,-5.0261945E-1,-4.8126724E-2,5.7453513E-2,-4.8394895E-1,-2.1689372E-1,6.760947E-1,1.093766E-2,-5.173699E-1,4.0093884E-1,-3.2048014E-1,1.5880077E-1,-5.508009E-1,4.31963E-1,-3.8496462E-1,1.119661E0,-5.5797383E-2,-3.236302E-1,-5.9717786E-2,7.2792095E-1,-3.031993E-1,5.581943E-1,-4.0678465E-1,6.728691E-2,-3.5783328E-2,7.371615E-3,-5.888894E-2,-3.5773203E-2,8.9140885E-2,-5.050453E-2,6.583272E-2,1.2591694E-1,2.6300052E-2,-3.623676E-2,4.7235295E-2,-5.1311117E-2,5.359363E-2,-4.9118903E-2,1.1522187E-1,-5.2520055E-2,3.6635917E-2,1.0805043E-1,-3.350977E-2,3.4302294E-2,-4.5365557E-2],"categories":[],"categories_nodes":[],"categories_segments":[],"categories_sizes":[],"default_left":[0,0,0,0,0,0,0,0,0,0,0,0,0,0,0,0,0,0,0,0,0,0,0,0,0,0,0,0,0,0,0,0,0,0,0,0,0,0,0,0,0,0,0,0,0,0,0,0,0],"id":12,"left_children":[1,3,5,7,9,11,13,-1,15,17,19,-1,21,23,25,27,29,31,33,35,37,39,-1,41,43,45,47,-1,-1,-1,-1,-1,-1,-1,-1,-1,-1,-1,-1,-1,-1,-1,-1,-1,-1,-1,-1,-1,-1],"loss_changes":[1.7730349E1,1.6949924E1,6.1741705E0,2.87995E0,1.15717125E1,5.9372044E-1,7.654205E0,0E0,1.2492132E0,2.2162642E0,2.273921E1,0E0,7.077856E-1,5.671488E0,3.1738262E0,1.1234108E0,6.312666E-1,1.8930275E0,2.2691994E0,4.8723564E0,4.5932903E0,3.3996828E0,0E0,9.080617E0,1.4132733E0,2.180273E0,1.4194474E0,0E0,0E0,0E0,0E0,0E0,0E0,0E0,0E0,0E0,0E0,0E0,0E0,0E0,0E0,0E0,0E0,0E0,0E0,0E0,0E0,0E0,0E0],"parents":[2147483647,0,0,1,1,2,2,3,3,4,4,5,5,6,6,8,8,9,9,10,10,12,12,13,13,14,14,15,15,16,16,17,17,18,18,19,19,20,20,21,21,23,23,24,24,25,25,26,26],"right_children":[2,4,6,8,10,12,14,-1,16,18,20,-1,22,24,26,28,30,32,34,36,38,40,-1,42,44,46,48,-1,-1,-1,-1,-1,-1,-1,-1,-1,-1,-1,-1,-1,-1,-1,-1,-1,-1,-1,-1,-1,-1],"split_conditions":[-1.808418E-1,-7.018912E-1,-2.6373338E-2,-6.179183E-1,-6.89956E-1,-1.8603748E0,-2.1503325E-1,5.7453513E-2,-7.8335863E-1,-1.0592427E0,1.448172E-1,1.093766E-2,-1.653374E-1,2.8129548E-1,-7.774315E-1,9.466988E-1,-1.7900918E0,-1.1066282E0,1.9374112E0,5.4295313E-1,2.9580072E-1,9.104765E-3,-5.9717786E-2,-5.9534764E-1,9.616655E-2,4.8289582E-1,-1.3946252E0,6.728691E-2,-3.5783328E-2,7.371615E-3,-5.888894E-2,-3.5773203E-2,8.9140885E-2,-5.050453E-2,6.583272E-2,1.2591694E-1,2.6300052E-2,-3.623676E-2,4.7235295E-2,-5.1311117E-2,5.359363E-2,-4.9118903E-2,1.1522187E-1,-5.2520055E-2,3.6635917E-2,1.0805043E-1,-3.350977E-2,3.4302294E-2,-4.5365557E-2],"split_indices":[32,13,28,22,26,11,22,0,27,29,1,0,27,16,3,8,11,17,37,8,33,14,0,31,24,40,11,0,0,0,0,0,0,0,0,0,0,0,0,0,0,0,0,0,0,0,0,0,0],"split_type":[0,0,0,0,0,0,0,0,0,0,0,0,0,0,0,0,0,0,0,0,0,0,0,0,0,0,0,0,0,0,0,0,0,0,0,0,0,0,0,0,0,0,0,0,0,0,0,0,0],"sum_hessian":[2.337223E2,1.1468861E2,1.1903369E2,2.803944E1,8.664916E1,5.8501133E1,6.0532562E1,2.0026526E0,2.6036787E1,1.7797796E1,6.885137E1,1.2258472E0,5.7275284E1,2.2674292E1,3.7858273E1,2.3233626E0,2.3713425E1,3.3386064E0,1.445919E1,4.254E1,2.6311369E1,1.8184988E1,3.9090294E1,1.5460903E1,7.213388E0,2.8969028E0,3.496137E1,1.0129919E0,1.3103707E0,1.3093463E0,2.240408E1,1.3093979E0,2.0292082E0,1.3429406E1,1.0297844E0,3.6178436E1,6.3615637E0,1.6846525E1,9.464843E0,1.52306385E1,2.9543502E0,3.9510193E0,1.1509884E1,5.579147E0,1.6342407E0,1.6957929E0,1.20111E0,1.685146E0,3.3276222E1],"tree_param":{"num_deleted":"0","num_feature":"41","num_nodes":"49","size_leaf_vector":"1"}},{"base_weights":[-1.2647809E-3,-2.59116E-1,2.266737E-1,-3.589671E-1,3.8752693E-1,-1.4748575E-1,4.364301E-1,5.07242E-2,-4.3352804E-1,8.5500735E-1,-1.6122837E-1,7.122315E-1,-2.6136893E-1,7.171314E-1,3.588608E-2,-5.074202E-2,3.2896334E-1,-4.6418995E-1,2.8259292E-1,1.2665741E0,-3.9857227E-2,4.5425594E-1,-5.0263304E-2,-3.3744294E-2,1.0803192E0,3.4154058E-1,-3.922619E-1,-2.99324E-1,8.197664E-1,-1.9381635E-1,5.7068086E-1,-2.1716269E-2,9.142363E-2,-4.8553567E-2,1.7347729E-2,1.0792122E-1,-4.02462E-2,7.15123E-3,1.5532295E-1,1.0453784E-1,-3.3147596E-2,1.3421358E-1,1.42525425E-2,1.1165329E-1,5.494602E-3,4.0480662E-2,-4.6875797E-2,-4.5679655E-2,1.0002836E-2,2.7933102E-3,9.4916806E-2,-3.9054703E-2,5.2779164E-2,1.7016692E-2,1.4430067E-1],"categories":[],"categories_nodes":[],"categories_segments":[],"categories_sizes":[],"default_left":[0,0,0,0,0,0,0,0,0,0,0,0,0,0,0,0,0,0,0,0,0,0,0,0,0,0,0,0,0,0,0,0,0,0,0,0,0,0,0,0,0,0,0,0,0,0,0,0,0,0,0,0,0,0,0],"id":13,"left_children":[1,3,5,7,9,11,13,15,17,19,21,23,25,27,29,-1,31,33,35,37,-1,39,-1,-1,41,43,45,47,49,51,53,-1,-1,-1,-1,-1,-1,-1,-1,-1,-1,-1,-1,-1,-1,-1,-1,-1,-1,-1,-1,-1,-1,-1,-1],"loss_changes":[1.3816934E1,7.26112E0,9.857645E0,2.956563E0,4.0461063E0,4.648037E0,8.992612E0,2.6030595E0,1.9181032E0,4.8310847E0,1.8777543E0,2.5278919E0,3.367452E0,5.159855E0,4.2999206E0,0E0,3.73848E0,1.1516075E0,2.5970435E0,2.1334953E0,0E0,1.8912805E0,0E0,0E0,8.8498163E-1,1.6807013E0,2.2707596E0,3.6345643E-1,4.3850956E0,3.6987834E0,3.4229658E0,0E0,0E0,0E0,0E0,0E0,0E0,0E0,0E0,0E0,0E0,0E0,0E0,0E0,0E0,0E0,0E0,0E0,0E0,0E0,0E0,0E0,0E0,0E0,0E0],"parents":[2147483647,0,0,1,1,2,2,3,3,4,4,5,5,6,6,7,7,8,8,9,9,10,10,11,11,12,12,13,13,14,14,16,16,17,17,18,18,19,19,21,21,24,24,25,25,26,26,27,27,28,28,29,29,30,30],"right_children":[2,4,6,8,10,12,14,16,18,20,22,24,26,28,30,-1,32,34,36,38,-1,40,-1,-1,42,44,46,48,50,52,54,-1,-1,-1,-1,-1,-1,-1,-1,-1,-1,-1,-1,-1,-1,-1,-1,-1,-1,-1,-1,-1,-1,-1,-1],"split_conditions":[-1.653374E-1,8.061849E-1,3.8812226E-1,-7.5277346E-1,1.5332656E0,-1.3781631E0,-1.6160159E-3,-9.583043E-1,4.5589167E-1,1.6287127E-1,1.0296877E-1,-1.3691131E0,-7.5610244E-1,-1.6580274E0,4.0254518E-1,-5.074202E-2,-3.311297E-1,7.6668024E-1,-7.593774E-2,-5.779621E-1,-3.9857227E-2,-3.6095956E-1,-5.0263304E-2,-3.3744294E-2,5.660174E-1,-3.984315E-1,-1.878219E0,7.3335946E-2,-2.450071E-1,5.472515E-1,-7.089369E-2,-2.1716269E-2,9.142363E-2,-4.8553567E-2,1.7347729E-2,1.0792122E-1,-4.02462E-2,7.15123E-3,1.5532295E-1,1.0453784E-1,-3.3147596E-2,1.3421358E-1,1.42525425E-2,1.1165329E-1,5.494602E-3,4.0480662E-2,-4.6875797E-2,-4.5679655E-2,1.0002836E-2,2.7933102E-3,9.4916806E-2,-3.9054703E-2,5.2779164E-2,1.7016692E-2,1.4430067E-1],"split_indices":[27,0,40,31,26,34,13,31,23,12,28,8,24,28,20,0,2,1,13,34,0,8,0,0,8,21,13,29,23,5,8,0,0,0,0,0,0,0,0,0,0,0,0,0,0,0,0,0,0,0,0,0,0,0,0],"split_type":[0,0,0,0,0,0,0,0,0,0,0,0,0,0,0,0,0,0,0,0,0,0,0,0,0,0,0,0,0,0,0,0,0,0,0,0,0,0,0,0,0,0,0,0,0,0,0,0,0,0,0,0,0,0,0],"sum_hessian":[2.3308565E2,1.0930247E2,1.2378318E2,9.506753E1,1.423494E1,4.457249E1,7.9210686E1,1.4686892E1,8.038063E1,7.38534E0,6.8495994E0,4.599124E0,3.9973366E1,4.6107887E1,3.3102802E1,4.611864E0,1.0075028E1,7.741766E1,2.962967E0,5.5521345E0,1.8332055E0,2.3259063E0,4.523693E0,1.215666E0,3.3834577E0,6.843237E0,3.313013E1,4.052931E0,4.2054955E1,2.360268E1,9.500121E0,5.5371733E0,4.537855E0,7.514092E1,2.2767406E0,1.1039118E0,1.859055E0,1.3158495E0,4.236285E0,1.1387495E0,1.1871567E0,2.3079524E0,1.0755054E0,1.065665E0,5.777572E0,2.525302E0,3.0604828E1,2.80358E0,1.2493508E0,6.078051E0,3.5976902E1,1.8906908E1,4.695774E0,7.329826E0,2.1702952E0],"tree_param":{"num_deleted":"0","num_feature":"41","num_nodes":"55","size_leaf_vector":"1"}},{"base_weights":[2.5166299E-3,-2.7997607E-1,2.561519E-1,-5.317387E-2,-4.473223E-1,-4.995988E-2,5.0653297E-1,6.929005E-2,-5.4964315E-2,-4.891527E-1,4.7155792E-1,7.536276E-1,-2.2743161E-1,6.468223E-1,-1.7412463E-1,-1.6736923E-1,3.800219E-1,4.9876537E-2,-5.462002E-1,-3.4659695E-2,1.1488297E-1,1.0970573E0,-1.0888441E-2,5.005075E-1,-3.0567428E-1,7.5990874E-1,-1.5818131E-1,-3.6908367E-1,5.421085E-1,2.8662493E-2,-3.5026934E-2,6.4868085E-2,-3.283496E-2,6.598064E-2,-2.9742125E-2,3.546194E-2,-5.804333E-2,1.4091879E-1,-3.2129636E-4,6.4927645E-2,-4.278135E-2,-3.4543242E-2,8.795266E-2,-8.349969E-3,-5.8436383E-2,4.738837E-2,1.2730388E-1,6.3527815E-2,-3.7662674E-2,5.109057E-2,-5.518077E-2,1.6017769E-2,6.5921135E-2],"categories":[],"categories_nodes":[],"categories_segments":[],"categories_sizes":[],"default_left":[0,0,0,0,0,0,0,0,0,0,0,0,0,0,0,0,0,0,0,0,0,0,0,0,0,0,0,0,0,0,0,0,0,0,0,0,0,0,0,0,0,0,0,0,0,0,0,0,0,0,0,0,0],"id":14,"left_children":[1,3,5,7,9,11,13,15,-1,17,19,21,23,25,27,29,31,33,35,-1,-1,37,39,41,43,45,47,49,51,-1,-1,-1,-1,-1,-1,-1,-1,-1,-1,-1,-1,-1,-1,-1,-1,-1,-1,-1,-1,-1,-1,-1,-1],"loss_changes":[1.6862644E1,4.202217E0,9.529402E0,2.9813278E0,2.68814E0,8.25792E0,6.634531E0,2.9844177E0,0E0,1.9227552E0,2.2228515E0,2.7659454E0,2.8420515E0,5.2946835E0,1.9398806E0,2.030219E0,3.539188E0,1.6400082E0,1.9273891E0,0E0,0E0,2.4935713E0,1.4451927E0,1.8945605E0,2.629251E0,6.7368145E0,1.5962592E0,1.9523597E0,3.1755447E-2,0E0,0E0,0E0,0E0,0E0,0E0,0E0,0E0,0E0,0E0,0E0,0E0,0E0,0E0,0E0,0E0,0E0,0E0,0E0,0E0,0E0,0E0,0E0,0E0],"parents":[2147483647,0,0,1,1,2,2,3,3,4,4,5,5,6,6,7,7,9,9,10,10,11,11,12,12,13,13,14,14,15,15,16,16,17,17,18,18,21,21,22,22,23,23,24,24,25,25,26,26,27,27,28,28],"right_children":[2,4,6,8,10,12,14,16,-1,18,20,22,24,26,28,30,32,34,36,-1,-1,38,40,42,44,46,48,50,52,-1,-1,-1,-1,-1,-1,-1,-1,-1,-1,-1,-1,-1,-1,-1,-1,-1,-1,-1,-1,-1,-1,-1,-1],"split_conditions":[5.685245E-1,-2.5647593E-1,-1.1981329E-4,4.2327756E-1,1.6694323E0,-8.199638E-1,4.1432926E-1,-1.4170723E-1,-5.4964315E-2,-7.8686404E-1,-2.5007015E-1,7.7327737E-3,-1.1254271E0,6.311458E-1,5.582661E-1,-7.4361527E-1,3.9043272E-1,-5.2862567E-1,-2.7745292E-1,-3.4659695E-2,1.1488297E-1,4.8723692E-1,-1.3623172E0,-1.0643108E0,5.283687E-2,5.481668E-1,-3.7854344E-1,-1.1597368E0,3.956375E-1,2.8662493E-2,-3.5026934E-2,6.4868085E-2,-3.283496E-2,6.598064E-2,-2.9742125E-2,3.546194E-2,-5.804333E-2,1.4091879E-1,-3.2129636E-4,6.4927645E-2,-4.278135E-2,-3.4543242E-2,8.795266E-2,-8.349969E-3,-5.8436383E-2,4.738837E-2,1.2730388E-1,6.3527815E-2,-3.7662674E-2,5.109057E-2,-5.518077E-2,1.6017769E-2,6.5921135E-2],"split_indices":[40,28,32,4,21,30,14,11,0,13,20,37,34,28,34,1,8,12,23,0,0,29,28,37,20,34,20,12,0,0,0,0,0,0,0,0,0,0,0,0,0,0,0,0,0,0,0,0,0,0,0,0,0],"split_type":[0,0,0,0,0,0,0,0,0,0,0,0,0,0,0,0,0,0,0,0,0,0,0,0,0,0,0,0,0,0,0,0,0,0,0,0,0,0,0,0,0,0,0,0,0,0,0,0,0,0,0,0,0],"sum_hessian":[2.3334613E2,1.1034393E2,1.230022E2,4.7408943E1,6.2934986E1,5.5702137E1,6.7300064E1,3.871866E1,8.690285E0,6.0642033E1,2.2929566E0,9.48913E0,4.621301E1,5.5840557E1,1.1459505E1,2.2240921E1,1.6477737E1,5.815778E0,5.4826252E1,1.2595934E0,1.0333632E0,6.2476444E0,3.241486E0,3.961346E0,4.2251663E1,4.901147E1,6.8290863E0,9.388608E0,2.0708964E0,6.2241745E0,1.6016747E1,1.2007866E1,4.4698715E0,1.7835861E0,4.0321918E0,1.6645942E0,5.316166E1,4.648241E0,1.5994034E0,1.0390081E0,2.202478E0,1.2531134E0,2.7082324E0,2.4232689E1,1.8018972E1,3.270488E1,1.630659E1,1.0623035E0,5.7667828E0,1.305472E0,8.083137E0,1.0415899E0,1.0293067E0],"tree_param":{"num_deleted":"0","num_feature":"41","num_nodes":"53","size_leaf_vector":"1"}},{"base_weights":[-2.728303E-4,-4.9049094E-1,7.501337E-2,3.695183E-1,-5.817042E-2,-6.0273368E-2,2.713326E-1,-3.5788845E-2,1.0197301E-1,2.3709302E-1,-2.82492E-1,6.7554754E-1,1.3975158E-1,-1.6919252E-2,7.227536E-1,4.0350083E-2,-4.0758026E-1,-1.8830338E-1,8.176197E-1,-5.6737666E-3,7.2168744E-1,-1.2556508E-2,1.0815152E-1,1.2426289E-1,3.0355603E-2,-4.423405E-2,3.918233E-2,-4.9441278E-2,-1.4990272E-2,-3.9490342E-2,1.797898E-2,-1.6569229E-2,9.956399E-2,-1.7439304E-2,3.5995197E-2,-2.5458906E-2,1.0885569E-1],"categories":[],"categories_nodes":[],"categories_segments":[],"categories_sizes":[],"default_left":[0,0,0,0,0,0,0,0,0,0,0,0,0,0,0,0,0,0,0,0,0,0,0,0,0,0,0,0,0,0,0,0,0,0,0,0,0],"id":15,"left_children":[1,3,5,7,-1,9,11,-1,-1,13,15,17,19,21,23,25,27,29,31,33,35,-1,-1,-1,-1,-1,-1,-1,-1,-1,-1,-1,-1,-1,-1,-1,-1],"loss_changes":[8.654516E0,2.6638875E0,5.4153905E0,2.0700593E0,0E0,8.073682E0,4.3262544E0,0E0,0E0,6.4721255E0,2.8352952E0,2.62704E0,5.41732E0,4.355571E0,3.5467396E0,3.634675E0,1.0535536E0,3.492444E-1,3.2269154E0,3.280927E0,4.8604527E0,0E0,0E0,0E0,0E0,0E0,0E0,0E0,0E0,0E0,0E0,0E0,0E0,0E0,0E0,0E0,0E0],"parents":[2147483647,0,0,1,1,2,2,3,3,5,5,6,6,9,9,10,10,11,11,12,12,13,13,14,14,15,15,16,16,17,17,18,18,19,19,20,20],"right_children":[2,4,6,8,-1,10,12,-1,-1,14,16,18,20,22,24,26,28,30,32,34,36,-1,-1,-1,-1,-1,-1,-1,-1,-1,-1,-1,-1,-1,-1,-1,-1],"split_conditions":[-9.136268E-1,-1.1718566E0,3.3967E-2,-2.5545484E-1,-5.817042E-2,-6.425999E-1,1.8551743E-1,-3.5788845E-2,1.0197301E-1,1.8265286E-1,-2.2353067E-1,-8.56959E-1,8.6536765E-1,-6.5934056E-1,-1.2851505E-1,-3.3840317E-1,6.064337E-1,8.857797E-2,-4.1501883E-1,2.0131731E-2,4.9788237E-1,-1.2556508E-2,1.0815152E-1,1.2426289E-1,3.0355603E-2,-4.423405E-2,3.918233E-2,-4.9441278E-2,-1.4990272E-2,-3.9490342E-2,1.797898E-2,-1.6569229E-2,9.956399E-2,-1.7439304E-2,3.5995197E-2,-2.5458906E-2,1.0885569E-1],"split_indices":[34,29,7,4,0,3,26,0,0,29,4,10,37,3,34,7,11,15,8,27,7,0,0,0,0,0,0,0,0,0,0,0,0,0,0,0,0],"split_type":[0,0,0,0,0,0,0,0,0,0,0,0,0,0,0,0,0,0,0,0,0,0,0,0,0,0,0,0,0,0,0,0,0,0,0,0,0],"sum_hessian":[2.3250049E2,3.021882E1,2.0228168E2,2.6051235E0,2.7613697E1,1.2016619E2,8.211548E1,1.4417673E0,1.1633562E0,5.136463E1,6.880156E1,1.9150703E1,6.2964775E1,3.435913E1,1.7005499E1,1.9402584E1,4.939898E1,2.6588018E0,1.6491901E1,5.116814E1,1.1796632E1,3.2072533E1,2.2865977E0,6.7143154E0,1.0291183E1,8.066308E0,1.1336277E1,3.626098E1,1.3137999E1,1.656321E0,1.0024806E0,2.5386536E0,1.3953249E1,3.5369698E1,1.5798443E1,3.3057497E0,8.490882E0],"tree_param":{"num_deleted":"0","num_feature":"41","num_nodes":"37","size_leaf_vector":"1"}},{"base_weights":[5.1842034E-3,-1.0917866E-1,5.6318843E-1,9.2425406E-2,-2.63879E-1,8.0886346E-1,2.0152688E-1,1.160862E-3,1.062893E0,-3.9784025E-2,-3.8048917E-1,4.8403203E-1,1.2084764E0,5.651063E-1,-2.1541876E-1,-6.7309424E-2,9.7438306E-1,2.1881118E-2,1.3527142E-1,-2.3367059E-1,4.1094327E-1,-1.976815E-1,-5.390623E-1,7.6000077E-1,-4.663317E-2,1.3873379E-1,2.7520457E-2,1.22821845E-1,-2.5705291E-2,-5.12787E-2,3.2463706E-1,-1.3305495E-2,5.744074E-2,1.3141543E-1,3.094107E-3,-4.0343747E-2,3.6981463E-2,-2.7893921E-2,7.699871E-2,6.0651936E-2,-2.6288563E-2,-5.8893498E-2,1.8143872E-3,1.01865135E-1,-1.6317388E-2,-4.556023E-2,5.306047E-2,8.331924E-2,-3.574867E-2],"categories":[],"categories_nodes":[],"categories_segments":[],"categories_sizes":[],"default_left":[0,0,0,0,0,0,0,0,0,0,0,0,0,0,0,0,0,0,0,0,0,0,0,0,0,0,0,0,0,0,0,0,0,0,0,0,0,0,0,0,0,0,0,0,0,0,0,0,0],"id":16,"left_children":[1,3,5,7,9,11,13,15,17,19,21,23,25,27,29,31,33,-1,-1,35,37,39,41,43,-1,-1,-1,-1,45,-1,47,-1,-1,-1,-1,-1,-1,-1,-1,-1,-1,-1,-1,-1,-1,-1,-1,-1,-1],"loss_changes":[1.4920002E1,6.077142E0,3.3702211E0,7.5273967E0,2.8611593E0,2.4458103E0,2.762106E0,5.3097115E0,1.4911957E0,3.485807E0,1.9887161E0,4.1697416E0,1.254221E0,3.7848449E0,1.5857048E0,3.2178862E0,1.6381993E0,0E0,0E0,2.9932256E0,3.194456E0,2.002795E0,1.0701942E0,2.9489298E0,0E0,0E0,0E0,0E0,1.6876315E0,0E0,1.5988824E0,0E0,0E0,0E0,0E0,0E0,0E0,0E0,0E0,0E0,0E0,0E0,0E0,0E0,0E0,0E0,0E0,0E0,0E0],"parents":[2147483647,0,0,1,1,2,2,3,3,4,4,5,5,6,6,7,7,8,8,9,9,10,10,11,11,12,12,13,13,14,14,15,15,16,16,19,19,20,20,21,21,22,22,23,23,28,28,30,30],"right_children":[2,4,6,8,10,12,14,16,18,20,22,24,26,28,30,32,34,-1,-1,36,38,40,42,44,-1,-1,-1,-1,46,-1,48,-1,-1,-1,-1,-1,-1,-1,-1,-1,-1,-1,-1,-1,-1,-1,-1,-1,-1],"split_conditions":[8.828193E-1,4.654376E-1,-8.748013E-2,1.1855567E0,-3.1682974E-1,5.646551E-1,-5.2160423E-2,2.0554073E0,5.3494203E-1,1.0550659E0,-1.4311211E-1,2.1546118E-1,1.844273E0,-2.0667595E-1,1.5220485E0,9.991757E-1,3.6590385E0,2.1881118E-2,1.3527142E-1,-5.7278182E-2,-6.5630025E-1,-1.335934E0,1.1552474E0,6.893189E-1,-4.663317E-2,1.3873379E-1,2.7520457E-2,1.22821845E-1,6.4641036E-2,-5.12787E-2,1.7272435E0,-1.3305495E-2,5.744074E-2,1.3141543E-1,3.094107E-3,-4.0343747E-2,3.6981463E-2,-2.7893921E-2,7.699871E-2,6.0651936E-2,-2.6288563E-2,-5.8893498E-2,1.8143872E-3,1.01865135E-1,-1.6317388E-2,-4.556023E-2,5.306047E-2,8.331924E-2,-3.574867E-2],"split_indices":[28,40,2,29,29,32,29,21,10,36,21,32,20,37,28,32,21,0,0,23,31,20,10,8,0,0,0,0,15,0,28,0,0,0,0,0,0,0,0,0,0,0,0,0,0,0,0,0,0],"split_type":[0,0,0,0,0,0,0,0,0,0,0,0,0,0,0,0,0,0,0,0,0,0,0,0,0,0,0,0,0,0,0,0,0,0,0,0,0,0,0,0,0,0,0,0,0,0,0,0,0],"sum_hessian":[2.3183746E2,1.9307178E2,3.8765682E1,8.400273E1,1.09069046E2,2.2348162E1,1.641752E1,7.769714E1,6.305585E0,3.7789143E1,7.127991E1,1.3547294E1,8.800868E0,8.580191E0,7.837331E0,7.345978E1,4.2373667E0,2.0602496E0,4.245335E0,2.675967E1,1.1029471E1,3.4153458E1,3.7126446E1,1.0653896E1,2.8933969E0,6.9771647E0,1.8237035E0,3.5344005E0,5.0457897E0,5.0868673E0,2.7504637E0,6.735204E1,6.1077304E0,2.8264966E0,1.4108702E0,2.1143314E1,5.616355E0,3.851718E0,7.177753E0,1.9388335E0,3.2214622E1,3.4024178E1,3.1022708E0,8.241431E0,2.4124658E0,2.948398E0,2.0973916E0,1.4488271E0,1.3016367E0],"tree_param":{"num_deleted":"0","num_feature":"41","num_nodes":"49","size_leaf_vector":"1"}},{"base_weights":[-5.8265748E-3,2.5501946E-1,-2.6547685E-1,-3.7960142E-1,4.5104375E-1,-4.9300706E-1,-4.7777995E-2,5.368805E-1,-4.7327894E-1,-2.0604043E-1,6.116898E-1,1.0322606E-2,-5.0801903E-1,2.7190584E-1,-3.937381E-1,1.5878236E-2,6.527628E-2,1.4822091E-1,-5.412337E-1,4.0384942E-1,-3.75318E-1,9.891685E-1,-5.364905E-2,-3.129273E-1,-5.8971446E-2,-4.3374076E-2,1.1601291E0,2.8935957E-1,-4.7911197E-1,6.641777E-2,-3.6260612E-2,1.7768111E-2,-5.8083054E-2,1.0383499E-1,-3.8390886E-2,3.206886E-2,-4.9098127E-2,1.10529676E-1,2.4097567E-2,-4.8746396E-2,2.9704286E-2,-5.0348807E-2,5.0008137E-2,3.139614E-2,-4.138505E-2,2.2593318E-2,1.4168939E-1,8.670587E-2,-3.7302356E-2,-5.918599E-3,-5.4114368E-2],"categories":[],"categories_nodes":[],"categories_segments":[],"categories_sizes":[],"default_left":[0,0,0,0,0,0,0,0,0,0,0,0,0,0,0,0,0,0,0,0,0,0,0,0,0,0,0,0,0,0,0,0,0,0,0,0,0,0,0,0,0,0,0,0,0,0,0,0,0,0,0],"id":17,"left_children":[1,3,5,7,9,11,13,15,17,19,21,-1,23,25,27,-1,-1,29,31,33,35,37,39,41,-1,43,45,47,49,-1,-1,-1,-1,-1,-1,-1,-1,-1,-1,-1,-1,-1,-1,-1,-1,-1,-1,-1,-1,-1,-1],"loss_changes":[1.5891735E1,1.4733716E1,5.8004208E0,2.6724439E0,9.614916E0,5.6605625E-1,6.8750086E0,3.1333745E-2,1.1820002E0,2.0520015E0,1.825773E1,0E0,7.102728E-1,9.122585E0,1.8764029E0,0E0,0E0,1.125433E0,7.787528E-1,2.6383126E0,1.3591039E0,3.7563362E0,4.28084E0,3.1491609E0,0E0,3.4228027E0,1.7242479E0,1.8287587E0,6.6774225E-1,0E0,0E0,0E0,0E0,0E0,0E0,0E0,0E0,0E0,0E0,0E0,0E0,0E0,0E0,0E0,0E0,0E0,0E0,0E0,0E0,0E0,0E0],"parents":[2147483647,0,0,1,1,2,2,3,3,4,4,5,5,6,6,7,7,8,8,9,9,10,10,12,12,13,13,14,14,17,17,18,18,19,19,20,20,21,21,22,22,23,23,25,25,26,26,27,27,28,28],"right_children":[2,4,6,8,10,12,14,16,18,20,22,-1,24,26,28,-1,-1,30,32,34,36,38,40,42,-1,44,46,48,50,-1,-1,-1,-1,-1,-1,-1,-1,-1,-1,-1,-1,-1,-1,-1,-1,-1,-1,-1,-1,-1,-1],"split_conditions":[-1.808418E-1,-7.018912E-1,-2.6373338E-2,-6.179183E-1,-6.89956E-1,-1.8603748E0,-4.488775E-4,-2.6834646E-1,-7.8335863E-1,-7.341968E-1,1.448172E-1,1.0322606E-2,-1.653374E-1,-4.4779493E-3,-2.8391688E0,1.5878236E-2,6.527628E-2,-5.736266E-1,-1.8603748E0,-8.187677E-1,-4.9057648E-1,5.4295313E-1,8.847713E-2,9.104765E-3,-5.8971446E-2,6.125858E-1,-2.4913107E-1,4.441461E-4,1.4982724E-1,6.641777E-2,-3.6260612E-2,1.7768111E-2,-5.8083054E-2,1.0383499E-1,-3.8390886E-2,3.206886E-2,-4.9098127E-2,1.10529676E-1,2.4097567E-2,-4.8746396E-2,2.9704286E-2,-5.0348807E-2,5.0008137E-2,3.139614E-2,-4.138505E-2,2.2593318E-2,1.4168939E-1,8.670587E-2,-3.7302356E-2,-5.918599E-3,-5.4114368E-2],"split_indices":[32,13,28,22,26,11,7,25,27,40,1,0,27,3,40,0,0,32,11,3,27,8,20,14,0,40,21,4,7,0,0,0,0,0,0,0,0,0,0,0,0,0,0,0,0,0,0,0,0,0,0],"split_type":[0,0,0,0,0,0,0,0,0,0,0,0,0,0,0,0,0,0,0,0,0,0,0,0,0,0,0,0,0,0,0,0,0,0,0,0,0,0,0,0,0,0,0,0,0,0,0,0,0,0,0],"sum_hessian":[2.3263837E2,1.1606086E2,1.16577515E2,2.7168243E1,8.889262E1,5.6383297E1,6.0194214E1,2.0807116E0,2.5087532E1,1.7407763E1,7.1484856E1,1.2404344E0,5.5142864E1,3.139644E1,2.8797771E1,1.0441347E0,1.0365769E0,2.3562853E0,2.2731247E1,3.4808588E0,1.3926905E1,4.529826E1,2.6186594E1,1.7701487E1,3.7441376E1,2.3873554E1,7.5228868E0,2.9338646E0,2.5863907E1,1.0229063E0,1.333379E0,1.0045989E0,2.1726648E1,1.7517796E0,1.7290792E0,1.7319925E0,1.2194912E1,3.8798927E1,6.499333E0,1.1531645E1,1.4654948E1,1.4648695E1,3.052792E0,1.2229951E1,1.1643603E1,2.0271955E0,5.4956913E0,1.4020578E0,1.531807E0,3.5803964E0,2.228351E1],"tree_param":{"num_deleted":"0","num_feature":"41","num_nodes":"51","size_leaf_vector":"1"}},{"base_weights":[-1.075316E-3,-2.4916008E-1,2.1117517E-1,-3.48053E-1,3.6790067E-1,-1.3994135E-1,4.004228E-1,4.9598206E-2,-4.226481E-1,6.212654E-1,-4.6105627E-2,4.123904E-1,-3.1236032E-1,6.8923956E-1,8.054419E-2,-5.006814E-2,3.1516892E-1,-4.5356554E-1,2.6982138E-1,9.917662E-1,-1.0429961E-1,-1.4242455E-1,8.0335724E-1,5.3110342E-2,-5.3667927E-1,-4.7528867E-2,7.870105E-1,-1.18692696E-1,5.385165E-1,-2.0343924E-2,8.327856E-2,-4.7531884E-2,1.7296692E-2,1.0087737E-1,-3.967442E-2,1.3211069E-1,-6.5226876E-3,6.0089666E-2,-4.5402657E-2,2.513347E-2,-4.3977063E-2,-1.3665463E-3,1.0690258E-1,1.1671529E-1,-2.3809837E-2,1.6447613E-2,-5.7972528E-2,-2.4645222E-2,8.885073E-2,4.6857383E-2,-2.893884E-2,1.3281423E-1,2.8012577E-3],"categories":[],"categories_nodes":[],"categories_segments":[],"categories_sizes":[],"default_left":[0,0,0,0,0,0,0,0,0,0,0,0,0,0,0,0,0,0,0,0,0,0,0,0,0,0,0,0,0,0,0,0,0,0,0,0,0,0,0,0,0,0,0,0,0,0,0,0,0,0,0,0,0],"id":18,"left_children":[1,3,5,7,9,11,13,15,17,19,-1,21,23,25,27,-1,29,31,33,35,37,39,41,43,45,-1,47,49,51,-1,-1,-1,-1,-1,-1,-1,-1,-1,-1,-1,-1,-1,-1,-1,-1,-1,-1,-1,-1,-1,-1,-1,-1],"loss_changes":[1.2315303E1,6.7085032E0,8.431585E0,2.7930899E0,3.5169334E0,4.403364E0,7.5350685E0,2.4458642E0,1.8093891E0,3.3848386E0,0E0,2.5241785E0,2.8795197E0,5.274996E0,3.7243586E0,0E0,3.1689792E0,1.1153402E0,2.3679054E0,2.9321728E0,1.5135994E0,7.476658E-1,1.4618421E0,4.8640804E0,7.4847364E-1,0E0,4.4238453E0,3.0200603E0,4.9380217E0,0E0,0E0,0E0,0E0,0E0,0E0,0E0,0E0,0E0,0E0,0E0,0E0,0E0,0E0,0E0,0E0,0E0,0E0,0E0,0E0,0E0,0E0,0E0,0E0],"parents":[2147483647,0,0,1,1,2,2,3,3,4,4,5,5,6,6,7,7,8,8,9,9,11,11,12,12,13,13,14,14,16,16,17,17,18,18,19,19,20,20,21,21,22,22,23,23,24,24,26,26,27,27,28,28],"right_children":[2,4,6,8,10,12,14,16,18,20,-1,22,24,26,28,-1,30,32,34,36,38,40,42,44,46,-1,48,50,52,-1,-1,-1,-1,-1,-1,-1,-1,-1,-1,-1,-1,-1,-1,-1,-1,-1,-1,-1,-1,-1,-1,-1,-1],"split_conditions":[-1.653374E-1,8.061849E-1,3.8812226E-1,-7.5277346E-1,1.0410439E0,-8.4056747E-1,-2.4116153E-1,-1.0190603E0,4.5589167E-1,1.6287127E-1,-4.6105627E-2,-9.8713654E-1,-5.8155614E-1,-5.8062875E-1,-3.7958622E-2,-5.006814E-2,-3.311297E-1,7.6668024E-1,-7.593774E-2,1.5332656E0,-3.0387345E-1,-1.0948952E0,-9.9474114E-1,-4.8485705E-1,-6.9747764E-1,-4.7528867E-2,-1.6580274E0,5.918021E-1,-6.495025E-1,-2.0343924E-2,8.327856E-2,-4.7531884E-2,1.7296692E-2,1.0087737E-1,-3.967442E-2,1.3211069E-1,-6.5226876E-3,6.0089666E-2,-4.5402657E-2,2.513347E-2,-4.3977063E-2,-1.3665463E-3,1.0690258E-1,1.1671529E-1,-2.3809837E-2,1.6447613E-2,-5.7972528E-2,-2.4645222E-2,8.885073E-2,4.6857383E-2,-2.893884E-2,1.3281423E-1,2.8012577E-3],"split_indices":[27,0,40,31,28,0,13,1,23,12,0,25,34,2,8,0,2,1,13,26,6,30,4,24,2,0,28,40,30,0,0,0,0,0,0,0,0,0,0,0,0,0,0,0,0,0,0,0,0,0,0,0,0],"split_type":[0,0,0,0,0,0,0,0,0,0,0,0,0,0,0,0,0,0,0,0,0,0,0,0,0,0,0,0,0,0,0,0,0,0,0,0,0,0,0,0,0,0,0,0,0,0,0,0,0,0,0,0,0],"sum_hessian":[2.3188248E2,1.0683575E2,1.2504673E2,9.245452E1,1.4381226E1,4.3885414E1,8.1161316E1,1.4656862E1,7.779765E1,1.1206565E1,3.1746607E0,1.0109278E1,3.3776134E1,4.204469E1,3.9116627E1,4.482836E0,1.01740265E1,7.480286E1,2.9948018E0,7.1755643E0,4.031001E0,4.4417586E0,5.6675196E0,1.3136609E1,2.0639526E1,2.9574847E0,3.9087208E1,2.7774431E1,1.13421955E1,5.3853397E0,4.7886868E0,7.252609E1,2.2767649E0,1.1768072E0,1.8179946E0,5.280409E0,1.8951557E0,1.0982599E0,2.932741E0,1.9776304E0,2.4641283E0,1.6234405E0,4.044079E0,2.098949E0,1.103766E1,1.0306604E0,1.9608866E1,3.3677585E0,3.5719448E1,5.8618984E0,2.1912533E1,3.824693E0,7.517503E0],"tree_param":{"num_deleted":"0","num_feature":"41","num_nodes":"53","size_leaf_vector":"1"}},{"base_weights":[2.005912E-3,-2.6996148E-1,2.3797359E-1,-5.205846E-2,-4.3610218E-1,-4.6604663E-2,4.625238E-1,6.36595E-2,-5.4127064E-2,-4.7887602E-1,4.6378878E-1,6.9474244E-1,-2.1877383E-1,5.850155E-1,-1.6497438E-1,1.8081386E-1,-5.280083E-2,4.780977E-2,-5.369618E-1,-3.3546116E-2,1.0822989E-1,-2.0493228E-2,1.0073735E0,4.6066314E-1,-2.9546884E-1,6.8279886E-1,-1.516108E-1,-3.576067E-1,5.0605994E-1,4.4969595E-3,1.0575409E-1,6.134045E-2,-2.8918672E-2,3.4639325E-2,-5.7228815E-2,6.294665E-2,-4.3095425E-2,6.6484823E-3,1.195155E-1,-1.3098145E-2,9.7871415E-2,7.1213576E-3,-4.5741174E-2,4.3120384E-2,1.1183627E-1,5.9792306E-2,-3.6773674E-2,6.780169E-2,-5.4652967E-2,-3.1901784E-2,1.0431307E-1],"categories":[],"categories_nodes":[],"categories_segments":[],"categories_sizes":[],"default_left":[0,0,0,0,0,0,0,0,0,0,0,0,0,0,0,0,0,0,0,0,0,0,0,0,0,0,0,0,0,0,0,0,0,0,0,0,0,0,0,0,0,0,0,0,0,0,0,0,0,0,0],"id":19,"left_children":[1,3,5,7,9,11,13,15,-1,17,19,21,23,25,27,29,-1,31,33,-1,-1,35,37,39,41,43,45,47,49,-1,-1,-1,-1,-1,-1,-1,-1,-1,-1,-1,-1,-1,-1,-1,-1,-1,-1,-1,-1,-1,-1],"loss_changes":[1.50486145E1,3.921184E0,8.044527E0,2.766697E0,2.5961084E0,7.3357286E0,5.4975815E0,2.863004E0,0E0,1.8419504E0,1.9976518E0,2.4460802E0,2.5558405E0,4.3541374E0,1.7652934E0,4.010359E0,0E0,1.4764318E0,1.86942E0,0E0,0E0,1.4128964E0,1.2576218E0,1.6915846E0,2.5464814E0,5.246683E0,1.4727101E0,2.3483784E0,1.7276326E0,0E0,0E0,0E0,0E0,0E0,0E0,0E0,0E0,0E0,0E0,0E0,0E0,0E0,0E0,0E0,0E0,0E0,0E0,0E0,0E0,0E0,0E0],"parents":[2147483647,0,0,1,1,2,2,3,3,4,4,5,5,6,6,7,7,9,9,10,10,11,11,12,12,13,13,14,14,15,15,17,17,18,18,21,21,22,22,23,23,24,24,25,25,26,26,27,27,28,28],"right_children":[2,4,6,8,10,12,14,16,-1,18,20,22,24,26,28,30,-1,32,34,-1,-1,36,38,40,42,44,46,48,50,-1,-1,-1,-1,-1,-1,-1,-1,-1,-1,-1,-1,-1,-1,-1,-1,-1,-1,-1,-1,-1,-1],"split_conditions":[5.685245E-1,-2.5647593E-1,-1.1981329E-4,4.2327756E-1,1.6694323E0,-8.199638E-1,4.1432926E-1,7.0194083E-1,-5.4127064E-2,-7.8686404E-1,-2.5007015E-1,-7.070129E-1,-1.1254271E0,6.311458E-1,5.582661E-1,2.2404456E-1,-5.280083E-2,-5.2862567E-1,-2.7745292E-1,-3.3546116E-2,1.0822989E-1,-2.44996E0,-4.3214992E-1,-6.354934E-1,-6.6981864E-1,5.481668E-1,-3.7854344E-1,-1.1941901E0,-2.2685395E-1,4.4969595E-3,1.0575409E-1,6.134045E-2,-2.8918672E-2,3.4639325E-2,-5.7228815E-2,6.294665E-2,-4.3095425E-2,6.6484823E-3,1.195155E-1,-1.3098145E-2,9.7871415E-2,7.1213576E-3,-4.5741174E-2,4.3120384E-2,1.1183627E-1,5.9792306E-2,-3.6773674E-2,6.780169E-2,-5.4652967E-2,-3.1901784E-2,1.0431307E-1],"split_indices":[40,28,32,4,21,30,14,17,0,13,20,20,34,28,34,17,0,12,23,0,0,20,22,37,24,34,20,34,22,0,0,0,0,0,0,0,0,0,0,0,0,0,0,0,0,0,0,0,0,0,0],"split_type":[0,0,0,0,0,0,0,0,0,0,0,0,0,0,0,0,0,0,0,0,0,0,0,0,0,0,0,0,0,0,0,0,0,0,0,0,0,0,0,0,0,0,0,0,0,0,0,0,0,0,0],"sum_hessian":[2.3249046E2,1.0793947E2,1.24550995E2,4.7263725E1,6.0675743E1,5.528251E1,6.926849E1,3.8926056E1,8.337672E0,5.8369175E1,2.306568E0,9.846972E0,4.5435535E1,5.8011898E1,1.1256595E1,3.307197E1,5.8540826E0,5.815425E0,5.255375E1,1.2059056E0,1.1006625E0,3.2792258E0,6.5677466E0,4.1007524E0,4.133478E1,5.1278065E1,6.733831E0,9.108825E0,2.1477692E0,2.9545364E1,3.5266068E0,1.865041E0,3.950384E0,1.6822649E0,5.0871483E1,1.0627753E0,2.2164505E0,1.3179827E0,5.249764E0,2.2632048E0,1.8375475E0,1.2834431E1,2.8500353E1,3.3764587E1,1.7513477E1,1.1117356E0,5.622095E0,1.0059004E0,8.102924E0,1.006907E0,1.1408622E0],"tree_param":{"num_deleted":"0","num_feature":"41","num_nodes":"51","size_leaf_vector":"1"}},{"base_weights":[-7.828574E-5,-3.4765768E-1,9.8838694E-2,5.366383E-1,-4.1043574E-1,1.7168291E-1,-2.3612049E-1,1.0397299E-1,-3.2986663E-2,-5.421394E-1,-2.0971012E-1,1.0445574E-1,6.591209E-1,7.553516E-2,-3.0928168E-1,-5.740667E-2,7.373482E-3,-3.825879E-1,2.5715193E-1,2.9095697E-1,-8.093676E-2,1.3724223E-1,2.2448504E-1,-4.0954673E-1,3.241953E-1,4.9185198E-2,-4.975376E-2,8.791647E-2,-4.4080358E-2,9.68501E-3,6.2071186E-2,-1.56030925E-2,5.9749432E-2,-2.8096188E-2,8.810898E-2,3.82307E-2,-4.732096E-2,-1.9342791E-2,1.10904E-1],"categories":[],"categories_nodes":[],"categories_segments":[],"categories_sizes":[],"default_left":[0,0,0,0,0,0,0,0,0,0,0,0,0,0,0,0,0,0,0,0,0,0,0,0,0,0,0,0,0,0,0,0,0,0,0,0,0,0,0],"id":20,"left_children":[1,3,5,7,9,11,13,-1,-1,15,17,19,21,-1,23,-1,-1,25,27,29,31,-1,33,35,37,-1,-1,-1,-1,-1,-1,-1,-1,-1,-1,-1,-1,-1,-1],"loss_changes":[8.032849E0,3.093698E0,4.4783516E0,2.0275738E0,1.1789379E0,4.845517E0,2.620764E0,0E0,0E0,6.104622E-1,1.7935144E0,4.6214952E0,5.2688107E0,0E0,2.1244469E0,0E0,0E0,1.8257489E0,3.111156E0,4.197034E0,3.5306277E0,0E0,4.3539457E0,1.5679445E0,2.1820452E0,0E0,0E0,0E0,0E0,0E0,0E0,0E0,0E0,0E0,0E0,0E0,0E0,0E0,0E0],"parents":[2147483647,0,0,1,1,2,2,3,3,4,4,5,5,6,6,9,9,10,10,11,11,12,12,14,14,17,17,18,18,19,19,20,20,22,22,23,23,24,24],"right_children":[2,4,6,8,10,12,14,-1,-1,16,18,20,22,-1,24,-1,-1,26,28,30,32,-1,34,36,38,-1,-1,-1,-1,-1,-1,-1,-1,-1,-1,-1,-1,-1,-1],"split_conditions":[-6.058415E-1,-1.5667264E0,4.2346466E-1,-6.1280465E-1,-9.136268E-1,4.5342705E-1,-3.1234896E0,1.0397299E-1,-3.2986663E-2,2.3532994E0,3.5563344E-1,5.8099484E-1,-7.3200434E-1,7.553516E-2,4.5612112E-1,-5.740667E-2,7.373482E-3,-1.0781968E0,5.64444E-1,8.857797E-2,8.6536765E-1,1.3724223E-1,6.89067E-1,-8.839172E-1,1.0290965E-1,4.9185198E-2,-4.975376E-2,8.791647E-2,-4.4080358E-2,9.68501E-3,6.2071186E-2,-1.56030925E-2,5.9749432E-2,-2.8096188E-2,8.810898E-2,3.82307E-2,-4.732096E-2,-1.9342791E-2,1.10904E-1],"split_indices":[34,29,10,32,34,14,40,0,0,31,3,40,1,0,12,0,0,16,16,15,37,0,19,29,0,0,0,0,0,0,0,0,0,0,0,0,0,0,0],"split_type":[0,0,0,0,0,0,0,0,0,0,0,0,0,0,0,0,0,0,0,0,0,0,0,0,0,0,0,0,0,0,0,0,0,0,0,0,0,0,0],"sum_hessian":[2.316392E2,5.0760345E1,1.8087886E2,2.8643744E0,4.7895973E1,1.4896962E2,3.1909252E1,1.68573E0,1.1786445E0,2.7893251E1,2.000272E1,1.3198114E2,1.6988468E1,1.5520164E0,3.0357235E1,2.6583054E1,1.3101988E0,1.472909E1,5.273631E0,6.550998E1,6.647117E1,5.615299E0,1.1373168E1,2.6514141E1,3.8430946E0,1.3303169E0,1.3398772E1,2.6512384E0,2.6223927E0,4.2050865E1,2.3459114E1,6.054012E1,5.9310503E0,6.749544E0,4.623624E0,1.6005781E0,2.4913563E1,2.7698567E0,1.073238E0],"tree_param":{"num_deleted":"0","num_feature":"41","num_nodes":"39","size_leaf_vector":"1"}},{"base_weights":[5.8240066E-3,-1.0340874E-1,5.213501E-1,8.604737E-2,-2.5286332E-1,7.350626E-1,1.945524E-1,-1.822235E-2,8.746981E-1,-3.6392134E-2,-3.6830175E-1,1.0461607E0,3.849222E-1,5.304019E-1,-2.0597059E-1,-8.446855E-2,7.880975E-1,2.2368288E-1,1.14114664E-1,-2.2466491E-1,3.867811E-1,-1.868468E-1,-5.295812E-1,9.22007E-3,1.1374196E0,2.9839355E-2,8.360899E-1,1.1199712E-1,-2.3403257E-2,-5.0440103E-2,3.154656E-1,-1.5040325E-2,7.4280106E-2,1.1463411E-1,-4.5489506E-3,7.182774E-2,-3.7446316E-2,-3.6842015E-2,4.6245888E-2,-2.6764488E-2,7.072475E-2,1.3089918E-2,-3.604018E-2,-5.8112074E-2,2.2053286E-3,6.2529646E-2,1.278433E-1,-2.4990862E-2,7.562336E-2,1.0875797E-1,3.641291E-3,-4.4723373E-2,4.9876124E-2,7.936841E-2,-3.5094652E-2],"categories":[],"categories_nodes":[],"categories_segments":[],"categories_sizes":[],"default_left":[0,0,0,0,0,0,0,0,0,0,0,0,0,0,0,0,0,0,0,0,0,0,0,0,0,0,0,0,0,0,0,0,0,0,0,0,0,0,0,0,0,0,0,0,0,0,0,0,0,0,0,0,0,0,0],"id":21,"left_children":[1,3,5,7,9,11,13,15,17,19,21,23,25,27,29,31,33,35,-1,37,39,41,43,-1,45,47,49,-1,51,-1,53,-1,-1,-1,-1,-1,-1,-1,-1,-1,-1,-1,-1,-1,-1,-1,-1,-1,-1,-1,-1,-1,-1,-1,-1],"loss_changes":[1.3089515E1,5.4539723E0,2.6952343E0,7.0343556E0,2.6729293E0,2.2345276E0,2.4535978E0,4.1454763E0,1.4770908E0,3.1541321E0,1.9496508E0,9.605322E-1,2.0533023E0,3.2126205E0,1.5081282E0,4.009965E0,1.8123357E0,1.4949826E0,0E0,2.864707E0,2.7524228E0,1.9489408E0,1.0510073E0,0E0,8.459091E-4,1.8748722E0,1.1019678E0,0E0,1.5535098E0,0E0,1.4802386E0,0E0,0E0,0E0,0E0,0E0,0E0,0E0,0E0,0E0,0E0,0E0,0E0,0E0,0E0,0E0,0E0,0E0,0E0,0E0,0E0,0E0,0E0,0E0,0E0],"parents":[2147483647,0,0,1,1,2,2,3,3,4,4,5,5,6,6,7,7,8,8,9,9,10,10,11,11,12,12,13,13,14,14,15,15,16,16,17,17,19,19,20,20,21,21,22,22,24,24,25,25,26,26,28,28,30,30],"right_children":[2,4,6,8,10,12,14,16,18,20,22,24,26,28,30,32,34,36,-1,38,40,42,44,-1,46,48,50,-1,52,-1,54,-1,-1,-1,-1,-1,-1,-1,-1,-1,-1,-1,-1,-1,-1,-1,-1,-1,-1,-1,-1,-1,-1,-1,-1],"split_conditions":[8.828193E-1,4.654376E-1,-8.748013E-2,9.818173E-1,-3.1682974E-1,6.564015E-1,-5.2160423E-2,2.0808146E0,4.365502E-1,1.0550659E0,-1.4311211E-1,-1.243595E0,1.5905908E0,-2.0667595E-1,1.5220485E0,1.3529991E0,-5.080702E-1,9.010053E-1,1.14114664E-1,5.22503E-1,-6.5630025E-1,-2.9131198E-1,1.1552474E0,9.22007E-3,9.406822E-2,-1.6723189E-1,1.7070996E0,1.1199712E-1,6.4641036E-2,-5.0440103E-2,1.7272435E0,-1.5040325E-2,7.4280106E-2,1.1463411E-1,-4.5489506E-3,7.182774E-2,-3.7446316E-2,-3.6842015E-2,4.6245888E-2,-2.6764488E-2,7.072475E-2,1.3089918E-2,-3.604018E-2,-5.8112074E-2,2.2053286E-3,6.2529646E-2,1.278433E-1,-2.4990862E-2,7.562336E-2,1.0875797E-1,3.641291E-3,-4.4723373E-2,4.9876124E-2,7.936841E-2,-3.5094652E-2],"split_indices":[28,40,2,10,29,6,29,12,37,36,21,10,28,37,28,32,40,4,0,11,31,22,10,0,26,2,6,0,15,0,28,0,0,0,0,0,0,0,0,0,0,0,0,0,0,0,0,0,0,0,0,0,0,0,0],"split_type":[0,0,0,0,0,0,0,0,0,0,0,0,0,0,0,0,0,0,0,0,0,0,0,0,0,0,0,0,0,0,0,0,0,0,0,0,0,0,0,0,0,0,0,0,0,0,0,0,0,0,0,0,0,0,0],"sum_hessian":[2.3048753E2,1.9084877E2,3.9638767E1,8.4348564E1,1.06500206E2,2.3210648E1,1.6428118E1,7.536168E1,8.986885E0,3.7498295E1,6.900191E1,1.1237952E1,1.1972696E1,8.7591E0,7.669018E0,7.0467415E1,4.89427E0,3.1441832E0,5.842702E0,2.62767E1,1.1221596E1,3.3485744E1,3.5516167E1,1.1567173E0,1.0081235E1,7.296368E0,4.6763277E0,3.7473888E0,5.011711E0,4.898283E0,2.770735E0,6.602343E1,4.443979E0,3.1607225E0,1.7335473E0,1.611132E0,1.5330511E0,2.2113987E1,4.162711E0,3.742942E0,7.4786534E0,1.191586E1,2.1569883E1,3.243252E1,3.0836425E0,3.349836E0,6.7313986E0,5.7412615E0,1.5551068E0,3.2836356E0,1.3926921E0,2.8455422E0,2.166169E0,1.5019512E0,1.2687838E0],"tree_param":{"num_deleted":"0","num_feature":"41","num_nodes":"55","size_leaf_vector":"1"}},{"base_weights":[-6.864779E-3,2.0231585E-1,-2.9899853E-1,4.8214278E-1,-1.23251304E-1,-3.8298574E-1,1.7441018E-1,6.750364E-1,-3.0033393E-2,4.2980723E-2,-4.7990388E-1,-1.5892251E-1,-4.8544785E-1,-2.8477758E-1,5.931895E-1,3.1239715E-1,1.1748799E0,-3.6999834E-1,6.242434E-1,-4.7010753E-1,4.137203E-1,2.1113817E-2,-5.707863E-2,-5.466479E-2,7.094391E-2,-5.137066E-1,-4.5596085E-2,-4.806957E-2,2.383704E-2,-3.6740452E-2,8.565617E-1,-6.5206713E-3,6.512847E-2,1.2776093E-1,1.6234607E-2,-4.9703155E-2,6.360101E-2,-3.7793647E-2,9.469885E-2,1.00540705E-2,-5.1572036E-2,-4.684956E-2,5.5804312E-2,4.800301E-2,-3.833587E-2,5.58257E-2,-2.899989E-2,-5.3032268E-2,9.217452E-3,6.294688E-2,-4.388306E-2,6.166937E-2,-4.0006846E-2,1.1439773E-1,-3.1949546E-2],"categories":[],"categories_nodes":[],"categories_segments":[],"categories_sizes":[],"default_left":[0,0,0,0,0,0,0,0,0,0,0,0,0,0,0,0,0,0,0,0,0,0,0,0,0,0,0,0,0,0,0,0,0,0,0,0,0,0,0,0,0,0,0,0,0,0,0,0,0,0,0,0,0,0,0],"id":22,"left_children":[1,3,5,7,9,11,13,15,17,19,21,23,25,27,29,31,33,35,37,39,41,43,-1,-1,45,47,49,-1,51,-1,53,-1,-1,-1,-1,-1,-1,-1,-1,-1,-1,-1,-1,-1,-1,-1,-1,-1,-1,-1,-1,-1,-1,-1,-1],"loss_changes":[1.4238798E1,1.2431268E1,3.9321442E0,7.255514E0,3.7893233E0,1.8256283E0,3.117906E0,9.283684E0,4.9004583E0,8.616757E0,9.359741E-1,2.4892147E0,6.774435E-1,4.9458653E-1,2.4259346E0,4.165229E0,2.0834236E0,2.1618323E0,2.8000505E0,5.474553E-1,3.601832E0,9.413263E-1,0E0,0E0,3.3536546E0,5.8129406E-1,1.4711485E0,0E0,1.2659471E0,0E0,2.6807413E0,0E0,0E0,0E0,0E0,0E0,0E0,0E0,0E0,0E0,0E0,0E0,0E0,0E0,0E0,0E0,0E0,0E0,0E0,0E0,0E0,0E0,0E0,0E0,0E0],"parents":[2147483647,0,0,1,1,2,2,3,3,4,4,5,5,6,6,7,7,8,8,9,9,10,10,11,11,12,12,13,13,14,14,15,15,16,16,17,17,18,18,19,19,20,20,21,21,24,24,25,25,26,26,28,28,30,30],"right_children":[2,4,6,8,10,12,14,16,18,20,22,24,26,28,30,32,34,36,38,40,42,44,-1,-1,46,48,50,-1,52,-1,54,-1,-1,-1,-1,-1,-1,-1,-1,-1,-1,-1,-1,-1,-1,-1,-1,-1,-1,-1,-1,-1,-1,-1,-1],"split_conditions":[-3.0667616E-2,-1.5974253E-1,1.0410439E0,1.9545022E-1,1.448172E-1,-2.527316E-1,-4.36427E-1,-2.669473E-1,3.2752946E-1,-4.854809E-1,-1.282761E-2,-3.273476E-1,1.568465E0,5.7960457E-1,-3.9419177E-1,-4.6407658E-1,-1.19013295E-1,1.4368067E0,-3.0009264E-1,-1.7609115E0,-1.6316367E0,-6.3384014E-1,-5.707863E-2,-5.466479E-2,4.9665892E-1,1.0223536E0,5.2806523E-2,-4.806957E-2,7.2634155E-1,-3.6740452E-2,1.6623554E-1,-6.5206713E-3,6.512847E-2,1.2776093E-1,1.6234607E-2,-4.9703155E-2,6.360101E-2,-3.7793647E-2,9.469885E-2,1.00540705E-2,-5.1572036E-2,-4.684956E-2,5.5804312E-2,4.800301E-2,-3.833587E-2,5.58257E-2,-2.899989E-2,-5.3032268E-2,9.217452E-3,6.294688E-2,-4.388306E-2,6.166937E-2,-4.0006846E-2,1.1439773E-1,-3.1949546E-2],"split_indices":[32,27,28,16,1,22,27,18,14,31,27,33,33,13,0,24,32,34,2,40,4,8,0,0,32,23,32,0,13,0,0,0,0,0,0,0,0,0,0,0,0,0,0,0,0,0,0,0,0,0,0,0,0,0,0],"split_type":[0,0,0,0,0,0,0,0,0,0,0,0,0,0,0,0,0,0,0,0,0,0,0,0,0,0,0,0,0,0,0,0,0,0,0,0,0,0,0,0,0,0,0,0,0,0,0,0,0,0,0,0,0,0,0],"sum_hessian":[2.3101772E2,1.3480142E2,9.621629E1,7.22345E1,6.2566917E1,8.188085E1,1.4335438E1,5.2241535E1,1.9992962E1,4.3275944E1,1.9290976E1,2.649433E1,5.5386528E1,6.990452E0,7.3449864E0,3.1217823E1,2.1023714E1,1.34426155E1,6.5503464E0,1.8040546E1,2.5235395E1,3.079876E0,1.62111E1,9.348205E0,1.7146124E1,5.1885193E1,3.5013332E0,3.9348779E0,3.055574E0,1.4954932E0,5.849493E0,1.5147441E1,1.6070383E1,1.8849491E1,2.1742222E0,1.2384683E1,1.0579326E0,1.5539753E0,4.996371E0,1.2461481E0,1.67944E1,3.232094E0,2.2003302E1,1.3553195E0,1.7245563E0,7.063265E0,1.0082859E1,5.0621628E1,1.2635655E0,1.0676883E0,2.433645E0,1.0843111E0,1.9712629E0,4.7226152E0,1.1268783E0],"tree_param":{"num_deleted":"0","num_feature":"41","num_nodes":"55","size_leaf_vector":"1"}},{"base_weights":[-9.6275983E-4,-2.3969266E-1,1.9709812E-1,-3.373252E-1,3.475583E-1,1.4954704E-2,5.1458764E-1,-5.002602E-2,-4.439355E-1,5.7864004E-1,-4.5139026E-2,2.6146835E-1,-2.40794E-1,-3.4672994E-2,7.065737E-1,-4.1140613E-1,1.0828587E-1,-5.1527977E-1,-1.4198324E-1,9.10672E-1,-1.0166651E-1,8.349035E-1,4.319862E-2,2.731428E-1,-4.2976326E-1,7.462885E-1,-3.5172996E-1,1.1657725E-1,8.679995E-1,1.7599529E-2,-5.1994868E-2,1.1910398E-1,-5.5780406E-3,1.0824005E-2,-5.685094E-2,7.170283E-2,-3.853308E-2,1.20317936E-1,-6.6853473E-3,5.7029676E-2,-4.4772174E-2,-3.591664E-2,1.0202115E-1,-3.946954E-2,2.489552E-2,-2.5064705E-2,8.5779294E-2,-5.1844835E-2,4.287808E-2,1.2258071E-1,1.3506493E-4,-5.3377252E-2,3.3827517E-2,5.5393416E-2,-3.2221325E-2,1.0139417E-1,2.351093E-2],"categories":[],"categories_nodes":[],"categories_segments":[],"categories_sizes":[],"default_left":[0,0,0,0,0,0,0,0,0,0,0,0,0,0,0,0,0,0,0,0,0,0,0,0,0,0,0,0,0,0,0,0,0,0,0,0,0,0,0,0,0,0,0,0,0,0,0,0,0,0,0,0,0,0,0,0,0],"id":23,"left_children":[1,3,5,7,9,11,13,15,17,19,-1,21,23,25,27,29,31,33,35,37,39,41,43,45,47,49,51,53,55,-1,-1,-1,-1,-1,-1,-1,-1,-1,-1,-1,-1,-1,-1,-1,-1,-1,-1,-1,-1,-1,-1,-1,-1,-1,-1,-1,-1],"loss_changes":[1.0988793E1,6.159238E0,7.337948E0,2.760933E0,3.1256008E0,5.2167435E0,4.9044657E0,1.5159874E0,1.3518019E0,2.909915E0,0E0,5.2338743E0,4.064518E0,3.4663725E0,3.1691933E0,6.04329E-1,3.38417E0,1.8247156E0,3.2074754E0,2.5057588E0,1.4157755E0,2.9228678E0,2.9409924E0,3.7482514E0,2.514481E0,1.4474056E0,1.4219271E0,1.815824E0,2.2375813E0,0E0,0E0,0E0,0E0,0E0,0E0,0E0,0E0,0E0,0E0,0E0,0E0,0E0,0E0,0E0,0E0,0E0,0E0,0E0,0E0,0E0,0E0,0E0,0E0,0E0,0E0,0E0,0E0],"parents":[2147483647,0,0,1,1,2,2,3,3,4,4,5,5,6,6,7,7,8,8,9,9,11,11,12,12,13,13,14,14,15,15,16,16,17,17,18,18,19,19,20,20,21,21,22,22,23,23,24,24,25,25,26,26,27,27,28,28],"right_children":[2,4,6,8,10,12,14,16,18,20,-1,22,24,26,28,30,32,34,36,38,40,42,44,46,48,50,52,54,56,-1,-1,-1,-1,-1,-1,-1,-1,-1,-1,-1,-1,-1,-1,-1,-1,-1,-1,-1,-1,-1,-1,-1,-1,-1,-1,-1,-1],"split_conditions":[-1.653374E-1,8.061849E-1,1.4644372E-1,-6.2600946E-1,1.0410439E0,7.7327737E-3,1.1294582E-1,-1.0283248E0,3.4663773E-1,1.6287127E-1,-4.5139026E-2,-1.0333061E0,-7.481025E-1,-8.362342E-1,-7.282993E-1,-6.698826E-1,-8.8932437E-1,-1.0643108E0,2.6348886E-1,1.5332656E0,-3.0387345E-1,-8.97153E-1,-6.935553E-1,-8.661209E-1,1.2705524E0,-8.6357E-1,7.507373E-1,1.0550659E0,1.2986112E-1,1.7599529E-2,-5.1994868E-2,1.1910398E-1,-5.5780406E-3,1.0824005E-2,-5.685094E-2,7.170283E-2,-3.853308E-2,1.20317936E-1,-6.6853473E-3,5.7029676E-2,-4.4772174E-2,-3.591664E-2,1.0202115E-1,-3.946954E-2,2.489552E-2,-2.5064705E-2,8.5779294E-2,-5.1844835E-2,4.287808E-2,1.2258071E-1,1.3506493E-4,-5.3377252E-2,3.3827517E-2,5.5393416E-2,-3.2221325E-2,1.0139417E-1,2.351093E-2],"split_indices":[27,0,8,18,28,37,40,25,16,12,0,6,25,25,10,33,3,37,15,26,6,0,33,3,18,20,25,36,34,0,0,0,0,0,0,0,0,0,0,0,0,0,0,0,0,0,0,0,0,0,0,0,0,0,0,0,0],"split_type":[0,0,0,0,0,0,0,0,0,0,0,0,0,0,0,0,0,0,0,0,0,0,0,0,0,0,0,0,0,0,0,0,0,0,0,0,0,0,0,0,0,0,0,0,0,0,0,0,0,0,0,0,0,0,0,0,0],"sum_hessian":[2.3040533E2,1.0438099E2,1.26024345E2,8.986603E1,1.45149555E1,8.074698E1,4.5277363E1,2.4719599E1,6.514643E1,1.1472489E1,3.0424662E0,4.1104446E1,3.9642536E1,1.1939259E1,3.3338104E1,7.043233E0,1.7676365E1,5.212421E1,1.3022223E1,7.4821253E0,3.990364E0,1.0553457E1,3.0550991E1,1.0537747E1,2.9104788E1,3.0565915E0,8.882668E0,7.5318937E0,2.580621E1,1.0015713E0,6.0416617E0,1.502319E0,1.6174046E1,4.0185375E0,4.810567E1,2.44498E0,1.0577244E1,5.581206E0,1.9009197E0,1.1361727E0,2.8541913E0,1.2917283E0,9.261728E0,9.472731E0,2.107826E1,5.8594947E0,4.678252E0,2.673887E1,2.3659163E0,1.466856E0,1.5897355E0,7.2075396E0,1.6751273E0,3.6406884E0,3.8912053E0,2.0481232E1,5.3249774E0],"tree_param":{"num_deleted":"0","num_feature":"41","num_nodes":"57","size_leaf_vector":"1"}},{"base_weights":[2.091607E-3,-2.6028475E-1,2.2298299E-1,-5.0476335E-2,-4.25515E-1,-4.263294E-2,4.2606953E-1,5.923182E-2,-5.3331833E-2,-4.690425E-1,4.4662076E-1,6.5639806E-1,-2.1118857E-1,5.3473836E-1,-1.5707007E-1,1.6892141E-1,-5.192116E-2,4.0101424E-2,-5.2791363E-1,-3.2850724E-2,1.0171968E-1,4.4152513E-2,1.0383481E0,-3.3426806E-1,3.4343427E-1,4.251921E-1,1.1619415E0,-3.471585E-1,4.7542104E-1,4.047081E-3,9.6080296E-2,5.6463964E-2,-2.8417602E-2,3.3809494E-2,-5.6441654E-2,-4.6633255E-2,9.519224E-2,1.2617318E-1,2.7698705E-2,-5.0535727E-2,2.5487726E-3,-2.9504409E-2,9.295246E-2,5.396956E-2,-1.5392323E-2,1.4218871E-1,2.0648073E-2,6.3825026E-2,-5.383577E-2,1.3633378E-2,5.841474E-2],"categories":[],"categories_nodes":[],"categories_segments":[],"categories_sizes":[],"default_left":[0,0,0,0,0,0,0,0,0,0,0,0,0,0,0,0,0,0,0,0,0,0,0,0,0,0,0,0,0,0,0,0,0,0,0,0,0,0,0,0,0,0,0,0,0,0,0,0,0,0,0],"id":24,"left_children":[1,3,5,7,9,11,13,15,-1,17,19,21,23,25,27,29,-1,31,33,-1,-1,35,37,39,41,43,45,47,49,-1,-1,-1,-1,-1,-1,-1,-1,-1,-1,-1,-1,-1,-1,-1,-1,-1,-1,-1,-1,-1,-1],"loss_changes":[1.351265E1,3.673019E0,6.8461356E0,2.5788321E0,2.4676523E0,6.7079268E0,4.63535E0,2.6309927E0,0E0,1.7340317E0,1.8113208E0,2.5441175E0,3.232971E0,3.6811962E0,1.6143947E0,3.465178E0,0E0,1.3259759E0,1.812293E0,0E0,0E0,2.8996594E0,8.029618E-1,2.3450146E0,3.5631971E0,3.6180792E0,1.8072042E0,2.198892E0,3.8624346E-2,0E0,0E0,0E0,0E0,0E0,0E0,0E0,0E0,0E0,0E0,0E0,0E0,0E0,0E0,0E0,0E0,0E0,0E0,0E0,0E0,0E0,0E0],"parents":[2147483647,0,0,1,1,2,2,3,3,4,4,5,5,6,6,7,7,9,9,10,10,11,11,12,12,13,13,14,14,15,15,17,17,18,18,21,21,22,22,23,23,24,24,25,25,26,26,27,27,28,28],"right_children":[2,4,6,8,10,12,14,16,-1,18,20,22,24,26,28,30,-1,32,34,-1,-1,36,38,40,42,44,46,48,50,-1,-1,-1,-1,-1,-1,-1,-1,-1,-1,-1,-1,-1,-1,-1,-1,-1,-1,-1,-1,-1,-1],"split_conditions":[5.685245E-1,-2.5647593E-1,-1.1981329E-4,4.2327756E-1,1.6694323E0,-1.1239657E0,4.1432926E-1,7.0194083E-1,-5.3331833E-2,-7.8686404E-1,-2.5007015E-1,-8.6357E-1,3.3644798E-1,2.3676163E-1,5.582661E-1,2.2404456E-1,-5.192116E-2,-5.2862567E-1,-2.7745292E-1,-3.2850724E-2,1.0171968E-1,6.362627E-1,7.7327737E-3,-2.5542513E-1,-2.6373338E-2,-1.5506002E-1,4.2505714E-1,-1.1941901E0,3.956375E-1,4.047081E-3,9.6080296E-2,5.6463964E-2,-2.8417602E-2,3.3809494E-2,-5.6441654E-2,-4.6633255E-2,9.519224E-2,1.2617318E-1,2.7698705E-2,-5.0535727E-2,2.5487726E-3,-2.9504409E-2,9.295246E-2,5.396956E-2,-1.5392323E-2,1.4218871E-1,2.0648073E-2,6.3825026E-2,-5.383577E-2,1.3633378E-2,5.841474E-2],"split_indices":[40,28,32,4,21,28,14,17,0,13,20,20,2,10,34,17,0,12,23,0,0,8,37,32,28,2,30,34,0,0,0,0,0,0,0,0,0,0,0,0,0,0,0,0,0,0,0,0,0,0,0],"split_type":[0,0,0,0,0,0,0,0,0,0,0,0,0,0,0,0,0,0,0,0,0,0,0,0,0,0,0,0,0,0,0,0,0,0,0,0,0,0,0,0,0,0,0,0,0,0,0,0,0,0,0],"sum_hessian":[2.3114944E2,1.0557197E2,1.2557748E2,4.7086845E1,5.8485123E1,5.4754456E1,7.082302E1,3.908381E1,8.0030365E0,5.6145157E1,2.3399649E0,1.0075454E1,4.4679005E1,5.976815E1,1.1054873E1,3.3448902E1,5.634907E0,5.8521276E0,5.029303E1,1.1720234E0,1.1679413E0,4.2993774E0,5.776077E0,3.688987E1,7.7891345E0,5.2309734E1,7.458414E0,8.847098E0,2.2077754E0,2.968485E1,3.7640536E0,1.9525452E0,3.8995824E0,1.6999781E0,4.8593052E1,3.0631182E0,1.2362591E0,3.9576838E0,1.8183929E0,2.4726131E1,1.2163738E1,3.965627E0,3.8235073E0,4.373121E1,8.578526E0,5.479481E0,1.9789331E0,1.0577075E0,7.7893906E0,1.083271E0,1.1245043E0],"tree_param":{"num_deleted":"0","num_feature":"41","num_nodes":"51","size_leaf_vector":"1"}},{"base_weights":[5.5055413E-4,-4.7210503E-1,6.7451574E-2,3.4953472E-1,-5.677972E-2,-5.367534E-2,2.3664232E-1,-3.4347203E-2,9.1419905E-2,2.1757232E-1,-2.662659E-1,6.5080374E-1,1.3024993E-1,-1.4003893E-2,6.3713694E-1,4.306086E-2,-3.9096174E-1,1.0300326E0,1.3767572E-1,6.3611835E-2,1.1149439E0,-1.1997638E-2,1.0014379E-1,8.757588E-2,5.39234E-3,-4.297295E-2,3.687952E-2,-4.7973044E-2,-1.3441441E-2,1.3767682E-1,2.2506928E-2,-1.3576567E-2,9.653383E-2,3.461602E-2,-1.4819703E-2,1.5881287E-2,1.3720758E-1],"categories":[],"categories_nodes":[],"categories_segments":[],"categories_sizes":[],"default_left":[0,0,0,0,0,0,0,0,0,0,0,0,0,0,0,0,0,0,0,0,0,0,0,0,0,0,0,0,0,0,0,0,0,0,0,0,0],"id":25,"left_children":[1,3,5,7,-1,9,11,-1,-1,13,15,17,19,21,23,25,27,29,31,33,35,-1,-1,-1,-1,-1,-1,-1,-1,-1,-1,-1,-1,-1,-1,-1,-1],"loss_changes":[7.3484893E0,2.4640274E0,4.1845665E0,1.7324532E0,0E0,6.946038E0,3.6658673E0,0E0,0E0,5.1618786E0,2.6171846E0,3.1947951E0,4.4548926E0,3.9028003E0,2.580717E0,3.2800748E0,1.0319715E0,2.3990116E0,2.041436E0,3.9808507E0,8.420248E-1,0E0,0E0,0E0,0E0,0E0,0E0,0E0,0E0,0E0,0E0,0E0,0E0,0E0,0E0,0E0,0E0],"parents":[2147483647,0,0,1,1,2,2,3,3,5,5,6,6,9,9,10,10,11,11,12,12,13,13,14,14,15,15,16,16,17,17,18,18,19,19,20,20],"right_children":[2,4,6,8,-1,10,12,-1,-1,14,16,18,20,22,24,26,28,30,32,34,36,-1,-1,-1,-1,-1,-1,-1,-1,-1,-1,-1,-1,-1,-1,-1,-1],"split_conditions":[-9.136268E-1,-1.1718566E0,3.3967E-2,-2.5545484E-1,-5.677972E-2,-6.425999E-1,-3.1406766E-1,-3.4347203E-2,9.1419905E-2,1.8265286E-1,-2.2353067E-1,-4.7734216E-1,1.8990041E0,1.6426698E0,4.365502E-1,-3.3840317E-1,6.064337E-1,5.7515264E-1,1.3032997E0,-2.5798902E-1,-3.281512E-1,-1.1997638E-2,1.0014379E-1,8.757588E-2,5.39234E-3,-4.297295E-2,3.687952E-2,-4.7973044E-2,-1.3441441E-2,1.3767682E-1,2.2506928E-2,-1.3576567E-2,9.653383E-2,3.461602E-2,-1.4819703E-2,1.5881287E-2,1.3720758E-1],"split_indices":[34,29,7,4,0,3,22,0,0,29,4,20,34,33,37,7,11,25,31,11,2,0,0,0,0,0,0,0,0,0,0,0,0,0,0,0,0],"split_type":[0,0,0,0,0,0,0,0,0,0,0,0,0,0,0,0,0,0,0,0,0,0,0,0,0,0,0,0,0,0,0,0,0,0,0,0,0],"sum_hessian":[2.3038461E2,2.7814991E1,2.0256963E2,2.6248224E0,2.5190168E1,1.1845102E2,8.4118614E1,1.3543572E0,1.2704653E0,5.2035133E1,6.6415886E1,1.6146587E1,6.797202E1,3.4151848E1,1.7883287E1,1.9269548E1,4.7146336E1,8.705442E0,7.441145E0,6.4660774E1,3.311248E0,3.1723047E1,2.4287996E0,1.2334866E1,5.548422E0,7.7302036E0,1.1539344E1,3.4380344E1,1.2765992E1,5.5880556E0,3.117387E0,6.2216234E0,1.2195218E0,2.743234E1,3.722844E1,1.0445983E0,2.2666497E0],"tree_param":{"num_deleted":"0","num_feature":"41","num_nodes":"37","size_leaf_vector":"1"}},{"base_weights":[6.654245E-3,-9.846088E-2,4.9105483E-1,8.093285E-2,-2.4317577E-1,2.0131268E-2,6.1839634E-1,-1.7725438E-2,8.009097E-1,-1.178161E-1,-4.4100812E-1,4.8732367E-1,-3.659014E-1,1.1092222E0,4.0819183E-1,-8.1437916E-2,7.3332584E-1,2.0850833E-1,1.03527606E-1,4.624288E-2,-5.216584E-1,-2.27405E-2,-5.5117506E-1,8.0987394E-1,-3.1678695E-2,-5.017371E-2,1.3339206E-2,5.1089153E-3,1.284017E-1,8.597274E-1,1.2393819E-1,2.0655839E-2,-2.5158877E-2,1.0546835E-1,-4.4443146E-3,6.6971555E-2,-3.6890995E-2,-1.8727923E-2,4.0844467E-2,-5.70922E-2,1.0564745E-2,-2.8170874E-2,8.413189E-2,1.2677868E-2,-5.8091093E-2,1.0133465E-1,1.4066579E-2,2.1645045E-3,1.0031296E-1,-4.991845E-2,3.7297074E-2],"categories":[],"categories_nodes":[],"categories_segments":[],"categories_sizes":[],"default_left":[0,0,0,0,0,0,0,0,0,0,0,0,0,0,0,0,0,0,0,0,0,0,0,0,0,0,0,0,0,0,0,0,0,0,0,0,0,0,0,0,0,0,0,0,0,0,0,0,0,0,0],"id":26,"left_children":[1,3,5,7,9,11,13,15,17,19,21,23,25,27,29,31,33,35,-1,37,39,41,43,45,-1,-1,-1,-1,-1,47,49,-1,-1,-1,-1,-1,-1,-1,-1,-1,-1,-1,-1,-1,-1,-1,-1,-1,-1,-1,-1],"loss_changes":[1.1749482E1,4.9434695E0,2.454811E0,6.0827403E0,2.5576935E0,1.9441273E0,2.8850927E0,3.701997E0,1.2166524E0,4.3820515E0,1.8514132E0,1.5167297E0,4.6926743E-1,1.6209173E0,3.0038233E0,3.5343246E0,1.55954E0,1.3594449E0,0E0,4.110458E0,6.50053E-1,2.357429E0,7.1824455E-1,3.6792135E-1,0E0,0E0,0E0,0E0,0E0,1.0831928E0,2.6752172E0,0E0,0E0,0E0,0E0,0E0,0E0,0E0,0E0,0E0,0E0,0E0,0E0,0E0,0E0,0E0,0E0,0E0,0E0,0E0,0E0],"parents":[2147483647,0,0,1,1,2,2,3,3,4,4,5,5,6,6,7,7,8,8,9,9,10,10,11,11,12,12,13,13,14,14,15,15,16,16,17,17,19,19,20,20,21,21,22,22,23,23,29,29,30,30],"right_children":[2,4,6,8,10,12,14,16,18,20,22,24,26,28,30,32,34,36,-1,38,40,42,44,46,-1,-1,-1,-1,-1,48,50,-1,-1,-1,-1,-1,-1,-1,-1,-1,-1,-1,-1,-1,-1,-1,-1,-1,-1,-1,-1],"split_conditions":[8.828193E-1,4.654376E-1,-3.687583E-1,9.818173E-1,-3.9772738E-2,-7.6413655E-1,-6.693089E-1,2.0808146E0,4.365502E-1,5.78749E-1,-6.3423437E-1,1.5344995E0,6.4494187E-1,-1.0766187E0,-3.6012495E-1,-3.1525174E-1,-5.080702E-1,9.010053E-1,1.03527606E-1,-2.6335838E-1,6.498752E-1,2.3350555E-2,-1.5131004E0,8.2395864E-1,-3.1678695E-2,-5.017371E-2,1.3339206E-2,5.1089153E-3,1.284017E-1,-2.8432012E-1,3.7205755E-3,2.0655839E-2,-2.5158877E-2,1.0546835E-1,-4.4443146E-3,6.6971555E-2,-3.6890995E-2,-1.8727923E-2,4.0844467E-2,-5.70922E-2,1.0564745E-2,-2.8170874E-2,8.413189E-2,1.2677868E-2,-5.8091093E-2,1.0133465E-1,1.4066579E-2,2.1645045E-3,1.0031296E-1,-4.991845E-2,3.7297074E-2],"split_indices":[28,40,21,10,21,32,29,12,37,34,32,11,10,11,12,2,40,4,0,33,4,33,14,8,0,0,0,0,0,22,12,0,0,0,0,0,0,0,0,0,0,0,0,0,0,0,0,0,0,0,0],"split_type":[0,0,0,0,0,0,0,0,0,0,0,0,0,0,0,0,0,0,0,0,0,0,0,0,0,0,0,0,0,0,0,0,0,0,0,0,0,0,0,0,0,0,0,0,0,0,0,0,0,0,0],"sum_hessian":[2.2880423E2,1.8866136E2,4.014286E1,8.443432E1,1.0422704E2,8.790962E0,3.1351898E1,7.51165E1,9.31782E0,6.477613E1,3.9450916E1,3.8586624E0,4.9322996E0,8.118467E0,2.323343E1,7.006443E1,5.052072E0,3.177021E0,6.140798E0,4.669287E1,1.808326E1,8.476156E0,3.097476E1,2.7488556E0,1.1098067E0,3.8735764E0,1.0587232E0,1.3341818E0,6.7842855E0,8.193534E0,1.5039896E1,2.5941696E1,4.4122734E1,3.3230295E0,1.7290424E0,1.677383E0,1.4996381E0,2.8683025E1,1.8009844E1,1.6849886E1,1.2333724E0,7.0401235E0,1.436033E0,1.1643779E0,2.981038E1,1.7135915E0,1.0352641E0,1.3652978E0,6.8282366E0,4.007625E0,1.103227E1],"tree_param":{"num_deleted":"0","num_feature":"41","num_nodes":"51","size_leaf_vector":"1"}},{"base_weights":[-8.335474E-3,2.2120577E-1,-2.5005585E-1,-3.6424607E-1,3.884176E-1,-4.7637683E-1,-4.4308893E-2,5.0003725E-1,-4.5963728E-1,5.157604E-1,-2.2550529E-1,-2.9888168E-1,-5.514666E-1,3.4515446E-1,-3.0028972E-1,1.570869E-2,5.9486598E-2,1.2304169E-1,-5.2876353E-1,-1.9106238E-1,7.16009E-1,4.196263E-1,-4.2082685E-1,-4.9025697E-1,4.6682444E-1,1.1827E-2,-5.776099E-2,6.599E-1,-1.7034687E-1,5.0598466E-1,-3.872512E-1,-3.6269348E-2,6.0495283E-2,1.606015E-2,-5.6977164E-2,3.7631195E-2,-3.59207E-2,2.3971599E-2,8.5198015E-2,-3.50547E-2,8.4825166E-2,-5.6232996E-2,6.0861755E-2,-5.529666E-2,1.405904E-2,9.61205E-2,-6.922204E-3,-4.7207188E-2,1.05320446E-1,5.6765337E-2,-3.276819E-2,9.339275E-2,-3.1922743E-2,2.83643E-2,-4.3419983E-2],"categories":[],"categories_nodes":[],"categories_segments":[],"categories_sizes":[],"default_left":[0,0,0,0,0,0,0,0,0,0,0,0,0,0,0,0,0,0,0,0,0,0,0,0,0,0,0,0,0,0,0,0,0,0,0,0,0,0,0,0,0,0,0,0,0,0,0,0,0,0,0,0,0,0,0],"id":27,"left_children":[1,3,5,7,9,11,13,15,17,19,21,23,25,27,29,-1,-1,31,33,35,37,39,41,43,45,-1,-1,47,49,51,53,-1,-1,-1,-1,-1,-1,-1,-1,-1,-1,-1,-1,-1,-1,-1,-1,-1,-1,-1,-1,-1,-1,-1,-1],"loss_changes":[1.2832729E1,1.1756633E1,5.223819E0,2.4455693E0,7.3692913E0,5.486851E-1,6.095607E0,9.008348E-3,1.0609422E0,1.1055338E1,2.2725592E0,2.8809276E0,7.062769E-1,4.055423E0,2.7762399E0,0E0,0E0,1.0231062E0,7.2167873E-1,1.835149E0,3.70232E0,1.7387593E0,2.2748766E0,6.6984487E-1,1.1613264E0,0E0,0E0,7.306314E0,1.3480263E0,1.7164735E0,1.1872935E0,0E0,0E0,0E0,0E0,0E0,0E0,0E0,0E0,0E0,0E0,0E0,0E0,0E0,0E0,0E0,0E0,0E0,0E0,0E0,0E0,0E0,0E0,0E0,0E0],"parents":[2147483647,0,0,1,1,2,2,3,3,4,4,5,5,6,6,7,7,8,8,9,9,10,10,11,11,12,12,13,13,14,14,17,17,18,18,19,19,20,20,21,21,22,22,23,23,24,24,27,27,28,28,29,29,30,30],"right_children":[2,4,6,8,10,12,14,16,18,20,22,24,26,28,30,-1,-1,32,34,36,38,40,42,44,46,-1,-1,48,50,52,54,-1,-1,-1,-1,-1,-1,-1,-1,-1,-1,-1,-1,-1,-1,-1,-1,-1,-1,-1,-1,-1,-1,-1,-1],"split_conditions":[-1.808418E-1,-7.018912E-1,-2.6373338E-2,-6.179183E-1,4.4214106E-1,-1.653374E-1,-2.1503325E-1,-2.6834646E-1,-7.8335863E-1,-6.89956E-1,-5.99313E-1,9.104765E-3,-1.7426063E0,1.4006737E-1,-7.774315E-1,1.570869E-2,5.9486598E-2,-6.617395E-1,-1.8603748E0,-7.341968E-1,-4.7114745E-1,8.040138E-1,1.4682536E0,-2.0746332E-1,-3.3045438E-1,1.1827E-2,-5.776099E-2,-5.9534764E-1,-2.8391688E0,4.8289582E-1,-1.3946252E0,-3.6269348E-2,6.0495283E-2,1.606015E-2,-5.6977164E-2,3.7631195E-2,-3.59207E-2,2.3971599E-2,8.5198015E-2,-3.50547E-2,8.4825166E-2,-5.6232996E-2,6.0861755E-2,-5.529666E-2,1.405904E-2,9.61205E-2,-6.922204E-3,-4.7207188E-2,1.05320446E-1,5.6765337E-2,-3.276819E-2,9.339275E-2,-3.1922743E-2,2.83643E-2,-4.3419983E-2],"split_indices":[32,13,28,22,25,27,22,25,27,26,24,14,11,16,3,0,0,14,11,40,10,17,6,27,11,0,0,31,40,40,11,0,0,0,0,0,0,0,0,0,0,0,0,0,0,0,0,0,0,0,0,0,0,0,0],"split_type":[0,0,0,0,0,0,0,0,0,0,0,0,0,0,0,0,0,0,0,0,0,0,0,0,0,0,0,0,0,0,0,0,0,0,0,0,0,0,0,0,0,0,0,0,0,0,0,0,0,0,0,0,0,0,0],"sum_hessian":[2.2928679E2,1.17649734E2,1.11637054E2,2.5875292E1,9.1774445E1,5.253423E1,5.910283E1,2.1503422E0,2.372495E1,7.614084E1,1.5633607E1,1.7098228E1,3.5436E1,2.3301811E1,3.580102E1,1.0412322E0,1.10911E0,2.4333978E0,2.1291552E1,1.6819275E1,5.9321564E1,3.366369E0,1.2267238E1,1.3967116E1,3.131112E0,1.1988941E0,3.4237106E1,1.4294201E1,9.007609E0,3.0163214E0,3.27847E1,1.3350945E0,1.0983033E0,1.0317099E0,2.0259842E1,3.5619786E0,1.3257296E1,1.3787687E1,4.5533875E1,1.2687614E0,2.0976076E0,1.1183724E1,1.0835135E0,1.2816536E1,1.1505796E0,1.216256E0,1.914856E0,3.6342306E0,1.065997E1,1.1246002E0,7.883009E0,1.8995174E0,1.116804E0,1.8144658E0,3.0970232E1],"tree_param":{"num_deleted":"0","num_feature":"41","num_nodes":"55","size_leaf_vector":"1"}},{"base_weights":[-9.068013E-4,-1.11693524E-1,3.8380745E-1,2.5289974E-1,-3.7499425E-1,4.974372E-1,-5.0811805E-2,7.233347E-1,1.150446E-1,3.852995E-1,-4.045641E-1,5.9429044E-1,-3.2367966E-1,-2.3835838E-1,9.6816057E-1,-1.8780419E-1,3.1288493E-1,-3.8146593E-2,1.0021528E-1,-4.2150328E-1,6.028671E-2,-7.1210064E-2,6.926825E-1,-4.6538964E-2,1.56064825E-2,1.6748076E-2,-4.164728E-2,-4.2088507E-3,1.3000356E-1,2.902073E-2,-3.2984447E-2,-4.489397E-3,5.6792986E-2,3.8414527E-2,-4.3836463E-2,6.0452994E-2,-4.8887085E-2,4.7512274E-2,1.1035017E-1],"categories":[],"categories_nodes":[],"categories_segments":[],"categories_sizes":[],"default_left":[0,0,0,0,0,0,0,0,0,0,0,0,0,0,0,0,0,0,0,0,0,0,0,0,0,0,0,0,0,0,0,0,0,0,0,0,0,0,0],"id":28,"left_children":[1,3,5,7,9,11,-1,13,15,17,19,21,23,25,27,29,31,-1,-1,33,-1,35,37,-1,-1,-1,-1,-1,-1,-1,-1,-1,-1,-1,-1,-1,-1,-1,-1],"loss_changes":[9.83728E0,1.7297201E1,5.4829464E0,4.828733E0,2.5042048E0,3.872857E0,0E0,4.227688E0,3.639634E0,2.4741092E0,1.9782257E0,2.7830582E0,4.4860202E-1,3.7676108E-1,4.6576204E0,1.7415632E0,3.3583825E0,0E0,0E0,1.5261478E0,0E0,2.069131E0,2.73485E0,0E0,0E0,0E0,0E0,0E0,0E0,0E0,0E0,0E0,0E0,0E0,0E0,0E0,0E0,0E0,0E0],"parents":[2147483647,0,0,1,1,2,2,3,3,4,4,5,5,7,7,8,8,9,9,10,10,11,11,12,12,13,13,14,14,15,15,16,16,19,19,21,21,22,22],"right_children":[2,4,6,8,10,12,-1,14,16,18,20,22,24,26,28,30,32,-1,-1,34,-1,36,38,-1,-1,-1,-1,-1,-1,-1,-1,-1,-1,-1,-1,-1,-1,-1,-1],"split_conditions":[5.4308796E-1,-5.322681E-1,1.0797764E0,-6.870403E-1,-6.89956E-1,1.2529873E0,-5.0811805E-2,-3.3754522E-1,-2.4814251E-1,-7.384041E-1,8.0073214E-1,-7.466443E-1,1.3959742E0,-1.4567829E0,-6.2340075E-1,-7.384571E-1,-2.4157827E-1,-3.8146593E-2,1.0021528E-1,-1.5184168E0,6.028671E-2,9.9186987E-1,3.9043272E-1,-4.6538964E-2,1.56064825E-2,1.6748076E-2,-4.164728E-2,-4.2088507E-3,1.3000356E-1,2.902073E-2,-3.2984447E-2,-4.489397E-3,5.6792986E-2,3.8414527E-2,-4.3836463E-2,6.0452994E-2,-4.8887085E-2,4.7512274E-2,1.1035017E-1],"split_indices":[25,31,37,20,26,28,0,2,29,0,19,10,20,28,8,11,22,0,0,10,0,5,8,0,0,0,0,0,0,0,0,0,0,0,0,0,0,0,0],"split_type":[0,0,0,0,0,0,0,0,0,0,0,0,0,0,0,0,0,0,0,0,0,0,0,0,0,0,0,0,0,0,0,0,0,0,0,0,0,0,0],"sum_hessian":[2.2880124E2,1.7819566E2,5.060559E1,7.4741035E1,1.0345462E2,4.5279366E1,5.326224E0,1.5975855E1,5.8765182E1,3.422628E0,1.0003199E2,4.0749123E1,4.530242E0,3.247168E0,1.2728687E1,2.3240286E1,3.5524895E1,1.6960212E0,1.7266068E0,9.894984E1,1.0821577E0,5.2842135E0,3.546491E1,3.5203116E0,1.0099303E0,1.0086436E0,2.2385244E0,3.3634133E0,9.365273E0,5.0848813E0,1.8155405E1,1.5127668E1,2.0397226E1,1.5819213E0,9.736791E1,1.8475747E0,3.436639E0,2.4595997E1,1.0868914E1],"tree_param":{"num_deleted":"0","num_feature":"41","num_nodes":"39","size_leaf_vector":"1"}},{"base_weights":[2.043545E-3,-2.1287207E-1,2.4554844E-1,1.9492947E-2,-3.6170316E-1,4.2940304E-1,-1.0948528E-1,1.14013314E-1,-5.5980515E-2,